{"learner":{"attributes":{"scikit_learn":"{\"_estimator_type\": \"regressor\"}"},"feature_names":[],"feature_types":[],"gradient_booster":{"model":{"cats":{"enc":[],"feature_segments":[],"sorted_idx":[]},"gbtree_model_param":{"num_parallel_tree":"1","num_trees":"300"},"iteration_indptr":[0,1,2,3,4,5,6,7,8,9,10,11,12,13,14,15,16,17,18,19,20,21,22,23,24,25,26,27,28,29,30,31,32,33,34,35,36,37,38,39,40,41,42,43,44,45,46,47,48,49,50,51,52,53,54,55,56,57,58,59,60,61,62,63,64,65,66,67,68,69,70,71,72,73,74,75,76,77,78,79,80,81,82,83,84,85,86,87,88,89,90,91,92,93,94,95,96,97,98,99,100,101,102,103,104,105,106,107,108,109,110,111,112,113,114,115,116,117,118,119,120,121,122,123,124,125,126,127,128,129,130,131,132,133,134,135,136,137,138,139,140,141,142,143,144,145,146,147,148,149,150,151,152,153,154,155,156,157,158,159,160,161,162,163,164,165,166,167,168,169,170,171,172,173,174,175,176,177,178,179,180,181,182,183,184,185,186,187,188,189,190,191,192,193,194,195,196,197,198,199,200,201,202,203,204,205,206,207,208,209,210,211,212,213,214,215,216,217,218,219,220,221,222,223,224,225,226,227,228,229,230,231,232,233,234,235,236,237,238,239,240,241,242,243,244,245,246,247,248,249,250,251,252,253,254,255,256,257,258,259,260,261,262,263,264,265,266,267,268,269,270,271,272,273,274,275,276,277,278,279,280,281,282,283,284,285,286,287,288,289,290,291,292,293,294,295,296,297,298,299,300],"tree_info":[0,0,0,0,0,0,0,0,0,0,0,0,0,0,0,0,0,0,0,0,0,0,0,0,0,0,0,0,0,0,0,0,0,0,0,0,0,0,0,0,0,0,0,0,0,0,0,0,0,0,0,0,0,0,0,0,0,0,0,0,0,0,0,0,0,0,0,0,0,0,0,0,0,0,0,0,0,0,0,0,0,0,0,0,0,0,0,0,0,0,0,0,0,0,0,0,0,0,0,0,0,0,0,0,0,0,0,0,0,0,0,0,0,0,0,0,0,0,0,0,0,0,0,0,0,0,0,0,0,0,0,0,0,0,0,0,0,0,0,0,0,0,0,0,0,0,0,0,0,0,0,0,0,0,0,0,0,0,0,0,0,0,0,0,0,0,0,0,0,0,0,0,0,0,0,0,0,0,0,0,0,0,0,0,0,0,0,0,0,0,0,0,0,0,0,0,0,0,0,0,0,0,0,0,0,0,0,0,0,0,0,0,0,0,0,0,0,0,0,0,0,0,0,0,0,0,0,0,0,0,0,0,0,0,0,0,0,0,0,0,0,0,0,0,0,0,0,0,0,0,0,0,0,0,0,0,0,0,0,0,0,0,0,0,0,0,0,0,0,0,0,0,0,0,0,0,0,0,0,0,0,0,0,0,0,0,0,0,0,0,0,0,0,0,0,0,0,0,0,0],"trees":[{"base_weights":[1.361339E-1,-9.5204155E1,9.4634926E1,-1.4787306E2,-4.8383133E1,4.717502E1,1.4866586E2,-1.8534088E2,-1.2739153E2,-8.015284E1,-2.7472708E1,2.5311193E1,7.258715E1,1.27466324E2,1.9512457E2,-1.032053E1,-8.601649E0,-7.0445075E0,-5.611218E0,-4.571548E0,-3.3907819E0,-2.0307782E0,-7.003741E-1,7.0590866E-1,1.9196032E0,3.0059986E0,4.2499804E0,5.5738363E0,7.1038585E0,8.778295E0,1.1258879E1],"categories":[],"categories_nodes":[],"categories_segments":[],"categories_sizes":[],"default_left":[0,0,0,0,0,0,0,0,0,0,0,0,0,0,0,0,0,0,0,0,0,0,0,0,0,0,0,0,0,0,0],"id":0,"left_children":[1,3,5,7,9,11,13,15,17,19,21,23,25,27,29,-1,-1,-1,-1,-1,-1,-1,-1,-1,-1,-1,-1,-1,-1,-1,-1],"loss_changes":[6.097658E7,8.300822E6,8.709032E6,1.192684E6,1.1835948E6,1.00435625E6,1.540108E6,1.20912E5,1.94632E5,9.2295E4,1.9020094E5,1.4220681E5,1.244E5,2.39718E5,2.51974E5,0E0,0E0,0E0,0E0,0E0,0E0,0E0,0E0,0E0,0E0,0E0,0E0,0E0,0E0,0E0,0E0],"parents":[2147483647,0,0,1,1,2,2,3,3,4,4,5,5,6,6,7,7,8,8,9,9,10,10,11,11,12,12,13,13,14,14],"right_children":[2,4,6,8,10,12,14,16,18,20,22,24,26,28,30,-1,-1,-1,-1,-1,-1,-1,-1,-1,-1,-1,-1,-1,-1,-1,-1],"split_conditions":[2.613307E2,1.614516E2,3.5807898E2,1.0360856E2,2.049675E2,3.1158484E2,4.2066757E2,7.1789635E1,1.3748854E2,1.8188681E2,2.3507494E2,2.882254E2,3.3267493E2,3.8682095E2,4.588238E2,-1.032053E1,-8.601649E0,-7.0445075E0,-5.611218E0,-4.571548E0,-3.3907819E0,-2.0307782E0,-7.003741E-1,7.0590866E-1,1.9196032E0,3.0059986E0,4.2499804E0,5.5738363E0,7.1038585E0,8.778295E0,1.1258879E1],"split_indices":[0,0,0,0,0,0,0,0,0,0,0,0,0,0,0,0,0,0,0,0,0,0,0,0,0,0,0,0,0,0,0],"split_type":[0,0,0,0,0,0,0,0,0,0,0,0,0,0,0,0,0,0,0,0,0,0,0,0,0,0,0,0,0,0,0],"sum_hessian":[6.766E3,3.368E3,3.398E3,1.584E3,1.784E3,1.81E3,1.588E3,5.57E2,1.027E3,7.07E2,1.077E3,9.74E2,8.36E2,1.093E3,4.95E2,2.1E2,3.47E2,5.39E2,4.88E2,3.66E2,3.41E2,5.44E2,5.33E2,5.26E2,4.48E2,4.2E2,4.16E2,5.26E2,5.67E2,3.04E2,1.91E2],"tree_param":{"num_deleted":"0","num_feature":"8","num_nodes":"31","size_leaf_vector":"1"}},{"base_weights":[6.070894E-1,-8.955967E1,9.011632E1,-1.3970955E2,-4.345603E1,4.5383724E1,1.4098384E2,-1.7764702E2,-1.1930664E2,-7.0273964E1,-2.2022749E1,2.6078758E1,7.06106E1,1.23089264E2,1.9296631E2,-9.830581E0,-8.188575E0,-6.6478105E0,-5.271631E0,-3.9613302E0,-2.727073E0,-1.6524874E0,-5.305342E-1,7.28829E-1,1.8776302E0,3.0952654E0,4.1749935E0,5.3684235E0,6.9635262E0,9.008001E0,1.18492985E1],"categories":[],"categories_nodes":[],"categories_segments":[],"categories_sizes":[],"default_left":[0,0,0,0,0,0,0,0,0,0,0,0,0,0,0,0,0,0,0,0,0,0,0,0,0,0,0,0,0,0,0],"id":1,"left_children":[1,3,5,7,9,11,13,15,17,19,21,23,25,27,29,-1,-1,-1,-1,-1,-1,-1,-1,-1,-1,-1,-1,-1,-1,-1,-1],"loss_changes":[5.514749E7,7.86427E6,7.79605E6,1.240454E6,1.0187065E6,8.8741825E5,1.468262E6,1.1723E5,1.87263E5,1.066535E5,1.2397572E5,1.3617269E5,8.35705E4,2.89264E5,1.87827E5,0E0,0E0,0E0,0E0,0E0,0E0,0E0,0E0,0E0,0E0,0E0,0E0,0E0,0E0,0E0,0E0],"parents":[2147483647,0,0,1,1,2,2,3,3,4,4,5,5,6,6,7,7,8,8,9,9,10,10,11,11,12,12,13,13,14,14],"right_children":[2,4,6,8,10,12,14,16,18,20,22,24,26,28,30,-1,-1,-1,-1,-1,-1,-1,-1,-1,-1,-1,-1,-1,-1,-1,-1],"split_conditions":[2.6400623E2,1.6495795E2,3.5840338E2,1.04208954E2,2.1336911E2,3.1409717E2,4.2702014E2,7.521484E1,1.375086E2,1.9305351E2,2.3893977E2,2.898072E2,3.394811E2,3.8994266E2,4.804441E2,-9.830581E0,-8.188575E0,-6.6478105E0,-5.271631E0,-3.9613302E0,-2.727073E0,-1.6524874E0,-5.305342E-1,7.28829E-1,1.8776302E0,3.0952654E0,4.1749935E0,5.3684235E0,6.9635262E0,9.008001E0,1.18492985E1],"split_indices":[4,4,4,4,4,4,4,4,4,4,4,4,4,4,4,0,0,0,0,0,0,0,0,0,0,0,0,0,0,0,0],"split_type":[0,0,0,0,0,0,0,0,0,0,0,0,0,0,0,0,0,0,0,0,0,0,0,0,0,0,0,0,0,0,0],"sum_hessian":[6.831E3,3.403E3,3.428E3,1.629E3,1.774E3,1.825E3,1.603E3,5.67E2,1.062E3,7.87E2,9.87E2,1.035E3,7.9E2,1.195E3,4.08E2,2.34E2,3.33E2,5.31E2,5.31E2,4.99E2,2.88E2,5.01E2,4.86E2,5.18E2,5.17E2,4.75E2,3.15E2,6.1E2,5.85E2,3.2E2,8.8E1],"tree_param":{"num_deleted":"0","num_feature":"8","num_nodes":"31","size_leaf_vector":"1"}},{"base_weights":[-4.340618E-1,-8.770274E1,8.253664E1,-1.3339041E2,-4.375355E1,4.0137203E1,1.3478067E2,-1.6565022E2,-1.1189034E2,-6.989579E1,-2.4902393E1,1.9499113E1,6.3361927E1,1.1461025E2,1.7636972E2,-9.222735E0,-7.567703E0,-6.1703362E0,-4.943013E0,-3.910402E0,-2.8537402E0,-1.7913185E0,-7.128624E-1,4.7776577E-1,1.5735562E0,2.6194985E0,3.7776418E0,5.100659E0,6.450948E0,8.021246E0,1.0417474E1],"categories":[],"categories_nodes":[],"categories_segments":[],"categories_sizes":[],"default_left":[0,0,0,0,0,0,0,0,0,0,0,0,0,0,0,0,0,0,0,0,0,0,0,0,0,0,0,0,0,0,0],"id":2,"left_children":[1,3,5,7,9,11,13,15,17,19,21,23,25,27,29,-1,-1,-1,-1,-1,-1,-1,-1,-1,-1,-1,-1,-1,-1,-1,-1],"loss_changes":[4.9041556E7,6.622342E6,7.68546E6,1.103662E6,8.2814425E5,9.1808025E5,1.284198E6,1.45446E5,1.33936E5,7.06555E4,1.1344575E5,1.2076622E5,1.1667875E5,1.77399E5,2.24554E5,0E0,0E0,0E0,0E0,0E0,0E0,0E0,0E0,0E0,0E0,0E0,0E0,0E0,0E0,0E0,0E0],"parents":[2147483647,0,0,1,1,2,2,3,3,4,4,5,5,6,6,7,7,8,8,9,9,10,10,11,11,12,12,13,13,14,14],"right_children":[2,4,6,8,10,12,14,16,18,20,22,24,26,28,30,-1,-1,-1,-1,-1,-1,-1,-1,-1,-1,-1,-1,-1,-1,-1,-1],"split_conditions":[2.579934E2,1.6495795E2,3.5840338E2,1.10607864E2,2.082614E2,3.0676282E2,4.1829535E2,7.791359E1,1.3961629E2,1.8764497E2,2.3365388E2,2.858022E2,3.327026E2,3.8994266E2,4.6259686E2,-9.222735E0,-7.567703E0,-6.1703362E0,-4.943013E0,-3.910402E0,-2.8537402E0,-1.7913185E0,-7.128624E-1,4.7776577E-1,1.5735562E0,2.6194985E0,3.7776418E0,5.100659E0,6.450948E0,8.021246E0,1.0417474E1],"split_indices":[4,4,4,4,4,4,4,4,4,4,4,4,4,4,4,0,0,0,0,0,0,0,0,0,0,0,0,0,0,0,0],"split_type":[0,0,0,0,0,0,0,0,0,0,0,0,0,0,0,0,0,0,0,0,0,0,0,0,0,0,0,0,0,0,0],"sum_hessian":[6.771E3,3.3E3,3.471E3,1.617E3,1.683E3,1.917E3,1.554E3,6.44E2,9.73E2,7.04E2,9.79E2,1.016E3,9.01E2,1.049E3,5.05E2,2.73E2,3.71E2,5.12E2,4.61E2,4.24E2,2.8E2,4.82E2,4.97E2,5.56E2,4.6E2,4.77E2,4.24E2,5.64E2,4.85E2,3.41E2,1.64E2],"tree_param":{"num_deleted":"0","num_feature":"8","num_nodes":"31","size_leaf_vector":"1"}},{"base_weights":[6.268009E-1,-8.021944E1,8.116395E1,-1.2157009E2,-3.5521603E1,4.1414574E1,1.2818341E2,-1.5141798E2,-9.930739E1,-5.9339485E1,-2.0064142E1,2.2536678E1,6.2590855E1,1.1370558E2,1.7782748E2,-8.611587E0,-6.854055E0,-5.5751452E0,-4.4014406E0,-3.375489E0,-2.4513133E0,-1.4641033E0,-4.331205E-1,6.5854114E-1,1.6670588E0,2.6499078E0,3.7632089E0,4.996643E0,6.509548E0,8.308502E0,1.0666232E1],"categories":[],"categories_nodes":[],"categories_segments":[],"categories_sizes":[],"default_left":[0,0,0,0,0,0,0,0,0,0,0,0,0,0,0,0,0,0,0,0,0,0,0,0,0,0,0,0,0,0,0],"id":3,"left_children":[1,3,5,7,9,11,13,15,17,19,21,23,25,27,29,-1,-1,-1,-1,-1,-1,-1,-1,-1,-1,-1,-1,-1,-1,-1,-1],"loss_changes":[4.4217052E7,6.259504E6,6.352994E6,1.15445E6,5.9890875E5,7.361445E5,1.099546E6,2.00162E5,1.29225E5,5.06905E4,1.03791875E5,9.8422125E4,1.01644E5,2.61468E5,1.09346E5,0E0,0E0,0E0,0E0,0E0,0E0,0E0,0E0,0E0,0E0,0E0,0E0,0E0,0E0,0E0,0E0],"parents":[2147483647,0,0,1,1,2,2,3,3,4,4,5,5,6,6,7,7,8,8,9,9,10,10,11,11,12,12,13,13,14,14],"right_children":[2,4,6,8,10,12,14,16,18,20,22,24,26,28,30,-1,-1,-1,-1,-1,-1,-1,-1,-1,-1,-1,-1,-1,-1,-1,-1],"split_conditions":[2.6400623E2,1.7231027E2,3.5972195E2,1.1873186E2,2.1336911E2,3.1104132E2,4.3151215E2,8.416363E1,1.4521046E2,1.9305351E2,2.4079019E2,2.898072E2,3.3727457E2,3.9706622E2,4.804441E2,-8.611587E0,-6.854055E0,-5.5751452E0,-4.4014406E0,-3.375489E0,-2.4513133E0,-1.4641033E0,-4.331205E-1,6.5854114E-1,1.6670588E0,2.6499078E0,3.7632089E0,4.996643E0,6.509548E0,8.308502E0,1.0666232E1],"split_indices":[4,4,4,4,4,4,4,4,4,4,4,4,4,4,4,0,0,0,0,0,0,0,0,0,0,0,0,0,0,0,0],"split_type":[0,0,0,0,0,0,0,0,0,0,0,0,0,0,0,0,0,0,0,0,0,0,0,0,0,0,0,0,0,0,0],"sum_hessian":[6.789E3,3.388E3,3.401E3,1.759E3,1.629E3,1.844E3,1.557E3,7.49E2,1.01E3,6.4E2,9.89E2,9.76E2,8.68E2,1.208E3,3.49E2,3.01E2,4.48E2,4.81E2,5.29E2,3.54E2,2.86E2,5.46E2,4.43E2,5.24E2,4.52E2,4.97E2,3.71E2,6.62E2,5.46E2,2.67E2,8.2E1],"tree_param":{"num_deleted":"0","num_feature":"8","num_nodes":"31","size_leaf_vector":"1"}},{"base_weights":[-9.841202E-1,-8.095493E1,7.295013E1,-1.2390387E2,-4.4711178E1,3.2656345E1,1.1767207E2,-1.5330354E2,-1.0584621E2,-6.7745544E1,-2.5437849E1,1.28599825E1,5.0730347E1,9.92297E1,1.5639127E2,-8.887642E0,-7.262573E0,-5.9070425E0,-4.8549247E0,-3.8192532E0,-2.907468E0,-1.8460617E0,-7.958791E-1,1.7870702E-1,1.0612632E0,2.0709953E0,3.1051166E0,4.3136764E0,5.6108227E0,7.120389E0,9.490451E0],"categories":[],"categories_nodes":[],"categories_segments":[],"categories_sizes":[],"default_left":[0,0,0,0,0,0,0,0,0,0,0,0,0,0,0,0,0,0,0,0,0,0,0,0,0,0,0,0,0,0,0],"id":4,"left_children":[1,3,5,7,9,11,13,15,17,19,21,23,25,27,29,-1,-1,-1,-1,-1,-1,-1,-1,-1,-1,-1,-1,-1,-1,-1,-1],"loss_changes":[4.0246936E7,5.084626E6,6.369874E6,7.77958E5,7.86277E5,6.65564E5,1.181244E6,8.5772E4,8.8529E4,6.2533E4,1.0523356E5,6.905569E4,1.0043675E5,1.81777E5,2.24809E5,0E0,0E0,0E0,0E0,0E0,0E0,0E0,0E0,0E0,0E0,0E0,0E0,0E0,0E0,0E0,0E0],"parents":[2147483647,0,0,1,1,2,2,3,3,4,4,5,5,6,6,7,7,8,8,9,9,10,10,11,11,12,12,13,13,14,14],"right_children":[2,4,6,8,10,12,14,16,18,20,22,24,26,28,30,-1,-1,-1,-1,-1,-1,-1,-1,-1,-1,-1,-1,-1,-1,-1,-1],"split_conditions":[2.5450705E2,1.5638983E2,3.5034396E2,1.04208954E2,2.030384E2,2.9968027E2,4.1386444E2,6.2791378E1,1.2866286E2,1.7898682E2,2.2840408E2,2.7651276E2,3.2570447E2,3.8184348E2,4.6259686E2,-8.887642E0,-7.262573E0,-5.9070425E0,-4.8549247E0,-3.8192532E0,-2.907468E0,-1.8460617E0,-7.958791E-1,1.7870702E-1,1.0612632E0,2.0709953E0,3.1051166E0,4.3136764E0,5.6108227E0,7.120389E0,9.490451E0],"split_indices":[4,4,4,4,4,4,4,4,4,4,4,4,4,4,4,0,0,0,0,0,0,0,0,0,0,0,0,0,0,0,0],"split_type":[0,0,0,0,0,0,0,0,0,0,0,0,0,0,0,0,0,0,0,0,0,0,0,0,0,0,0,0,0,0,0],"sum_hessian":[6.805E3,3.269E3,3.536E3,1.495E3,1.774E3,1.861E3,1.675E3,5.66E2,9.29E2,8.07E2,9.67E2,8.89E2,9.72E2,1.137E3,5.38E2,1.35E2,4.31E2,3.81E2,5.48E2,4.21E2,3.86E2,4.37E2,5.3E2,4.22E2,4.67E2,5.37E2,4.35E2,5.73E2,5.64E2,3.83E2,1.55E2],"tree_param":{"num_deleted":"0","num_feature":"8","num_nodes":"31","size_leaf_vector":"1"}},{"base_weights":[6.250888E-1,-7.183679E1,7.361884E1,-1.1057481E2,-3.1465908E1,3.907266E1,1.1710224E2,-1.4323181E2,-9.288638E1,-5.017831E1,-1.4936893E1,2.181303E1,5.8949223E1,1.0473275E2,1.684303E2,-8.097009E0,-6.6540475E0,-5.2553544E0,-4.0153217E0,-3.0066307E0,-2.0283852E0,-1.0507951E0,-2.1144898E-1,6.616931E-1,1.5681651E0,2.4626255E0,3.4490697E0,4.6191087E0,5.999716E0,7.8824997E0,1.0407348E1],"categories":[],"categories_nodes":[],"categories_segments":[],"categories_sizes":[],"default_left":[0,0,0,0,0,0,0,0,0,0,0,0,0,0,0,0,0,0,0,0,0,0,0,0,0,0,0,0,0,0,0],"id":5,"left_children":[1,3,5,7,9,11,13,15,17,19,21,23,25,27,29,-1,-1,-1,-1,-1,-1,-1,-1,-1,-1,-1,-1,-1,-1,-1,-1],"loss_changes":[3.615212E7,5.36064E6,5.110352E6,9.97564E5,5.1917338E5,6.50181E5,9.3913E5,9.4831E4,1.66492E5,7.2935875E4,5.8102203E4,8.298866E4,8.239075E4,2.18284E5,9.1743E4,0E0,0E0,0E0,0E0,0E0,0E0,0E0,0E0,0E0,0E0,0E0,0E0,0E0,0E0,0E0,0E0],"parents":[2147483647,0,0,1,1,2,2,3,3,4,4,5,5,6,6,7,7,8,8,9,9,10,10,11,11,12,12,13,13,14,14],"right_children":[2,4,6,8,10,12,14,16,18,20,22,24,26,28,30,-1,-1,-1,-1,-1,-1,-1,-1,-1,-1,-1,-1,-1,-1,-1,-1],"split_conditions":[2.656308E2,1.7231027E2,3.6246094E2,1.0835194E2,2.2083946E2,3.1409717E2,4.370434E2,7.211082E1,1.4245235E2,1.9506111E2,2.4768617E2,2.9063055E2,3.3727457E2,4.0014035E2,4.9427112E2,-8.097009E0,-6.6540475E0,-5.2553544E0,-4.0153217E0,-3.0066307E0,-2.0283852E0,-1.0507951E0,-2.1144898E-1,6.616931E-1,1.5681651E0,2.4626255E0,3.4490697E0,4.6191087E0,5.999716E0,7.8824997E0,1.0407348E1],"split_indices":[4,4,4,4,4,4,4,4,4,4,4,4,4,4,4,0,0,0,0,0,0,0,0,0,0,0,0,0,0,0,0],"split_type":[0,0,0,0,0,0,0,0,0,0,0,0,0,0,0,0,0,0,0,0,0,0,0,0,0,0,0,0,0,0,0],"sum_hessian":[6.833E3,3.429E3,3.404E3,1.749E3,1.68E3,1.898E3,1.506E3,6.12E2,1.137E3,7.87E2,8.93E2,1.017E3,8.81E2,1.216E3,2.9E2,2.1E2,4.02E2,5.73E2,5.64E2,3.84E2,4.03E2,5.69E2,3.24E2,5.37E2,4.8E2,4.51E2,4.3E2,6.76E2,5.4E2,2.32E2,5.8E1],"tree_param":{"num_deleted":"0","num_feature":"8","num_nodes":"31","size_leaf_vector":"1"}},{"base_weights":[2.384198E-1,-7.21388E1,6.734731E1,-1.0910755E2,-3.719795E1,3.1745316E1,1.08448975E2,-1.3923254E2,-9.369751E1,-5.734148E1,-2.0856255E1,1.4416594E1,4.9021946E1,9.0533714E1,1.407873E2,-7.766308E0,-6.490883E0,-5.2520657E0,-4.1626205E0,-3.2492166E0,-2.4127805E0,-1.4670419E0,-5.9665287E-1,2.608846E-1,1.1041964E0,1.9766419E0,2.919357E0,3.9572613E0,5.0481796E0,6.180503E0,8.1022E0],"categories":[],"categories_nodes":[],"categories_segments":[],"categories_sizes":[],"default_left":[0,0,0,0,0,0,0,0,0,0,0,0,0,0,0,0,0,0,0,0,0,0,0,0,0,0,0,0,0,0,0],"id":6,"left_children":[1,3,5,7,9,11,13,15,17,19,21,23,25,27,29,-1,-1,-1,-1,-1,-1,-1,-1,-1,-1,-1,-1,-1,-1,-1,-1],"loss_changes":[3.2921794E7,4.208226E6,5.142973E6,7.22266E5,5.51159E5,5.639211E5,9.3273E5,6.0719E4,1.15766E5,4.900375E4,6.990425E4,6.6392875E4,8.157275E4,1.17067E5,1.91717E5,0E0,0E0,0E0,0E0,0E0,0E0,0E0,0E0,0E0,0E0,0E0,0E0,0E0,0E0,0E0,0E0],"parents":[2147483647,0,0,1,1,2,2,3,3,4,4,5,5,6,6,7,7,8,8,9,9,10,10,11,11,12,12,13,13,14,14],"right_children":[2,4,6,8,10,12,14,16,18,20,22,24,26,28,30,-1,-1,-1,-1,-1,-1,-1,-1,-1,-1,-1,-1,-1,-1,-1,-1],"split_conditions":[2.579934E2,1.6348203E2,3.5582413E2,1.01574036E2,2.082614E2,3.0324738E2,4.1386444E2,6.834029E1,1.350995E2,1.8465326E2,2.3365388E2,2.790989E2,3.2774164E2,3.8184348E2,4.489396E2,-7.766308E0,-6.490883E0,-5.2520657E0,-4.1626205E0,-3.2492166E0,-2.4127805E0,-1.4670419E0,-5.9665287E-1,2.608846E-1,1.1041964E0,1.9766419E0,2.919357E0,3.9572613E0,5.0481796E0,6.180503E0,8.1022E0],"split_indices":[4,4,4,4,4,4,4,4,4,4,4,4,4,4,4,0,0,0,0,0,0,0,0,0,0,0,0,0,0,0,0],"split_type":[0,0,0,0,0,0,0,0,0,0,0,0,0,0,0,0,0,0,0,0,0,0,0,0,0,0,0,0,0,0,0],"sum_hessian":[6.776E3,3.26E3,3.516E3,1.583E3,1.677E3,1.885E3,1.631E3,5.33E2,1.05E3,7.5E2,9.27E2,9.42E2,9.43E2,1.052E3,5.79E2,1.91E2,3.42E2,4.99E2,5.51E2,4.04E2,3.46E2,4.74E2,4.53E2,4.29E2,5.13E2,4.71E2,4.72E2,5.07E2,5.45E2,3.24E2,2.55E2],"tree_param":{"num_deleted":"0","num_feature":"8","num_nodes":"31","size_leaf_vector":"1"}},{"base_weights":[-3.7534428E-1,-6.804862E1,6.3723034E1,-1.04853264E2,-3.550822E1,3.0215857E1,1.024522E2,-1.3131111E2,-8.946732E1,-5.5142918E1,-1.9419643E1,1.2519864E1,4.569167E1,9.006203E1,1.4494281E2,-7.180735E0,-5.9718223E0,-5.172659E0,-4.136326E0,-3.076993E0,-2.2067533E0,-1.4946142E0,-6.341029E-1,2.3280315E-1,9.9773234E-1,1.8514398E0,2.7848165E0,3.8975956E0,5.1711435E0,6.755128E0,8.915434E0],"categories":[],"categories_nodes":[],"categories_segments":[],"categories_sizes":[],"default_left":[0,0,0,0,0,0,0,0,0,0,0,0,0,0,0,0,0,0,0,0,0,0,0,0,0,0,0,0,0,0,0],"id":7,"left_children":[1,3,5,7,9,11,13,15,17,19,21,23,25,27,29,-1,-1,-1,-1,-1,-1,-1,-1,-1,-1,-1,-1,-1,-1,-1,-1],"loss_changes":[2.9579098E7,3.968828E6,4.541454E6,6.21646E5,5.555275E5,5.1400488E5,8.41904E5,6.6098E4,8.44735E4,5.311375E4,6.806016E4,5.1237484E4,8.4770875E4,1.95789E5,9.5719E4,0E0,0E0,0E0,0E0,0E0,0E0,0E0,0E0,0E0,0E0,0E0,0E0,0E0,0E0,0E0,0E0],"parents":[2147483647,0,0,1,1,2,2,3,3,4,4,5,5,6,6,7,7,8,8,9,9,10,10,11,11,12,12,13,13,14,14],"right_children":[2,4,6,8,10,12,14,16,18,20,22,24,26,28,30,-1,-1,-1,-1,-1,-1,-1,-1,-1,-1,-1,-1,-1,-1,-1,-1],"split_conditions":[2.579934E2,1.605292E2,3.5582413E2,1.04208954E2,2.082614E2,3.0078387E2,4.2900082E2,7.791359E1,1.2548155E2,1.8764497E2,2.2840408E2,2.790989E2,3.2774164E2,3.9218137E2,4.804441E2,-7.180735E0,-5.9718223E0,-5.172659E0,-4.136326E0,-3.076993E0,-2.2067533E0,-1.4946142E0,-6.341029E-1,2.3280315E-1,9.9773234E-1,1.8514398E0,2.7848165E0,3.8975956E0,5.1711435E0,6.755128E0,8.915434E0],"split_indices":[4,4,4,4,4,4,4,4,4,4,4,4,4,4,4,0,0,0,0,0,0,0,0,0,0,0,0,0,0,0,0],"split_type":[0,0,0,0,0,0,0,0,0,0,0,0,0,0,0,0,0,0,0,0,0,0,0,0,0,0,0,0,0,0,0],"sum_hessian":[6.817E3,3.316E3,3.501E3,1.555E3,1.761E3,1.878E3,1.623E3,5.69E2,9.86E2,7.92E2,9.69E2,8.77E2,1.001E3,1.259E3,3.64E2,2.74E2,2.95E2,3.16E2,6.7E2,4.98E2,2.94E2,3.78E2,5.91E2,4.27E2,4.5E2,5.39E2,4.62E2,6.64E2,5.95E2,2.85E2,7.9E1],"tree_param":{"num_deleted":"0","num_feature":"8","num_nodes":"31","size_leaf_vector":"1"}},{"base_weights":[4.532113E-2,-6.603493E1,5.9977295E1,-1.0408047E2,-3.8370735E1,2.697563E1,9.6890305E1,-1.2752113E2,-9.078106E1,-5.703723E1,-2.078072E1,1.121248E1,4.2380688E1,8.1045494E1,1.2777184E2,-7.422761E0,-6.0587764E0,-5.002114E0,-4.127518E0,-3.2265224E0,-2.4225078E0,-1.4987444E0,-6.807903E-1,1.9545056E-1,9.3166155E-1,1.721672E0,2.560146E0,3.52109E0,4.574333E0,5.9315057E0,8.229342E0],"categories":[],"categories_nodes":[],"categories_segments":[],"categories_sizes":[],"default_left":[0,0,0,0,0,0,0,0,0,0,0,0,0,0,0,0,0,0,0,0,0,0,0,0,0,0,0,0,0,0,0],"id":8,"left_children":[1,3,5,7,9,11,13,15,17,19,21,23,25,27,29,-1,-1,-1,-1,-1,-1,-1,-1,-1,-1,-1,-1,-1,-1,-1,-1],"loss_changes":[2.7029184E7,3.412404E6,4.357278E6,4.14247E5,6.16422E5,4.5871525E5,8.16072E5,4.73415E4,5.8421E4,5.55445E4,6.3486656E4,5.0653492E4,6.525575E4,1.17665E5,1.72619E5,0E0,0E0,0E0,0E0,0E0,0E0,0E0,0E0,0E0,0E0,0E0,0E0,0E0,0E0,0E0,0E0],"parents":[2147483647,0,0,1,1,2,2,3,3,4,4,5,5,6,6,7,7,8,8,9,9,10,10,11,11,12,12,13,13,14,14],"right_children":[2,4,6,8,10,12,14,16,18,20,22,24,26,28,30,-1,-1,-1,-1,-1,-1,-1,-1,-1,-1,-1,-1,-1,-1,-1,-1],"split_conditions":[2.5450705E2,1.5116281E2,3.5217102E2,9.7349625E1,2.030384E2,3.0078387E2,4.1386444E2,5.9755997E1,1.2548155E2,1.7559567E2,2.2697224E2,2.790989E2,3.2570447E2,3.8184348E2,4.7364935E2,-7.422761E0,-6.0587764E0,-5.002114E0,-4.127518E0,-3.2265224E0,-2.4225078E0,-1.4987444E0,-6.807903E-1,1.9545056E-1,9.3166155E-1,1.721672E0,2.560146E0,3.52109E0,4.574333E0,5.9315057E0,8.229342E0],"split_indices":[4,4,4,4,4,4,4,4,4,4,4,4,4,4,4,0,0,0,0,0,0,0,0,0,0,0,0,0,0,0,0],"split_type":[0,0,0,0,0,0,0,0,0,0,0,0,0,0,0,0,0,0,0,0,0,0,0,0,0,0,0,0,0,0,0],"sum_hessian":[6.823E3,3.245E3,3.578E3,1.365E3,1.88E3,1.89E3,1.688E3,4.91E2,8.74E2,9.11E2,9.69E2,9.35E2,9.55E2,1.118E3,5.7E2,1.09E2,3.82E2,4.06E2,4.68E2,4.83E2,4.28E2,4.23E2,5.46E2,4.72E2,4.63E2,5.05E2,4.5E2,5.58E2,5.6E2,4.6E2,1.1E2],"tree_param":{"num_deleted":"0","num_feature":"8","num_nodes":"31","size_leaf_vector":"1"}},{"base_weights":[4.6654213E-2,-6.0817078E1,5.751554E1,-9.473971E1,-3.2752186E1,2.880898E1,9.378905E1,-1.12729675E2,-7.749489E1,-5.3605923E1,-1.9374498E1,1.3831213E1,4.5439484E1,8.238149E1,1.3135017E2,-6.3189187E0,-5.0870876E0,-4.286904E0,-3.6117857E0,-2.9137301E0,-2.301602E0,-1.3598202E0,-5.1461905E-1,2.4301536E-1,1.0494928E0,1.8466524E0,2.718748E0,3.5823205E0,4.6746306E0,6.1582165E0,8.497604E0],"categories":[],"categories_nodes":[],"categories_segments":[],"categories_sizes":[],"default_left":[0,0,0,0,0,0,0,0,0,0,0,0,0,0,0,0,0,0,0,0,0,0,0,0,0,0,0,0,0,0,0],"id":9,"left_children":[1,3,5,7,9,11,13,15,17,19,21,23,25,27,29,-1,-1,-1,-1,-1,-1,-1,-1,-1,-1,-1,-1,-1,-1,-1,-1],"loss_changes":[2.377435E7,3.139552E6,3.637628E6,4.54734E5,5.0334075E5,4.8583412E5,6.50732E5,9.6449E4,2.69985E4,2.2271125E4,7.807284E4,6.597728E4,6.8291E4,1.348685E5,9.21625E4,0E0,0E0,0E0,0E0,0E0,0E0,0E0,0E0,0E0,0E0,0E0,0E0,0E0,0E0,0E0,0E0],"parents":[2147483647,0,0,1,1,2,2,3,3,4,4,5,5,6,6,7,7,8,8,9,9,10,10,11,11,12,12,13,13,14,14],"right_children":[2,4,6,8,10,12,14,16,18,20,22,24,26,28,30,-1,-1,-1,-1,-1,-1,-1,-1,-1,-1,-1,-1,-1,-1,-1,-1],"split_conditions":[2.5724585E2,1.589683E2,3.5979416E2,1.1539594E2,1.9965889E2,3.0892374E2,4.3286017E2,8.343026E1,1.3441644E2,1.8188681E2,2.3297763E2,2.807258E2,3.3267493E2,3.9383383E2,4.950504E2,-6.3189187E0,-5.0870876E0,-4.286904E0,-3.6117857E0,-2.9137301E0,-2.301602E0,-1.3598202E0,-5.1461905E-1,2.4301536E-1,1.0494928E0,1.8466524E0,2.718748E0,3.5823205E0,4.6746306E0,6.1582165E0,8.497604E0],"split_indices":[0,0,0,0,0,0,0,0,0,0,0,0,0,0,0,0,0,0,0,0,0,0,0,0,0,0,0,0,0,0,0],"split_type":[0,0,0,0,0,0,0,0,0,0,0,0,0,0,0,0,0,0,0,0,0,0,0,0,0,0,0,0,0,0,0],"sum_hessian":[6.795E3,3.3E3,3.495E3,1.493E3,1.807E3,1.952E3,1.543E3,7.28E2,7.65E2,7.05E2,1.102E3,1.028E3,9.24E2,1.186E3,3.57E2,3.2E2,4.08E2,2.92E2,4.73E2,4.32E2,2.73E2,5.91E2,5.11E2,4.57E2,5.71E2,4.76E2,4.48E2,6.07E2,5.79E2,2.98E2,5.9E1],"tree_param":{"num_deleted":"0","num_feature":"8","num_nodes":"31","size_leaf_vector":"1"}},{"base_weights":[2.1400733E-1,-6.057784E1,5.336679E1,-9.437673E1,-3.575739E1,2.7297777E1,9.1340996E1,-1.1776371E2,-8.312202E1,-5.1827118E1,-1.9648254E1,1.2210583E1,4.4245537E1,8.179503E1,1.3064429E2,-6.949657E0,-5.60732E0,-4.6134715E0,-3.7839448E0,-2.9103885E0,-2.1754642E0,-1.3417019E0,-6.4467466E-1,1.8875794E-1,9.9022275E-1,1.8516344E0,2.6977947E0,3.6526449E0,4.691996E0,6.13898E0,8.100607E0],"categories":[],"categories_nodes":[],"categories_segments":[],"categories_sizes":[],"default_left":[0,0,0,0,0,0,0,0,0,0,0,0,0,0,0,0,0,0,0,0,0,0,0,0,0,0,0,0,0,0,0],"id":10,"left_children":[1,3,5,7,9,11,13,15,17,19,21,23,25,27,29,-1,-1,-1,-1,-1,-1,-1,-1,-1,-1,-1,-1,-1,-1,-1,-1],"loss_changes":[2.1833598E7,2.640837E6,3.566264E6,3.41318E5,4.69858E5,5.463839E5,5.39693E5,3.57845E4,5.455E4,4.5754E4,4.3819844E4,7.250005E4,6.8522375E4,1.176955E5,5.03895E4,0E0,0E0,0E0,0E0,0E0,0E0,0E0,0E0,0E0,0E0,0E0,0E0,0E0,0E0,0E0,0E0],"parents":[2147483647,0,0,1,1,2,2,3,3,4,4,5,5,6,6,7,7,8,8,9,9,10,10,11,11,12,12,13,13,14,14],"right_children":[2,4,6,8,10,12,14,16,18,20,22,24,26,28,30,-1,-1,-1,-1,-1,-1,-1,-1,-1,-1,-1,-1,-1,-1,-1,-1],"split_conditions":[2.5139124E2,1.5116281E2,3.638449E2,9.368183E1,2.030384E2,3.0817548E2,4.370434E2,5.449526E1,1.222581E2,1.7726974E2,2.2840408E2,2.8079037E2,3.394811E2,4.026049E2,4.9427112E2,-6.949657E0,-5.60732E0,-4.6134715E0,-3.7839448E0,-2.9103885E0,-2.1754642E0,-1.3417019E0,-6.4467466E-1,1.8875794E-1,9.9022275E-1,1.8516344E0,2.6977947E0,3.6526449E0,4.691996E0,6.13898E0,8.100607E0],"split_indices":[4,4,4,4,4,4,4,4,4,4,4,4,4,4,4,0,0,0,0,0,0,0,0,0,0,0,0,0,0,0,0],"split_type":[0,0,0,0,0,0,0,0,0,0,0,0,0,0,0,0,0,0,0,0,0,0,0,0,0,0,0,0,0,0,0],"sum_hessian":[6.755E3,3.151E3,3.604E3,1.333E3,1.818E3,2.138E3,1.466E3,4.3E2,9.03E2,9.09E2,9.09E2,1.132E3,1.006E3,1.182E3,2.84E2,8.5E1,3.45E2,4E2,5.03E2,5.11E2,3.98E2,4.39E2,4.7E2,5.37E2,5.95E2,5.8E2,4.26E2,6.89E2,4.93E2,2.31E2,5.3E1],"tree_param":{"num_deleted":"0","num_feature":"8","num_nodes":"31","size_leaf_vector":"1"}},{"base_weights":[4.351826E-1,-5.4684013E1,5.2363087E1,-8.494953E1,-2.8728296E1,2.4266188E1,8.225774E1,-1.07182594E2,-7.364955E1,-4.4333466E1,-1.4080801E1,1.2432572E1,3.8488846E1,7.332927E1,1.2069734E2,-6.3531947E0,-5.172694E0,-3.9820364E0,-3.2494004E0,-2.2879179E0,-1.7626296E-1,-7.762445E-1,1.5285261E0,5.69478E-1,2.9857526E0,1.84569E0,4.562641E0,3.0304115E0,4.131423E0,5.7453933E0,8.520004E0],"categories":[],"categories_nodes":[],"categories_segments":[],"categories_sizes":[],"default_left":[0,0,0,0,0,0,0,0,0,0,0,0,0,0,0,0,0,0,0,0,0,0,0,0,0,0,0,0,0,0,0],"id":11,"left_children":[1,3,5,7,9,11,13,15,17,19,21,23,25,27,29,-1,-1,-1,-1,-1,-1,-1,-1,-1,-1,-1,-1,-1,-1,-1,-1],"loss_changes":[1.9394432E7,2.579695E6,2.928568E6,3.73209E5,4.0417925E5,3.0246625E5,5.71149E5,2.45645E4,4.71695E4,4.9666E4,5.947278E4,4.783997E4,6.4515875E4,1.575155E5,7.1609E4,0E0,0E0,0E0,0E0,0E0,0E0,0E0,0E0,0E0,0E0,0E0,0E0,0E0,0E0,0E0,0E0],"parents":[2147483647,0,0,1,1,2,2,3,3,4,4,5,5,6,6,7,7,8,8,9,9,10,10,11,11,12,12,13,13,14,14],"right_children":[2,4,6,8,10,12,14,16,18,20,22,24,26,28,30,-1,-1,-1,-1,-1,-1,-1,-1,-1,-1,-1,-1,-1,-1,-1,-1],"split_conditions":[2.577546E2,1.5812386E2,3.5020776E2,9.896649E1,2.0952696E2,3.0570627E2,4.3208173E2,5.390392E1,1.3671684E2,2.1036598E1,2.2631742E1,2.8784704E1,2.8784704E1,3.8145685E2,5.190178E2,-6.3531947E0,-5.172694E0,-3.9820364E0,-3.2494004E0,-2.2879179E0,-1.7626296E-1,-7.762445E-1,1.5285261E0,5.69478E-1,2.9857526E0,1.84569E0,4.562641E0,3.0304115E0,4.131423E0,5.7453933E0,8.520004E0],"split_indices":[1,1,1,1,1,1,1,1,1,5,5,5,5,1,1,0,0,0,0,0,0,0,0,0,0,0,0,0,0,0,0],"split_type":[0,0,0,0,0,0,0,0,0,0,0,0,0,0,0,0,0,0,0,0,0,0,0,0,0,0,0,0,0,0,0],"sum_hessian":[6.774E3,3.286E3,3.488E3,1.516E3,1.77E3,1.799E3,1.689E3,5.08E2,1.008E3,8.56E2,9.14E2,9.83E2,8.16E2,1.373E3,3.16E2,7.5E1,4.33E2,5.91E2,4.17E2,8.27E2,2.9E1,8.86E2,2.8E1,9.63E2,2E1,7.94E2,2.2E1,5.83E2,7.9E2,2.86E2,3E1],"tree_param":{"num_deleted":"0","num_feature":"8","num_nodes":"31","size_leaf_vector":"1"}},{"base_weights":[7.302711E-2,-5.0805E1,5.141687E1,-7.742598E1,-2.2081657E1,2.8415792E1,8.3591644E1,-9.9901215E1,-6.4704216E1,-3.6023567E1,-1.0753421E1,1.5079296E1,4.24006E1,7.432835E1,1.1736173E2,-5.60849E0,-4.53391E0,-3.556617E0,-2.685795E0,-2.1266482E0,-1.4980692E0,-8.5871553E-1,-2.386029E-1,4.2446804E-1,1.0755438E0,1.759579E0,2.4813125E0,3.313636E0,4.259838E0,5.5179744E0,7.3074555E0],"categories":[],"categories_nodes":[],"categories_segments":[],"categories_sizes":[],"default_left":[0,0,0,0,0,0,0,0,0,0,0,0,0,0,0,0,0,0,0,0,0,0,0,0,0,0,0,0,0,0,0],"id":12,"left_children":[1,3,5,7,9,11,13,15,17,19,21,23,25,27,29,-1,-1,-1,-1,-1,-1,-1,-1,-1,-1,-1,-1,-1,-1,-1,-1],"loss_changes":[1.7771296E7,2.611066E6,2.503439E6,5.00464E5,2.5941475E5,3.678955E5,4.3265E5,6.21135E4,7.63365E4,2.7801188E4,3.4826594E4,4.2749047E4,4.845975E4,9.1521E4,4.47215E4,0E0,0E0,0E0,0E0,0E0,0E0,0E0,0E0,0E0,0E0,0E0,0E0,0E0,0E0,0E0,0E0],"parents":[2147483647,0,0,1,1,2,2,3,3,4,4,5,5,6,6,7,7,8,8,9,9,10,10,11,11,12,12,13,13,14,14],"right_children":[2,4,6,8,10,12,14,16,18,20,22,24,26,28,30,-1,-1,-1,-1,-1,-1,-1,-1,-1,-1,-1,-1,-1,-1,-1,-1],"split_conditions":[2.656308E2,1.7231027E2,3.669885E2,1.10607864E2,2.1915997E2,3.1409717E2,4.370434E2,7.791359E1,1.5116281E2,1.9305351E2,2.41509E2,2.898072E2,3.394811E2,4.026049E2,4.9427112E2,-5.60849E0,-4.53391E0,-3.556617E0,-2.685795E0,-2.1266482E0,-1.4980692E0,-8.5871553E-1,-2.386029E-1,4.2446804E-1,1.0755438E0,1.759579E0,2.4813125E0,3.313636E0,4.259838E0,5.5179744E0,7.3074555E0],"split_indices":[4,4,4,4,4,4,4,4,4,4,4,4,4,4,4,0,0,0,0,0,0,0,0,0,0,0,0,0,0,0,0],"split_type":[0,0,0,0,0,0,0,0,0,0,0,0,0,0,0,0,0,0,0,0,0,0,0,0,0,0,0,0,0,0,0],"sum_hessian":[6.801E3,3.416E3,3.385E3,1.772E3,1.644E3,1.975E3,1.41E3,6.38E2,1.134E3,7.36E2,9.08E2,1.012E3,9.63E2,1.109E3,3.01E2,2.69E2,3.69E2,7.12E2,4.22E2,3.52E2,3.84E2,4.37E2,4.71E2,5.01E2,5.11E2,4.85E2,4.78E2,6.41E2,4.68E2,2.46E2,5.5E1],"tree_param":{"num_deleted":"0","num_feature":"8","num_nodes":"31","size_leaf_vector":"1"}},{"base_weights":[1.0329558E-1,-4.7841682E1,4.9448338E1,-7.571769E1,-2.3490297E1,2.6853447E1,7.916642E1,-9.453782E1,-6.3459038E1,-3.8113953E1,-1.1728349E1,1.5155071E1,4.0793285E1,7.048542E1,1.12318794E2,-5.255752E0,-4.278655E0,-3.5322597E0,-2.7881498E0,-2.204265E0,-1.5627321E0,-9.430065E-1,-3.2039565E-1,5.0597525E-1,1.1458936E0,1.7563788E0,2.445666E0,3.0570004E0,3.9527566E0,5.377896E0,7.7276177E0],"categories":[],"categories_nodes":[],"categories_segments":[],"categories_sizes":[],"default_left":[0,0,0,0,0,0,0,0,0,0,0,0,0,0,0,0,0,0,0,0,0,0,0,0,0,0,0,0,0,0,0],"id":13,"left_children":[1,3,5,7,9,11,13,15,17,19,21,23,25,27,29,-1,-1,-1,-1,-1,-1,-1,-1,-1,-1,-1,-1,-1,-1,-1,-1],"loss_changes":[1.6111417E7,2.3428535E6,2.251339E6,3.65427E5,3.1689294E5,3.1052025E5,4.09081E5,5.10085E4,5.0136E4,3.228325E4,3.873147E4,4.0379375E4,3.82985E4,8.7333E4,4.346975E4,0E0,0E0,0E0,0E0,0E0,0E0,0E0,0E0,0E0,0E0,0E0,0E0,0E0,0E0,0E0,0E0],"parents":[2147483647,0,0,1,1,2,2,3,3,4,4,5,5,6,6,7,7,8,8,9,9,10,10,11,11,12,12,13,13,14,14],"right_children":[2,4,6,8,10,12,14,16,18,20,22,24,26,28,30,-1,-1,-1,-1,-1,-1,-1,-1,-1,-1,-1,-1,-1,-1,-1,-1],"split_conditions":[2.656308E2,1.6495795E2,3.655323E2,1.10607864E2,2.1336911E2,3.1692838E2,4.370434E2,8.085414E1,1.3961629E2,1.8764497E2,2.3505428E2,2.9607523E2,3.4608472E2,3.9706622E2,5.2332416E2,-5.255752E0,-4.278655E0,-3.5322597E0,-2.7881498E0,-2.204265E0,-1.5627321E0,-9.430065E-1,-3.2039565E-1,5.0597525E-1,1.1458936E0,1.7563788E0,2.445666E0,3.0570004E0,3.9527566E0,5.377896E0,7.7276177E0],"split_indices":[4,4,4,4,4,4,4,4,4,4,4,4,4,4,4,0,0,0,0,0,0,0,0,0,0,0,0,0,0,0,0],"split_type":[0,0,0,0,0,0,0,0,0,0,0,0,0,0,0,0,0,0,0,0,0,0,0,0,0,0,0,0,0,0,0],"sum_hessian":[6.808E3,3.453E3,3.355E3,1.609E3,1.844E3,1.907E3,1.448E3,6.32E2,9.77E2,8.21E2,1.023E3,1.038E3,8.69E2,1.15E3,2.98E2,2.85E2,3.47E2,5.01E2,4.76E2,4.36E2,3.85E2,4.36E2,5.87E2,6.31E2,4.07E2,5.15E2,3.54E2,5.54E2,5.96E2,2.71E2,2.7E1],"tree_param":{"num_deleted":"0","num_feature":"8","num_nodes":"31","size_leaf_vector":"1"}},{"base_weights":[-2.0580965E-1,-4.5563313E1,4.6642597E1,-7.216522E1,-2.1916454E1,2.6039309E1,7.593254E1,-9.2650314E1,-6.1205547E1,-3.5991417E1,-1.1042544E1,1.5575024E1,4.0067898E1,6.760235E1,1.06342575E2,-5.5629563E0,-4.3953767E0,-3.4059646E0,-2.6811824E0,-2.0916638E0,-1.4722604E0,-8.535404E-1,-2.2498682E-1,4.5917946E-1,1.1219686E0,1.7470859E0,2.2964268E0,3.039834E0,3.8535619E0,5.072463E0,7.49507E0],"categories":[],"categories_nodes":[],"categories_segments":[],"categories_sizes":[],"default_left":[0,0,0,0,0,0,0,0,0,0,0,0,0,0,0,0,0,0,0,0,0,0,0,0,0,0,0,0,0,0,0],"id":14,"left_children":[1,3,5,7,9,11,13,15,17,19,21,23,25,27,29,-1,-1,-1,-1,-1,-1,-1,-1,-1,-1,-1,-1,-1,-1,-1,-1],"loss_changes":[1.4587622E7,2.1925415E6,2.0359285E6,3.62735E5,2.8243388E5,2.9061988E5,3.45923E5,4.05065E4,5.25285E4,2.9546E4,4.109825E4,4.971825E4,2.383325E4,6.5994E4,4.828525E4,0E0,0E0,0E0,0E0,0E0,0E0,0E0,0E0,0E0,0E0,0E0,0E0,0E0,0E0,0E0,0E0],"parents":[2147483647,0,0,1,1,2,2,3,3,4,4,5,5,6,6,7,7,8,8,9,9,10,10,11,11,12,12,13,13,14,14],"right_children":[2,4,6,8,10,12,14,16,18,20,22,24,26,28,30,-1,-1,-1,-1,-1,-1,-1,-1,-1,-1,-1,-1,-1,-1,-1,-1],"split_conditions":[2.6673273E2,1.6495795E2,3.6865927E2,1.04208954E2,2.1336911E2,3.2106058E2,4.370434E2,5.9755997E1,1.3860712E2,1.8764497E2,2.4079019E2,2.94705E2,3.4608472E2,4.038903E2,5.2332416E2,-5.5629563E0,-4.3953767E0,-3.4059646E0,-2.6811824E0,-2.0916638E0,-1.4722604E0,-8.535404E-1,-2.2498682E-1,4.5917946E-1,1.1219686E0,1.7470859E0,2.2964268E0,3.039834E0,3.8535619E0,5.072463E0,7.49507E0],"split_indices":[4,4,4,4,4,4,4,4,4,4,4,4,4,4,4,0,0,0,0,0,0,0,0,0,0,0,0,0,0,0,0],"split_type":[0,0,0,0,0,0,0,0,0,0,0,0,0,0,0,0,0,0,0,0,0,0,0,0,0,0,0,0,0,0,0],"sum_hessian":[6.863E3,3.487E3,3.376E3,1.64E3,1.847E3,1.983E3,1.393E3,5.69E2,1.071E3,8.04E2,1.043E3,1.137E3,8.46E2,1.096E3,2.97E2,1.11E2,4.58E2,5.56E2,5.15E2,4.22E2,3.82E2,5.42E2,5.01E2,5.9E2,5.47E2,4.55E2,3.91E2,6.42E2,4.54E2,2.7E2,2.7E1],"tree_param":{"num_deleted":"0","num_feature":"8","num_nodes":"31","size_leaf_vector":"1"}},{"base_weights":[4.2421064E-1,-4.308874E1,4.4794083E1,-6.622297E1,-1.844762E1,2.5867498E1,7.389554E1,-8.247734E1,-5.3108448E1,-2.993232E1,-8.236767E0,1.4586194E1,3.9623272E1,6.583691E1,1.035921E2,-4.735685E0,-3.708105E0,-2.9087527E0,-2.3119175E0,-1.7969261E0,-1.2134026E0,-6.1654216E-1,-1.0993689E-1,4.6588588E-1,1.0516169E0,1.6857874E0,2.2734866E0,3.0097606E0,3.7995305E0,4.9017453E0,7.110654E0],"categories":[],"categories_nodes":[],"categories_segments":[],"categories_sizes":[],"default_left":[0,0,0,0,0,0,0,0,0,0,0,0,0,0,0,0,0,0,0,0,0,0,0,0,0,0,0,0,0,0,0],"id":15,"left_children":[1,3,5,7,9,11,13,15,17,19,21,23,25,27,29,-1,-1,-1,-1,-1,-1,-1,-1,-1,-1,-1,-1,-1,-1,-1,-1],"loss_changes":[1.3066734E7,1.946642E6,1.843779E6,3.71209E5,1.9394638E5,3.1474862E5,3.090565E5,7.28315E4,3.1342E4,2.5624062E4,2.1675734E4,3.7769766E4,3.0061375E4,5.5045E4,4.6129E4,0E0,0E0,0E0,0E0,0E0,0E0,0E0,0E0,0E0,0E0,0E0,0E0,0E0,0E0,0E0,0E0],"parents":[2147483647,0,0,1,1,2,2,3,3,4,4,5,5,6,6,7,7,8,8,9,9,10,10,11,11,12,12,13,13,14,14],"right_children":[2,4,6,8,10,12,14,16,18,20,22,24,26,28,30,-1,-1,-1,-1,-1,-1,-1,-1,-1,-1,-1,-1,-1,-1,-1,-1],"split_conditions":[2.6673273E2,1.7231027E2,3.7248682E2,1.2070847E2,2.2264894E2,3.2106058E2,4.4298752E2,8.416363E1,1.5116281E2,1.9506111E2,2.4768617E2,2.9607523E2,3.4778705E2,4.095604E2,5.2332416E2,-4.735685E0,-3.708105E0,-2.9087527E0,-2.3119175E0,-1.7969261E0,-1.2134026E0,-6.1654216E-1,-1.0993689E-1,4.6588588E-1,1.0516169E0,1.6857874E0,2.2734866E0,3.0097606E0,3.7995305E0,4.9017453E0,7.110654E0],"split_indices":[4,4,4,4,4,4,4,4,4,4,4,4,4,4,4,0,0,0,0,0,0,0,0,0,0,0,0,0,0,0,0],"split_type":[0,0,0,0,0,0,0,0,0,0,0,0,0,0,0,0,0,0,0,0,0,0,0,0,0,0,0,0,0,0,0],"sum_hessian":[6.766E3,3.416E3,3.35E3,1.761E3,1.655E3,2.031E3,1.319E3,7.84E2,9.77E2,7.78E2,8.77E2,1.117E3,9.14E2,1.04E3,2.79E2,3.13E2,4.71E2,5.58E2,4.19E2,3.75E2,4.03E2,5.22E2,3.55E2,6.16E2,5.01E2,4.58E2,4.56E2,6.73E2,3.67E2,2.47E2,3.2E1],"tree_param":{"num_deleted":"0","num_feature":"8","num_nodes":"31","size_leaf_vector":"1"}},{"base_weights":[-1.5713827E-1,-4.3170822E1,3.9749203E1,-6.606749E1,-2.3252426E1,1.752138E1,6.3001823E1,-8.279677E1,-5.681594E1,-3.7290787E1,-1.3844399E1,6.472617E0,2.608777E1,5.369481E1,8.71029E1,-4.692329E0,-3.8489292E0,-3.2621865E0,-2.5842893E0,-1.9005127E0,-5.461691E-1,-9.5078295E-1,-3.665437E-1,2.9288062E-1,2.2847614E0,1.043603E0,1.6656531E0,2.2409003E0,3.067713E0,4.0178027E0,5.5263534E0],"categories":[],"categories_nodes":[],"categories_segments":[],"categories_sizes":[],"default_left":[0,0,0,0,0,0,0,0,0,0,0,0,0,0,0,0,0,0,0,0,0,0,0,0,0,0,0,0,0,0,0],"id":16,"left_children":[1,3,5,7,9,11,13,15,17,19,21,23,25,27,29,-1,-1,-1,-1,-1,-1,-1,-1,-1,-1,-1,-1,-1,-1,-1,-1],"loss_changes":[1.1634564E7,1.4861385E6,1.81615E6,2.30071E5,2.3007862E5,1.7009969E5,3.806725E5,2.734675E4,3.898725E4,1.28591875E4,3.5124203E4,1.8711277E4,3.7474188E4,8.16855E4,6.648375E4,0E0,0E0,0E0,0E0,0E0,0E0,0E0,0E0,0E0,0E0,0E0,0E0,0E0,0E0,0E0,0E0],"parents":[2147483647,0,0,1,1,2,2,3,3,4,4,5,5,6,6,7,7,8,8,9,9,10,10,11,11,12,12,13,13,14,14],"right_children":[2,4,6,8,10,12,14,16,18,20,22,24,26,28,30,-1,-1,-1,-1,-1,-1,-1,-1,-1,-1,-1,-1,-1,-1,-1,-1],"split_conditions":[2.5573386E2,1.589683E2,3.4845834E2,1.0151829E2,1.9965889E2,2.9486694E2,4.2066757E2,6.883838E1,1.26995766E2,2.0529995E1,2.3297763E2,2.8784704E1,3.2329047E2,3.8068655E2,4.7417062E2,-4.692329E0,-3.8489292E0,-3.2621865E0,-2.5842893E0,-1.9005127E0,-5.461691E-1,-9.5078295E-1,-3.665437E-1,2.9288062E-1,2.2847614E0,1.043603E0,1.6656531E0,2.2409003E0,3.067713E0,4.0178027E0,5.5263534E0],"split_indices":[0,0,0,0,0,0,0,0,0,5,0,5,0,0,0,0,0,0,0,0,0,0,0,0,0,0,0,0,0,0,0],"split_type":[0,0,0,0,0,0,0,0,0,0,0,0,0,0,0,0,0,0,0,0,0,0,0,0,0,0,0,0,0,0,0],"sum_hessian":[6.776E3,3.261E3,3.515E3,1.516E3,1.745E3,1.798E3,1.717E3,5.37E2,9.79E2,6.99E2,1.046E3,7.86E2,1.012E3,1.241E3,4.76E2,1.8E2,3.57E2,3.66E2,6.13E2,6.8E2,1.9E1,5.82E2,4.64E2,7.75E2,1.1E1,5.9E2,4.22E2,5.78E2,6.63E2,3.73E2,1.03E2],"tree_param":{"num_deleted":"0","num_feature":"8","num_nodes":"31","size_leaf_vector":"1"}},{"base_weights":[-1.3180566E-1,-4.0509567E1,3.814902E1,-6.025086E1,-1.8841265E1,1.992743E1,6.3680733E1,-7.493446E1,-4.9232784E1,-2.755412E1,-9.350118E0,1.059213E1,3.2499268E1,5.6992508E1,9.347164E1,-4.4784575E0,-3.4942327E0,-2.68528E0,-2.1193502E0,-1.657855E0,-1.0479486E0,-5.02529E-1,1.2864639E0,1.2481665E-1,7.803052E-1,1.5862657E0,4.02982E0,2.5439248E0,3.3132026E0,4.294083E0,5.940792E0],"categories":[],"categories_nodes":[],"categories_segments":[],"categories_sizes":[],"default_left":[0,0,0,0,0,0,0,0,0,0,0,0,0,0,0,0,0,0,0,0,0,0,0,0,0,0,0,0,0,0,0],"id":17,"left_children":[1,3,5,7,9,11,13,15,17,19,21,23,25,27,29,-1,-1,-1,-1,-1,-1,-1,-1,-1,-1,-1,-1,-1,-1,-1,-1],"loss_changes":[1.0436527E7,1.4044775E6,1.6112045E6,2.74407E5,1.29404375E5,2.3719194E5,2.82173E5,4.80425E4,2.78745E4,2.9489875E4,1.8735008E4,4.716786E4,2.951975E4,6.35635E4,4.036675E4,0E0,0E0,0E0,0E0,0E0,0E0,0E0,0E0,0E0,0E0,0E0,0E0,0E0,0E0,0E0,0E0],"parents":[2147483647,0,0,1,1,2,2,3,3,4,4,5,5,6,6,7,7,8,8,9,9,10,10,11,11,12,12,13,13,14,14],"right_children":[2,4,6,8,10,12,14,16,18,20,22,24,26,28,30,-1,-1,-1,-1,-1,-1,-1,-1,-1,-1,-1,-1,-1,-1,-1,-1],"split_conditions":[2.5724585E2,1.6974786E2,3.638139E2,1.1716093E2,2.1991948E2,3.160099E2,4.443903E2,6.883838E1,1.4936502E2,1.9774576E2,2.5472252E1,2.807258E2,3.5352818E1,4.0436295E2,4.950504E2,-4.4784575E0,-3.4942327E0,-2.68528E0,-2.1193502E0,-1.657855E0,-1.0479486E0,-5.02529E-1,1.2864639E0,1.2481665E-1,7.803052E-1,1.5862657E0,4.02982E0,2.5439248E0,3.3132026E0,4.294083E0,5.940792E0],"split_indices":[0,0,0,0,0,0,0,0,0,0,5,0,5,0,0,0,0,0,0,0,0,0,0,0,0,0,0,0,0,0,0],"split_type":[0,0,0,0,0,0,0,0,0,0,0,0,0,0,0,0,0,0,0,0,0,0,0,0,0,0,0,0,0,0,0],"sum_hessian":[6.75E3,3.285E3,3.465E3,1.718E3,1.567E3,2.023E3,1.442E3,7.34E2,9.84E2,8.16E2,7.51E2,1.162E3,8.61E2,1.18E3,2.62E2,1.84E2,5.5E2,5.91E2,3.93E2,4.39E2,3.77E2,7.37E2,1.4E1,4.45E2,7.17E2,8.49E2,1.2E1,7.15E2,4.65E2,2.05E2,5.7E1],"tree_param":{"num_deleted":"0","num_feature":"8","num_nodes":"31","size_leaf_vector":"1"}},{"base_weights":[2.2195967E-1,-3.7142014E1,3.8179676E1,-5.643923E1,-1.533533E1,2.114456E1,6.1637268E1,-7.2103264E1,-4.5772636E1,-2.4842966E1,-7.0681343E0,1.2118252E1,3.2543087E1,5.4940174E1,8.730448E1,-4.0477443E0,-3.1997578E0,-2.5998142E0,-2.0114706E0,-1.4771721E0,-1.0259345E0,-5.590243E-1,-1.3726977E-1,3.0182055E-1,8.0786973E-1,1.3224291E0,1.8531808E0,2.4284923E0,3.1472948E0,4.0671554E0,5.6740813E0],"categories":[],"categories_nodes":[],"categories_segments":[],"categories_sizes":[],"default_left":[0,0,0,0,0,0,0,0,0,0,0,0,0,0,0,0,0,0,0,0,0,0,0,0,0,0,0,0,0,0,0],"id":18,"left_children":[1,3,5,7,9,11,13,15,17,19,21,23,25,27,29,-1,-1,-1,-1,-1,-1,-1,-1,-1,-1,-1,-1,-1,-1,-1,-1],"loss_changes":[9.715021E6,1.451758E6,1.356539E6,3.026145E5,1.2731281E5,2.0228781E5,2.408285E5,4.79145E4,3.5572E4,1.4714781E4,1.5415797E4,2.6946766E4,2.2982188E4,5.48665E4,3.662875E4,0E0,0E0,0E0,0E0,0E0,0E0,0E0,0E0,0E0,0E0,0E0,0E0,0E0,0E0,0E0,0E0],"parents":[2147483647,0,0,1,1,2,2,3,3,4,4,5,5,6,6,7,7,8,8,9,9,10,10,11,11,12,12,13,13,14,14],"right_children":[2,4,6,8,10,12,14,16,18,20,22,24,26,28,30,-1,-1,-1,-1,-1,-1,-1,-1,-1,-1,-1,-1,-1,-1,-1,-1],"split_conditions":[2.6673273E2,1.7559567E2,3.669885E2,1.17007256E2,2.2264894E2,3.195837E2,4.370434E2,8.650392E1,1.4521046E2,1.9784778E2,2.43807E2,2.8715405E2,3.394811E2,4.026049E2,4.9427112E2,-4.0477443E0,-3.1997578E0,-2.5998142E0,-2.0114706E0,-1.4771721E0,-1.0259345E0,-5.590243E-1,-1.3726977E-1,3.0182055E-1,8.0786973E-1,1.3224291E0,1.8531808E0,2.4284923E0,3.1472948E0,4.0671554E0,5.6740813E0],"split_indices":[4,4,4,4,4,4,4,4,4,4,4,4,4,4,4,0,0,0,0,0,0,0,0,0,0,0,0,0,0,0,0],"split_type":[0,0,0,0,0,0,0,0,0,0,0,0,0,0,0,0,0,0,0,0,0,0,0,0,0,0,0,0,0,0,0],"sum_hessian":[6.848E3,3.451E3,3.397E3,1.83E3,1.621E3,1.969E3,1.428E3,7.39E2,1.091E3,7.53E2,8.68E2,1.1E3,8.69E2,1.135E3,2.93E2,3.49E2,3.9E2,5.1E2,5.81E2,3.58E2,3.95E2,4.44E2,4.24E2,4.4E2,6.6E2,3.73E2,4.96E2,6.36E2,4.99E2,2.42E2,5.1E1],"tree_param":{"num_deleted":"0","num_feature":"8","num_nodes":"31","size_leaf_vector":"1"}},{"base_weights":[-1.6808844E-1,-3.813222E1,3.3639095E1,-5.923808E1,-2.2557898E1,1.4242569E1,5.432642E1,-7.677201E1,-5.2633793E1,-3.279657E1,-1.2677874E1,5.8615713E0,2.301606E1,4.5205513E1,7.353663E1,-4.571156E0,-3.6024048E0,-2.9244606E0,-2.3232203E0,-1.8403889E0,-1.350978E0,-9.075617E-1,-4.2706487E-1,5.057631E-2,5.07935E-1,9.166609E-1,1.3664657E0,1.9809744E0,2.6519222E0,3.4340494E0,5.058097E0],"categories":[],"categories_nodes":[],"categories_segments":[],"categories_sizes":[],"default_left":[0,0,0,0,0,0,0,0,0,0,0,0,0,0,0,0,0,0,0,0,0,0,0,0,0,0,0,0,0,0,0],"id":19,"left_children":[1,3,5,7,9,11,13,15,17,19,21,23,25,27,29,-1,-1,-1,-1,-1,-1,-1,-1,-1,-1,-1,-1,-1,-1,-1,-1],"loss_changes":[8.68646E6,1.0465815E6,1.4357382E6,1.526225E5,1.8530631E5,1.3582025E5,3.001355E5,1.886625E4,3.28905E4,1.987775E4,2.103425E4,1.9725285E4,1.7733438E4,4.9389E4,6.7616E4,0E0,0E0,0E0,0E0,0E0,0E0,0E0,0E0,0E0,0E0,0E0,0E0,0E0,0E0,0E0,0E0],"parents":[2147483647,0,0,1,1,2,2,3,3,4,4,5,5,6,6,7,7,8,8,9,9,10,10,11,11,12,12,13,13,14,14],"right_children":[2,4,6,8,10,12,14,16,18,20,22,24,26,28,30,-1,-1,-1,-1,-1,-1,-1,-1,-1,-1,-1,-1,-1,-1,-1,-1],"split_conditions":[2.5139124E2,1.5116281E2,3.4778705E2,8.901107E1,2.030384E2,2.9968027E2,4.1386444E2,5.449526E1,1.2548155E2,1.7898682E2,2.25902E2,2.7528018E2,3.2106058E2,3.8497153E2,4.804441E2,-4.571156E0,-3.6024048E0,-2.9244606E0,-2.3232203E0,-1.8403889E0,-1.350978E0,-9.075617E-1,-4.2706487E-1,5.057631E-2,5.07935E-1,9.166609E-1,1.3664657E0,1.9809744E0,2.6519222E0,3.4340494E0,5.058097E0],"split_indices":[4,4,4,4,4,4,4,4,4,4,4,4,4,4,4,0,0,0,0,0,0,0,0,0,0,0,0,0,0,0,0],"split_type":[0,0,0,0,0,0,0,0,0,0,0,0,0,0,0,0,0,0,0,0,0,0,0,0,0,0,0,0,0,0,0],"sum_hessian":[6.766E3,3.187E3,3.579E3,1.352E3,1.835E3,1.848E3,1.731E3,3.67E2,9.85E2,9E2,9.35E2,9.46E2,9.02E2,1.176E3,5.55E2,8.5E1,2.82E2,5.01E2,4.84E2,5.28E2,3.72E2,4.01E2,5.34E2,4.45E2,5.01E2,4.35E2,4.67E2,6.9E2,4.86E2,4.75E2,8E1],"tree_param":{"num_deleted":"0","num_feature":"8","num_nodes":"31","size_leaf_vector":"1"}},{"base_weights":[9.417971E-2,-3.6518604E1,3.2039238E1,-5.674306E1,-2.0984375E1,1.4284646E1,5.262767E1,-7.0777954E1,-4.911838E1,-2.9980202E1,-1.0656521E1,5.3159614E0,2.2719297E1,4.4329735E1,7.18572E1,-4.32377E0,-3.346674E0,-2.6933708E0,-2.198526E0,-1.7587814E0,-1.254568E0,-5.6509995E-1,1.3952054E0,5.219757E-2,4.9476478E-1,8.703231E-1,1.336929E0,1.835265E0,2.4829385E0,3.2949624E0,4.6774387E0],"categories":[],"categories_nodes":[],"categories_segments":[],"categories_sizes":[],"default_left":[0,0,0,0,0,0,0,0,0,0,0,0,0,0,0,0,0,0,0,0,0,0,0,0,0,0,0,0,0,0,0],"id":20,"left_children":[1,3,5,7,9,11,13,15,17,19,21,23,25,27,29,-1,-1,-1,-1,-1,-1,-1,-1,-1,-1,-1,-1,-1,-1,-1,-1],"loss_changes":[7.919344E6,9.900125E5,1.3210318E6,1.43117E5,1.6560944E5,1.4685997E5,2.639155E5,2.3164E4,1.94045E4,2.3342625E4,2.1047125E4,1.8436447E4,2.0905281E4,4.5788E4,5.882575E4,0E0,0E0,0E0,0E0,0E0,0E0,0E0,0E0,0E0,0E0,0E0,0E0,0E0,0E0,0E0,0E0],"parents":[2147483647,0,0,1,1,2,2,3,3,4,4,5,5,6,6,7,7,8,8,9,9,10,10,11,11,12,12,13,13,14,14],"right_children":[2,4,6,8,10,12,14,16,18,20,22,24,26,28,30,-1,-1,-1,-1,-1,-1,-1,-1,-1,-1,-1,-1,-1,-1,-1,-1],"split_conditions":[2.5139124E2,1.5116281E2,3.5217102E2,9.562697E1,2.082614E2,2.9968027E2,4.1829535E2,5.449526E1,1.2866286E2,1.7559567E2,2.5472252E1,2.7651276E2,3.2106058E2,3.7750717E2,4.7364935E2,-4.32377E0,-3.346674E0,-2.6933708E0,-2.198526E0,-1.7587814E0,-1.254568E0,-5.6509995E-1,1.3952054E0,5.219757E-2,4.9476478E-1,8.703231E-1,1.336929E0,1.835265E0,2.4829385E0,3.2949624E0,4.6774387E0],"split_indices":[4,4,4,4,4,4,4,4,4,4,5,4,4,4,4,0,0,0,0,0,0,0,0,0,0,0,0,0,0,0,0],"split_type":[0,0,0,0,0,0,0,0,0,0,0,0,0,0,0,0,0,0,0,0,0,0,0,0,0,0,0,0,0,0,0],"sum_hessian":[6.769E3,3.154E3,3.615E3,1.369E3,1.785E3,1.942E3,1.673E3,4.79E2,8.9E2,9.53E2,8.32E2,9.42E2,1E3,1.171E3,5.02E2,9E1,3.89E2,4.58E2,4.32E2,4.59E2,4.94E2,8.19E2,1.3E1,4.88E2,4.54E2,4.33E2,5.67E2,4.85E2,6.86E2,3.97E2,1.05E2],"tree_param":{"num_deleted":"0","num_feature":"8","num_nodes":"31","size_leaf_vector":"1"}},{"base_weights":[-4.7187522E-2,-3.393951E1,3.0235733E1,-5.354349E1,-1.996933E1,1.220751E1,4.8027416E1,-6.7340515E1,-4.7598404E1,-3.167156E1,-1.2143046E1,4.176523E0,1.891903E1,4.1502888E1,6.892151E1,-4.2100215E0,-3.2257142E0,-2.6523175E0,-2.1334693E0,-1.6034495E0,2.3011215E-1,-6.549543E-1,8.5558444E-1,1.8048887E-1,2.0848842E0,9.063759E-1,2.5375273E0,1.7613462E0,2.4363422E0,3.313625E0,5.3663244E0],"categories":[],"categories_nodes":[],"categories_segments":[],"categories_sizes":[],"default_left":[0,0,0,0,0,0,0,0,0,0,0,0,0,0,0,0,0,0,0,0,0,0,0,0,0,0,0,0,0,0,0],"id":21,"left_children":[1,3,5,7,9,11,13,15,17,19,21,23,25,27,29,-1,-1,-1,-1,-1,-1,-1,-1,-1,-1,-1,-1,-1,-1,-1,-1],"loss_changes":[6.971027E6,8.7668075E5,1.1499465E6,1.0612175E5,1.7114969E5,9.602259E4,2.431935E5,1.3565375E4,2.28345E4,1.09625E4,3.1660562E4,1.7133375E4,2.35375E4,6.074975E4,3.64125E4,0E0,0E0,0E0,0E0,0E0,0E0,0E0,0E0,0E0,0E0,0E0,0E0,0E0,0E0,0E0,0E0],"parents":[2147483647,0,0,1,1,2,2,3,3,4,4,5,5,6,6,7,7,8,8,9,9,10,10,11,11,12,12,13,13,14,14],"right_children":[2,4,6,8,10,12,14,16,18,20,22,24,26,28,30,-1,-1,-1,-1,-1,-1,-1,-1,-1,-1,-1,-1,-1,-1,-1,-1],"split_conditions":[2.5313887E2,1.4936502E2,3.436579E2,9.095838E1,1.9197E2,2.937111E2,4.2502594E2,4.480906E1,1.21555984E2,2.8784704E1,2.1761213E1,2.8784704E1,2.8784704E1,3.8536942E2,5.2601404E2,-4.2100215E0,-3.2257142E0,-2.6523175E0,-2.1334693E0,-1.6034495E0,2.3011215E-1,-6.549543E-1,8.5558444E-1,1.8048887E-1,2.0848842E0,9.063759E-1,2.5375273E0,1.7613462E0,2.4363422E0,3.313625E0,5.3663244E0],"split_indices":[0,0,0,0,0,0,0,0,0,5,5,5,5,0,0,0,0,0,0,0,0,0,0,0,0,0,0,0,0,0,0],"split_type":[0,0,0,0,0,0,0,0,0,0,0,0,0,0,0,0,0,0,0,0,0,0,0,0,0,0,0,0,0,0,0],"sum_hessian":[6.79E3,3.204E3,3.586E3,1.332E3,1.872E3,1.782E3,1.804E3,3.98E2,9.34E2,7.49E2,1.123E3,8.12E2,9.7E2,1.377E3,4.27E2,5.3E1,3.45E2,4.39E2,4.95E2,7.41E2,8E0,1.088E3,3.5E1,8.01E2,1.1E1,9.48E2,2.2E1,7.4E2,6.37E2,4.02E2,2.5E1],"tree_param":{"num_deleted":"0","num_feature":"8","num_nodes":"31","size_leaf_vector":"1"}},{"base_weights":[-4.3799166E-2,-3.003604E1,3.1735739E1,-4.655986E1,-1.2698418E1,1.8705902E1,5.183531E1,-5.861542E1,-3.7347336E1,-2.0617722E1,-5.083346E0,1.1188608E1,2.7691082E1,4.5940063E1,7.215638E1,-3.73261E0,-2.7453792E0,-2.1257167E0,-1.6934788E0,-1.2609991E0,-8.297933E-1,-2.7746245E-1,1.1879605E0,3.7817633E-1,8.018376E-1,1.3425299E0,3.0176451E0,2.075843E0,2.6222084E0,3.4118855E0,5.246642E0],"categories":[],"categories_nodes":[],"categories_segments":[],"categories_sizes":[],"default_left":[0,0,0,0,0,0,0,0,0,0,0,0,0,0,0,0,0,0,0,0,0,0,0,0,0,0,0,0,0,0,0],"id":22,"left_children":[1,3,5,7,9,11,13,15,17,19,21,23,25,27,29,-1,-1,-1,-1,-1,-1,-1,-1,-1,-1,-1,-1,-1,-1,-1,-1],"loss_changes":[6.456567E6,9.9779875E5,8.6039325E5,1.95936E5,1.0253356E5,1.3457212E5,1.5157175E5,4.1733E4,1.6773625E4,1.50143125E4,1.1807482E4,1.9015438E4,2.3324438E4,2.6726E4,2.9941625E4,0E0,0E0,0E0,0E0,0E0,0E0,0E0,0E0,0E0,0E0,0E0,0E0,0E0,0E0,0E0,0E0],"parents":[2147483647,0,0,1,1,2,2,3,3,4,4,5,5,6,6,7,7,8,8,9,9,10,10,11,11,12,12,13,13,14,14],"right_children":[2,4,6,8,10,12,14,16,18,20,22,24,26,28,30,-1,-1,-1,-1,-1,-1,-1,-1,-1,-1,-1,-1,-1,-1,-1,-1],"split_conditions":[2.6929822E2,1.7231027E2,3.7248682E2,1.1873186E2,2.2489813E2,3.2202335E2,4.370434E2,6.2791378E1,1.4095453E2,1.9784778E2,2.5472252E1,2.9968027E2,2.5472252E1,4.069204E2,5.2332416E2,-3.73261E0,-2.7453792E0,-2.1257167E0,-1.6934788E0,-1.2609991E0,-8.297933E-1,-2.7746245E-1,1.1879605E0,3.7817633E-1,8.018376E-1,1.3425299E0,3.0176451E0,2.075843E0,2.6222084E0,3.4118855E0,5.246642E0],"split_indices":[4,4,4,4,4,4,4,4,4,4,5,4,5,4,4,0,0,0,0,0,0,0,0,0,0,0,0,0,0,0,0],"split_type":[0,0,0,0,0,0,0,0,0,0,0,0,0,0,0,0,0,0,0,0,0,0,0,0,0,0,0,0,0,0,0],"sum_hessian":[6.772E3,3.484E3,3.288E3,1.783E3,1.701E3,1.996E3,1.292E3,7.7E2,1.013E3,8.33E2,8.68E2,1.088E3,9.08E2,1.004E3,2.88E2,1.41E2,6.29E2,4.03E2,6.1E2,3.86E2,4.47E2,8.55E2,1.3E1,6.24E2,4.64E2,8.87E2,2.1E1,6.02E2,4.02E2,2.6E2,2.8E1],"tree_param":{"num_deleted":"0","num_feature":"8","num_nodes":"31","size_leaf_vector":"1"}},{"base_weights":[8.114413E-2,-2.8837715E1,2.9598036E1,-4.4407963E1,-1.31058035E1,1.6715109E1,4.9295E1,-5.772664E1,-3.7031063E1,-2.125775E1,-6.413453E0,8.823088E0,2.4977026E1,4.3633595E1,6.907692E1,-3.771986E0,-2.749262E0,-2.1157756E0,-1.6551112E0,-1.0959615E0,2.4020289E-1,-5.0975204E-1,-1.1722722E-1,2.0454474E-1,6.064798E-1,1.2088294E0,3.0568323E0,1.9445313E0,2.457913E0,3.256195E0,4.982555E0],"categories":[],"categories_nodes":[],"categories_segments":[],"categories_sizes":[],"default_left":[0,0,0,0,0,0,0,0,0,0,0,0,0,0,0,0,0,0,0,0,0,0,0,0,0,0,0,0,0,0,0],"id":23,"left_children":[1,3,5,7,9,11,13,15,17,19,21,23,25,27,29,-1,-1,-1,-1,-1,-1,-1,-1,-1,-1,-1,-1,-1,-1,-1,-1],"loss_changes":[5.838589E6,8.45714E5,8.581285E5,1.684155E5,9.3696625E4,1.3331244E5,1.46822E5,2.5799625E4,2.1844875E4,1.34675625E4,1.4530879E4,1.6362508E4,2.7456938E4,2.54095E4,2.92685E4,0E0,0E0,0E0,0E0,0E0,0E0,0E0,0E0,0E0,0E0,0E0,0E0,0E0,0E0,0E0,0E0],"parents":[2147483647,0,0,1,1,2,2,3,3,4,4,5,5,6,6,7,7,8,8,9,9,10,10,11,11,12,12,13,13,14,14],"right_children":[2,4,6,8,10,12,14,16,18,20,22,24,26,28,30,-1,-1,-1,-1,-1,-1,-1,-1,-1,-1,-1,-1,-1,-1,-1,-1],"split_conditions":[2.656308E2,1.6962401E2,3.711176E2,1.0835194E2,2.1777512E2,3.1516046E2,4.370434E2,5.449526E1,1.375086E2,2.2631742E1,2.41509E2,2.858022E2,3.5352818E1,4.026049E2,5.2601404E2,-3.771986E0,-2.749262E0,-2.1157756E0,-1.6551112E0,-1.0959615E0,2.4020289E-1,-5.0975204E-1,-1.1722722E-1,2.0454474E-1,6.064798E-1,1.2088294E0,3.0568323E0,1.9445313E0,2.457913E0,3.256195E0,4.982555E0],"split_indices":[4,4,4,4,4,4,4,4,4,5,4,4,5,4,0,0,0,0,0,0,0,0,0,0,0,0,0,0,0,0,0],"split_type":[0,0,0,0,0,0,0,0,0,0,0,0,0,0,0,0,0,0,0,0,0,0,0,0,0,0,0,0,0,0,0],"sum_hessian":[6.838E3,3.454E3,3.384E3,1.735E3,1.719E3,2.047E3,1.337E3,6.16E2,1.119E3,7.74E2,9.45E2,1.048E3,9.99E2,1.042E3,2.95E2,7.9E1,5.37E2,4.73E2,6.46E2,7.55E2,1.9E1,4.89E2,4.56E2,4.32E2,6.16E2,9.79E2,2E1,5.65E2,4.77E2,2.64E2,3.1E1],"tree_param":{"num_deleted":"0","num_feature":"8","num_nodes":"31","size_leaf_vector":"1"}},{"base_weights":[-1.0575892E-1,-2.9597908E1,2.615336E1,-4.482201E1,-1.6771112E1,1.08932295E1,4.2255947E1,-5.6752804E1,-3.854229E1,-2.375541E1,-9.360833E0,4.5462246E0,1.7796267E1,3.523446E1,5.7475147E1,-3.5512302E0,-2.6874387E0,-2.126662E0,-1.7069273E0,-1.216623E0,1.3077718E-1,-4.8975044E-1,1.3887732E0,1.9988331E-1,1.8344678E0,7.8492373E-1,1.1671017E0,1.5283751E0,2.0257776E0,2.6466799E0,3.7660732E0],"categories":[],"categories_nodes":[],"categories_segments":[],"categories_sizes":[],"default_left":[0,0,0,0,0,0,0,0,0,0,0,0,0,0,0,0,0,0,0,0,0,0,0,0,0,0,0,0,0,0,0],"id":24,"left_children":[1,3,5,7,9,11,13,15,17,19,21,23,25,27,29,-1,-1,-1,-1,-1,-1,-1,-1,-1,-1,-1,-1,-1,-1,-1,-1],"loss_changes":[5.248365E6,6.225645E5,8.804675E5,1.071145E5,8.951853E4,8.062153E4,1.84332E5,1.7649375E4,1.5394875E4,1.3639656E4,1.3862516E4,1.6793979E4,9.890719E3,2.8232E4,4.0496625E4,0E0,0E0,0E0,0E0,0E0,0E0,0E0,0E0,0E0,0E0,0E0,0E0,0E0,0E0,0E0,0E0],"parents":[2147483647,0,0,1,1,2,2,3,3,4,4,5,5,6,6,7,7,8,8,9,9,10,10,11,11,12,12,13,13,14,14],"right_children":[2,4,6,8,10,12,14,16,18,20,22,24,26,28,30,-1,-1,-1,-1,-1,-1,-1,-1,-1,-1,-1,-1,-1,-1,-1,-1],"split_conditions":[2.5139124E2,1.5638983E2,3.4778705E2,9.9124176E1,2.082614E2,2.9968027E2,4.1386444E2,5.449526E1,1.3360527E2,2.384164E1,2.5472252E1,2.8784704E1,3.327026E2,3.8184348E2,4.7364935E2,-3.5512302E0,-2.6874387E0,-2.126662E0,-1.7069273E0,-1.216623E0,1.3077718E-1,-4.8975044E-1,1.3887732E0,1.9988331E-1,1.8344678E0,7.8492373E-1,1.1671017E0,1.5283751E0,2.0257776E0,2.6466799E0,3.7660732E0],"split_indices":[4,4,4,4,4,4,4,4,4,5,5,5,4,4,4,0,0,0,0,0,0,0,0,0,0,0,0,0,0,0,0],"split_type":[0,0,0,0,0,0,0,0,0,0,0,0,0,0,0,0,0,0,0,0,0,0,0,0,0,0,0,0,0,0,0],"sum_hessian":[6.775E3,3.191E3,3.584E3,1.458E3,1.733E3,1.841E3,1.743E3,5E2,9.58E2,8.91E2,8.42E2,9.6E2,8.81E2,1.195E3,5.48E2,8.3E1,4.17E2,4.98E2,4.6E2,8.72E2,1.9E1,8.33E2,9E0,9.45E2,1.5E1,6.42E2,2.39E2,6.38E2,5.57E2,4.4E2,1.08E2],"tree_param":{"num_deleted":"0","num_feature":"8","num_nodes":"31","size_leaf_vector":"1"}},{"base_weights":[1.03580356E-1,-2.6410683E1,2.5486975E1,-3.9790955E1,-1.2037273E1,1.2157342E1,4.0772175E1,-4.8691532E1,-3.214219E1,-1.8805176E1,-6.212067E0,6.160387E0,1.9148811E1,3.6546608E1,6.2079956E1,-2.7923014E0,-2.1640713E0,-1.7558861E0,-1.4213754E0,-9.860015E-1,4.0905133E-1,-3.3605155E-1,6.7725986E-1,2.8419578E-1,1.8531541E0,9.1885006E-1,2.3149202E0,1.546327E0,2.1165898E0,2.9183686E0,4.466836E0],"categories":[],"categories_nodes":[],"categories_segments":[],"categories_sizes":[],"default_left":[0,0,0,0,0,0,0,0,0,0,0,0,0,0,0,0,0,0,0,0,0,0,0,0,0,0,0,0,0,0,0],"id":25,"left_children":[1,3,5,7,9,11,13,15,17,19,21,23,25,27,29,-1,-1,-1,-1,-1,-1,-1,-1,-1,-1,-1,-1,-1,-1,-1,-1],"loss_changes":[4.571165E6,6.384035E5,7.06498E5,1.155215E5,6.3078062E4,7.765506E4,1.4322175E5,2.82675E4,9.25275E3,1.8456578E4,8.768453E3,1.4509309E4,1.7079625E4,4.2608875E4,2.168825E4,0E0,0E0,0E0,0E0,0E0,0E0,0E0,0E0,0E0,0E0,0E0,0E0,0E0,0E0,0E0,0E0],"parents":[2147483647,0,0,1,1,2,2,3,3,4,4,5,5,6,6,7,7,8,8,9,9,10,10,11,11,12,12,13,13,14,14],"right_children":[2,4,6,8,10,12,14,16,18,20,22,24,26,28,30,-1,-1,-1,-1,-1,-1,-1,-1,-1,-1,-1,-1,-1,-1,-1,-1],"split_conditions":[2.5850772E2,1.715593E2,3.548999E2,1.2008324E2,2.1571602E2,3.0892374E2,4.443903E2,8.6159546E1,1.4936502E2,2.0529995E1,2.1761213E1,2.8784704E1,2.8784704E1,3.9383383E2,5.2601404E2,-2.7923014E0,-2.1640713E0,-1.7558861E0,-1.4213754E0,-9.860015E-1,4.0905133E-1,-3.3605155E-1,6.7725986E-1,2.8419578E-1,1.8531541E0,9.1885006E-1,2.3149202E0,1.546327E0,2.1165898E0,2.9183686E0,4.466836E0],"split_indices":[0,0,0,0,0,0,0,0,0,5,5,5,5,0,0,0,0,0,0,0,0,0,0,0,0,0,0,0,0,0,0],"split_type":[0,0,0,0,0,0,0,0,0,0,0,0,0,0,0,0,0,0,0,0,0,0,0,0,0,0,0,0,0,0,0],"sum_hessian":[6.79E3,3.321E3,3.469E3,1.719E3,1.602E3,1.854E3,1.615E3,7.92E2,9.27E2,7.4E2,8.62E2,9.99E2,8.55E2,1.35E3,2.65E2,3.37E2,4.55E2,5.1E2,4.17E2,7.16E2,2.4E1,8.41E2,2.1E1,9.85E2,1.4E1,8.33E2,2.2E1,6.88E2,6.62E2,2.36E2,2.9E1],"tree_param":{"num_deleted":"0","num_feature":"8","num_nodes":"31","size_leaf_vector":"1"}},{"base_weights":[2.0124963E-2,-2.3839745E1,2.6299944E1,-3.776217E1,-9.833335E0,1.63339E1,4.340428E1,-4.934645E1,-3.1233812E1,-1.6747683E1,-3.6864908E0,1.0800606E1,2.4931465E1,3.8502506E1,6.0204796E1,-2.978641E0,-2.2856493E0,-1.7625033E0,-1.3286117E0,-8.6636096E-1,2.243363E-1,-2.0818965E-1,1.536744E0,3.3340204E-1,7.289719E-1,1.2067736E0,2.7381723E0,1.7501131E0,2.1812618E0,2.835882E0,4.3970485E0],"categories":[],"categories_nodes":[],"categories_segments":[],"categories_sizes":[],"default_left":[0,0,0,0,0,0,0,0,0,0,0,0,0,0,0,0,0,0,0,0,0,0,0,0,0,0,0,0,0,0,0],"id":26,"left_children":[1,3,5,7,9,11,13,15,17,19,21,23,25,27,29,-1,-1,-1,-1,-1,-1,-1,-1,-1,-1,-1,-1,-1,-1,-1,-1],"loss_changes":[4.261317E6,6.9422525E5,5.50561E5,1.3351925E5,7.5461234E4,9.701369E4,9.567125E4,2.1121125E4,2.0494E4,1.0366953E4,1.5601818E4,1.9358547E4,1.7667188E4,1.5033375E4,2.0822062E4,0E0,0E0,0E0,0E0,0E0,0E0,0E0,0E0,0E0,0E0,0E0,0E0,0E0,0E0,0E0,0E0],"parents":[2147483647,0,0,1,1,2,2,3,3,4,4,5,5,6,6,7,7,8,8,9,9,10,10,11,11,12,12,13,13,14,14],"right_children":[2,4,6,8,10,12,14,16,18,20,22,24,26,28,30,-1,-1,-1,-1,-1,-1,-1,-1,-1,-1,-1,-1,-1,-1,-1,-1],"split_conditions":[2.7160938E2,1.7231027E2,3.7750717E2,1.10607864E2,2.2489813E2,3.327026E2,4.4298752E2,6.590393E1,1.4521046E2,2.2631742E1,2.8784704E1,2.9968027E2,2.5472252E1,4.095604E2,5.2601404E2,-2.978641E0,-2.2856493E0,-1.7625033E0,-1.3286117E0,-8.6636096E-1,2.243363E-1,-2.0818965E-1,1.536744E0,3.3340204E-1,7.289719E-1,1.2067736E0,2.7381723E0,1.7501131E0,2.1812618E0,2.835882E0,4.3970485E0],"split_indices":[4,4,4,4,4,4,4,4,4,5,5,4,5,4,0,0,0,0,0,0,0,0,0,0,0,0,0,0,0,0,0],"split_type":[0,0,0,0,0,0,0,0,0,0,0,0,0,0,0,0,0,0,0,0,0,0,0,0,0,0,0,0,0,0,0],"sum_hessian":[6.794E3,3.561E3,3.233E3,1.785E3,1.776E3,2.044E3,1.189E3,6.41E2,1.144E3,8.35E2,9.41E2,1.245E3,7.99E2,9.23E2,2.66E2,1.64E2,4.77E2,6.11E2,5.33E2,8.13E2,2.2E1,9.29E2,1.2E1,5.96E2,6.49E2,7.8E2,1.9E1,5.53E2,3.7E2,2.39E2,2.7E1],"tree_param":{"num_deleted":"0","num_feature":"8","num_nodes":"31","size_leaf_vector":"1"}},{"base_weights":[1.0881778E-1,-2.2876123E1,2.4586466E1,-3.487751E1,-8.403406E0,1.4813366E1,4.0256134E1,-4.481241E1,-2.8418806E1,-1.5088544E1,-4.065793E0,8.912994E0,2.3033028E1,3.5792145E1,5.639077E1,-2.6791074E0,-2.0652885E0,-1.6077029E0,-1.2432128E0,-9.1028786E-1,-6.3790643E-1,-3.5398096E-1,-5.3095873E-2,2.4709551E-1,5.767481E-1,9.479446E-1,1.236978E0,1.6471941E0,2.0277553E0,2.6411135E0,4.138559E0],"categories":[],"categories_nodes":[],"categories_segments":[],"categories_sizes":[],"default_left":[0,0,0,0,0,0,0,0,0,0,0,0,0,0,0,0,0,0,0,0,0,0,0,0,0,0,0,0,0,0,0],"id":27,"left_children":[1,3,5,7,9,11,13,15,17,19,21,23,25,27,29,-1,-1,-1,-1,-1,-1,-1,-1,-1,-1,-1,-1,-1,-1,-1,-1],"loss_changes":[3.8640558E6,6.1492225E5,5.08746E5,1.229455E5,4.653579E4,9.921456E4,8.9948E4,2.1179625E4,1.48086875E4,4.3557188E3,8.82755E3,1.2383742E4,5.4780938E3,1.22635E4,2.1502438E4,0E0,0E0,0E0,0E0,0E0,0E0,0E0,0E0,0E0,0E0,0E0,0E0,0E0,0E0,0E0,0E0],"parents":[2147483647,0,0,1,1,2,2,3,3,4,4,5,5,6,6,7,7,8,8,9,9,10,10,11,11,12,12,13,13,14,14],"right_children":[2,4,6,8,10,12,14,16,18,20,22,24,26,28,30,-1,-1,-1,-1,-1,-1,-1,-1,-1,-1,-1,-1,-1,-1,-1,-1],"split_conditions":[2.6882327E2,1.80168E2,3.7493994E2,1.1716093E2,2.1991948E2,3.278919E2,4.443903E2,7.1789635E1,1.4794627E2,1.9774576E2,2.4361043E2,2.9261237E2,1E1,4.103939E2,5.2601404E2,-2.6791074E0,-2.0652885E0,-1.6077029E0,-1.2432128E0,-9.1028786E-1,-6.3790643E-1,-3.5398096E-1,-5.3095873E-2,2.4709551E-1,5.767481E-1,9.479446E-1,1.236978E0,1.6471941E0,2.0277553E0,2.6411135E0,4.138559E0],"split_indices":[0,0,0,0,0,0,0,0,0,0,0,0,6,0,0,0,0,0,0,0,0,0,0,0,0,0,0,0,0,0,0],"split_type":[0,0,0,0,0,0,0,0,0,0,0,0,0,0,0,0,0,0,0,0,0,0,0,0,0,0,0,0,0,0,0],"sum_hessian":[6.866E3,3.541E3,3.325E3,1.935E3,1.606E3,2.049E3,1.276E3,7.6E2,1.175E3,6.31E2,9.75E2,1.194E3,8.55E2,1.002E3,2.74E2,2.13E2,5.47E2,5.69E2,6.06E2,2.67E2,3.64E2,4.86E2,4.89E2,4.76E2,7.18E2,2.56E2,5.99E2,6.32E2,3.7E2,2.44E2,3E1],"tree_param":{"num_deleted":"0","num_feature":"8","num_nodes":"31","size_leaf_vector":"1"}},{"base_weights":[1.9430357E-1,-2.2486803E1,2.2969328E1,-3.6983112E1,-1.1784774E1,1.3031504E1,3.7738434E1,-4.769152E1,-3.2381325E1,-1.876664E1,-5.3071017E0,7.128326E0,2.0038494E1,3.3679604E1,5.4135456E1,-3.1402876E0,-2.2702959E0,-1.8154768E0,-1.4359472E0,-1.081437E0,-7.660761E-1,-4.537014E-1,-1.3109162E-1,1.1643582E-1,4.8105145E-1,8.2161635E-1,1.162724E0,1.3957834E0,1.8395655E0,2.5404441E0,3.8962696E0],"categories":[],"categories_nodes":[],"categories_segments":[],"categories_sizes":[],"default_left":[0,0,0,0,0,0,0,0,0,0,0,0,0,0,0,0,0,0,0,0,0,0,0,0,0,0,0,0,0,0,0],"id":28,"left_children":[1,3,5,7,9,11,13,15,17,19,21,23,25,27,29,-1,-1,-1,-1,-1,-1,-1,-1,-1,-1,-1,-1,-1,-1,-1,-1],"loss_changes":[3.4991962E6,5.261041E5,4.9559512E5,6.9457E4,8.827006E4,8.349144E4,8.8613125E4,1.2026375E4,1.3495625E4,8.9335625E3,1.024198E4,1.312484E4,1.0329906E4,1.8552125E4,1.7237062E4,0E0,0E0,0E0,0E0,0E0,0E0,0E0,0E0,0E0,0E0,0E0,0E0,0E0,0E0,0E0,0E0],"parents":[2147483647,0,0,1,1,2,2,3,3,4,4,5,5,6,6,7,7,8,8,9,9,10,10,11,11,12,12,13,13,14,14],"right_children":[2,4,6,8,10,12,14,16,18,20,22,24,26,28,30,-1,-1,-1,-1,-1,-1,-1,-1,-1,-1,-1,-1,-1,-1,-1,-1],"split_conditions":[2.656308E2,1.5638983E2,3.711176E2,9.368183E1,2.1336911E2,3.195837E2,4.4298752E2,4.7238194E1,1.2686103E2,1.8465326E2,2.3505428E2,2.8334415E2,3.4442453E2,3.9218137E2,5.2332416E2,-3.1402876E0,-2.2702959E0,-1.8154768E0,-1.4359472E0,-1.081437E0,-7.660761E-1,-4.537014E-1,-1.3109162E-1,1.1643582E-1,4.8105145E-1,8.2161635E-1,1.162724E0,1.3957834E0,1.8395655E0,2.5404441E0,3.8962696E0],"split_indices":[4,4,4,4,4,4,4,4,4,4,4,4,4,4,4,0,0,0,0,0,0,0,0,0,0,0,0,0,0,0,0],"split_type":[0,0,0,0,0,0,0,0,0,0,0,0,0,0,0,0,0,0,0,0,0,0,0,0,0,0,0,0,0,0,0],"sum_hessian":[6.772E3,3.393E3,3.379E3,1.44E3,1.953E3,2.021E3,1.358E3,4.3E2,1.01E3,9.39E2,1.014E3,1.098E3,9.23E2,1.091E3,2.67E2,5.3E1,3.77E2,4.83E2,5.27E2,5.1E2,4.29E2,4.21E2,5.93E2,3.76E2,7.22E2,4.38E2,4.85E2,3.86E2,7.05E2,2.37E2,3E1],"tree_param":{"num_deleted":"0","num_feature":"8","num_nodes":"31","size_leaf_vector":"1"}},{"base_weights":[2.9647186E-1,-2.1569855E1,2.2111124E1,-3.441621E1,-1.0958012E1,1.2033705E1,3.541743E1,-4.614381E1,-3.019195E1,-1.6931158E1,-4.789569E0,6.2613597E0,1.7553717E1,3.1452663E1,5.064268E1,-3.0514548E0,-2.185755E0,-1.7266104E0,-1.3194945E0,-1.0319723E0,-7.014414E-1,-2.5696203E-1,1.0942444E0,2.8541374E-1,1.5160257E0,8.4808844E-1,2.618709E0,1.5335089E0,2.9963348E0,2.341563E0,3.4837453E0],"categories":[],"categories_nodes":[],"categories_segments":[],"categories_sizes":[],"default_left":[0,0,0,0,0,0,0,0,0,0,0,0,0,0,0,0,0,0,0,0,0,0,0,0,0,0,0,0,0,0,0],"id":29,"left_children":[1,3,5,7,9,11,13,15,17,19,21,23,25,27,29,-1,-1,-1,-1,-1,-1,-1,-1,-1,-1,-1,-1,-1,-1,-1,-1],"loss_changes":[3.2293325E6,4.6052812E5,4.5401125E5,7.4346625E4,6.819053E4,6.1384062E4,8.653125E4,1.1890875E4,1.7680312E4,9.834656E3,8.626623E3,1.2398207E4,1.9428031E4,2.40205E4,1.8487312E4,0E0,0E0,0E0,0E0,0E0,0E0,0E0,0E0,0E0,0E0,0E0,0E0,0E0,0E0,0E0,0E0],"parents":[2147483647,0,0,1,1,2,2,3,3,4,4,5,5,6,6,7,7,8,8,9,9,10,10,11,11,12,12,13,13,14,14],"right_children":[2,4,6,8,10,12,14,16,18,20,22,24,26,28,30,-1,-1,-1,-1,-1,-1,-1,-1,-1,-1,-1,-1,-1,-1,-1,-1],"split_conditions":[2.656308E2,1.605292E2,3.655323E2,9.128454E1,2.1777512E2,3.129731E2,4.370434E2,4.7238194E1,1.2866286E2,1.8299324E2,2.5472252E1,2.8784704E1,3.5352818E1,2.384164E1,4.9427112E2,-3.0514548E0,-2.185755E0,-1.7266104E0,-1.3194945E0,-1.0319723E0,-7.014414E-1,-2.5696203E-1,1.0942444E0,2.8541374E-1,1.5160257E0,8.4808844E-1,2.618709E0,1.5335089E0,2.9963348E0,2.341563E0,3.4837453E0],"split_indices":[4,4,4,4,4,4,4,4,4,4,5,5,5,5,4,0,0,0,0,0,0,0,0,0,0,0,0,0,0,0,0],"split_type":[0,0,0,0,0,0,0,0,0,0,0,0,0,0,0,0,0,0,0,0,0,0,0,0,0,0,0,0,0,0,0],"sum_hessian":[6.768E3,3.38E3,3.388E3,1.528E3,1.852E3,1.929E3,1.459E3,4.02E2,1.126E3,9.4E2,9.12E2,9.44E2,9.85E2,1.16E3,2.99E2,5.3E1,3.49E2,5.22E2,6.04E2,4.1E2,5.3E2,9.01E2,1.1E1,9.24E2,2E1,9.7E2,1.5E1,1.131E3,2.9E1,2.52E2,4.7E1],"tree_param":{"num_deleted":"0","num_feature":"8","num_nodes":"31","size_leaf_vector":"1"}},{"base_weights":[-9.16164E-3,-2.201891E1,1.8724913E1,-3.3677387E1,-1.3267641E1,7.135406E0,3.0180042E1,-4.303868E1,-2.9504105E1,-2.0753767E1,-8.5175E0,2.3467932E0,1.1654005E1,2.4809408E1,4.0180676E1,-3.028205E0,-2.075775E0,-1.4993054E0,3.564108E-1,-1.0606936E0,-2.0222595E-1,-4.595333E-1,3.9684463E-1,1.034315E-1,1.3401496E0,5.477227E-1,1.2573093E0,1.0672573E0,1.4102277E0,1.804848E0,2.6030862E0],"categories":[],"categories_nodes":[],"categories_segments":[],"categories_sizes":[],"default_left":[0,0,0,0,0,0,0,0,0,0,0,0,0,0,0,0,0,0,0,0,0,0,0,0,0,0,0,0,0,0,0],"id":30,"left_children":[1,3,5,7,9,11,13,15,17,19,21,23,25,27,29,-1,-1,-1,-1,-1,-1,-1,-1,-1,-1,-1,-1,-1,-1,-1,-1],"loss_changes":[2.8310738E6,3.2164625E5,4.9218512E5,5.1581125E4,6.4006375E4,3.9893023E4,9.91655E4,8.553625E3,1.6795812E4,5.2932812E3,1.2323727E4,6.043787E3,8.678047E3,1.36951875E4,2.9649E4,0E0,0E0,0E0,0E0,0E0,0E0,0E0,0E0,0E0,0E0,0E0,0E0,0E0,0E0,0E0,0E0],"parents":[2147483647,0,0,1,1,2,2,3,3,4,4,5,5,6,6,7,7,8,8,9,9,10,10,11,11,12,12,13,13,14,14],"right_children":[2,4,6,8,10,12,14,16,18,20,22,24,26,28,30,-1,-1,-1,-1,-1,-1,-1,-1,-1,-1,-1,-1,-1,-1,-1,-1],"split_conditions":[2.5036687E2,1.4936502E2,3.4187747E2,9.095838E1,1.8615804E2,2.9486694E2,4.103939E2,3.4934708E1,2.5472252E1,2.0529995E1,2.1036598E1,2.8784704E1,1.9956444E1,3.76017E2,4.6263693E2,-3.028205E0,-2.075775E0,-1.4993054E0,3.564108E-1,-1.0606936E0,-2.0222595E-1,-4.595333E-1,3.9684463E-1,1.034315E-1,1.3401496E0,5.477227E-1,1.2573093E0,1.0672573E0,1.4102277E0,1.804848E0,2.6030862E0],"split_indices":[0,0,0,0,0,0,0,0,5,5,5,5,5,0,0,0,0,0,0,0,0,0,0,0,0,0,0,0,0,0,0],"split_type":[0,0,0,0,0,0,0,0,0,0,0,0,0,0,0,0,0,0,0,0,0,0,0,0,0,0,0,0,0,0,0],"sum_hessian":[6.864E3,3.156E3,3.708E3,1.352E3,1.804E3,1.844E3,1.864E3,4.14E2,9.38E2,6.99E2,1.105E3,8.96E2,9.48E2,1.215E3,6.49E2,3E1,3.84E2,9.26E2,1.2E1,6.8E2,1.9E1,1.062E3,4.3E1,8.87E2,9E0,9.03E2,4.5E1,6.05E2,6.1E2,4.86E2,1.63E2],"tree_param":{"num_deleted":"0","num_feature":"8","num_nodes":"31","size_leaf_vector":"1"}},{"base_weights":[-7.9696596E-2,-2.1292772E1,1.7847807E1,-3.2314144E1,-1.2704977E1,7.6227374E0,3.032279E1,-4.0109478E1,-2.7547873E1,-1.7847097E1,-7.8708735E0,2.4196327E0,1.2318239E1,2.54542E1,4.2259434E1,-2.9760451E0,-1.9396988E0,-1.3948764E0,8.876356E-2,-9.1875166E-1,3.1441504E-1,-4.132873E-1,8.992114E-1,9.7577564E-2,1.3504977E0,5.219779E-1,8.3277416E-1,1.237626E0,2.5012903E0,1.9387764E0,2.9269493E0],"categories":[],"categories_nodes":[],"categories_segments":[],"categories_sizes":[],"default_left":[0,0,0,0,0,0,0,0,0,0,0,0,0,0,0,0,0,0,0,0,0,0,0,0,0,0,0,0,0,0,0],"id":31,"left_children":[1,3,5,7,9,11,13,15,17,19,21,23,25,27,29,-1,-1,-1,-1,-1,-1,-1,-1,-1,-1,-1,-1,-1,-1,-1,-1],"loss_changes":[2.6004742E6,2.9602662E5,4.7249325E5,4.9827375E4,4.365597E4,4.9759492E4,9.5911E4,1.0908625E4,8.808125E3,1.0985625E4,9.438293E3,1.1086335E4,8.550234E3,1.9237125E4,2.5057688E4,0E0,0E0,0E0,0E0,0E0,0E0,0E0,0E0,0E0,0E0,0E0,0E0,0E0,0E0,0E0,0E0],"parents":[2147483647,0,0,1,1,2,2,3,3,4,4,5,5,6,6,7,7,8,8,9,9,10,10,11,11,12,12,13,13,14,14],"right_children":[2,4,6,8,10,12,14,16,18,20,22,24,26,28,30,-1,-1,-1,-1,-1,-1,-1,-1,-1,-1,-1,-1,-1,-1,-1,-1],"split_conditions":[2.4768617E2,1.5116281E2,3.5217102E2,9.9124176E1,1.9948807E2,2.9607523E2,4.1829535E2,3.9302643E1,2.5472252E1,2.5472252E1,2.5472252E1,2.8784704E1,3.327026E2,2.384164E1,4.804441E2,-2.9760451E0,-1.9396988E0,-1.3948764E0,8.876356E-2,-9.1875166E-1,3.1441504E-1,-4.132873E-1,8.992114E-1,9.7577564E-2,1.3504977E0,5.219779E-1,8.3277416E-1,1.237626E0,2.5012903E0,1.9387764E0,2.9269493E0],"split_indices":[4,4,4,4,4,4,4,4,5,5,5,5,4,5,4,0,0,0,0,0,0,0,0,0,0,0,0,0,0,0,0],"split_type":[0,0,0,0,0,0,0,0,0,0,0,0,0,0,0,0,0,0,0,0,0,0,0,0,0,0,0,0,0,0,0],"sum_hessian":[6.836E3,3.131E3,3.705E3,1.37E3,1.761E3,2.037E3,1.668E3,5.17E2,8.53E2,8.52E2,9.09E2,9.67E2,1.07E3,1.187E3,4.81E2,3E1,4.87E2,8.43E2,1E1,8.34E2,1.8E1,8.96E2,1.3E1,9.5E2,1.7E1,7.49E2,3.21E2,1.156E3,3.1E1,3.99E2,8.2E1],"tree_param":{"num_deleted":"0","num_feature":"8","num_nodes":"31","size_leaf_vector":"1"}},{"base_weights":[1.6821055E-1,-1.9778446E1,1.7263765E1,-3.0529858E1,-1.1702273E1,8.179578E0,2.9440586E1,-3.9173298E1,-2.6563581E1,-1.770126E1,-7.3944635E0,3.1763296E0,1.3042986E1,2.5933575E1,4.294891E1,-2.6280289E0,-1.8569258E0,-1.3382226E0,7.8245246E-1,-9.082114E-1,4.9140912E-1,-4.918525E-1,-1.9167005E-1,1.3729931E-1,1.3642403E0,6.363419E-1,2.2493732E0,1.2573146E0,2.4775326E0,2.0148628E0,3.3617477E0],"categories":[],"categories_nodes":[],"categories_segments":[],"categories_sizes":[],"default_left":[0,0,0,0,0,0,0,0,0,0,0,0,0,0,0,0,0,0,0,0,0,0,0,0,0,0,0,0,0,0,0],"id":32,"left_children":[1,3,5,7,9,11,13,15,17,19,21,23,25,27,29,-1,-1,-1,-1,-1,-1,-1,-1,-1,-1,-1,-1,-1,-1,-1,-1],"loss_changes":[2.3126568E6,2.7141725E5,4.03727E5,4.4959625E4,4.6098797E4,5.0885594E4,7.2782625E4,9.479875E3,8.24625E3,9.7000625E3,9.033148E3,1.0639369E4,1.0136922E4,2.1820812E4,1.788725E4,0E0,0E0,0E0,0E0,0E0,0E0,0E0,0E0,0E0,0E0,0E0,0E0,0E0,0E0,0E0,0E0],"parents":[2147483647,0,0,1,1,2,2,3,3,4,4,5,5,6,6,7,7,8,8,9,9,10,10,11,11,12,12,13,13,14,14],"right_children":[2,4,6,8,10,12,14,16,18,20,22,24,26,28,30,-1,-1,-1,-1,-1,-1,-1,-1,-1,-1,-1,-1,-1,-1,-1,-1],"split_conditions":[2.4910153E2,1.5116281E2,3.5840338E2,9.368183E1,1.9135205E2,3.0078387E2,4.3435107E2,4.7238194E1,4.000334E1,2.384164E1,2.2840408E2,2.8784704E1,4.000334E1,2.384164E1,5.2332416E2,-2.6280289E0,-1.8569258E0,-1.3382226E0,7.8245246E-1,-9.082114E-1,4.9140912E-1,-4.918525E-1,-1.9167005E-1,1.3729931E-1,1.3642403E0,6.363419E-1,2.2493732E0,1.2573146E0,2.4775326E0,2.0148628E0,3.3617477E0],"split_indices":[4,4,4,4,4,4,4,4,5,5,4,5,5,5,4,0,0,0,0,0,0,0,0,0,0,0,0,0,0,0,0],"split_type":[0,0,0,0,0,0,0,0,0,0,0,0,0,0,0,0,0,0,0,0,0,0,0,0,0,0,0,0,0,0,0],"sum_hessian":[6.78E3,3.129E3,3.651E3,1.341E3,1.788E3,2.092E3,1.559E3,4.19E2,9.22E2,7.46E2,1.042E3,1.032E3,1.06E3,1.24E3,3.19E2,5.2E1,3.67E2,9.18E2,4E0,7.34E2,1.2E1,6.17E2,4.25E2,1.015E3,1.7E1,1.051E3,9E0,1.202E3,3.8E1,2.9E2,2.9E1],"tree_param":{"num_deleted":"0","num_feature":"8","num_nodes":"31","size_leaf_vector":"1"}},{"base_weights":[-2.5966303E-2,-1.6912004E1,1.8455906E1,-2.64435E1,-6.6612973E0,1.1296623E1,3.0779253E1,-3.5230167E1,-2.1612516E1,-1.090487E1,-2.2846458E0,7.4997907E0,1.7355288E1,2.8639431E1,4.8272194E1,-2.2924483E0,-1.6534499E0,-1.3206655E0,-9.7471946E-1,-6.932179E-1,-4.4582772E-1,-2.78501E-1,-3.6168765E-2,1.8498336E-1,4.534888E-1,6.208651E-1,9.5720285E-1,1.2741798E0,1.6689914E0,2.1883028E0,3.1148987E0],"categories":[],"categories_nodes":[],"categories_segments":[],"categories_sizes":[],"default_left":[0,0,0,0,0,0,0,0,0,0,0,0,0,0,0,0,0,0,0,0,0,0,0,0,0,0,0,0,0,0,0],"id":33,"left_children":[1,3,5,7,9,11,13,15,17,19,21,23,25,27,29,-1,-1,-1,-1,-1,-1,-1,-1,-1,-1,-1,-1,-1,-1,-1,-1],"loss_changes":[2.1302962E6,3.4833275E5,2.8717762E5,7.767725E4,3.191871E4,4.7324062E4,4.341575E4,1.34845625E4,1.1632125E4,5.0111797E3,4.345037E3,7.542164E3,6.7724375E3,1.51355625E4,5.4159375E3,0E0,0E0,0E0,0E0,0E0,0E0,0E0,0E0,0E0,0E0,0E0,0E0,0E0,0E0,0E0,0E0],"parents":[2147483647,0,0,1,1,2,2,3,3,4,4,5,5,6,6,7,7,8,8,9,9,10,10,11,11,12,12,13,13,14,14],"right_children":[2,4,6,8,10,12,14,16,18,20,22,24,26,28,30,-1,-1,-1,-1,-1,-1,-1,-1,-1,-1,-1,-1,-1,-1,-1,-1],"split_conditions":[2.7160938E2,1.7559567E2,3.7750717E2,1.10607864E2,2.2840408E2,3.327026E2,4.6728302E2,5.9755997E1,1.3360527E2,1.9784778E2,1E1,1E1,9E0,4.1386444E2,5.2332416E2,-2.2924483E0,-1.6534499E0,-1.3206655E0,-9.7471946E-1,-6.932179E-1,-4.4582772E-1,-2.78501E-1,-3.6168765E-2,1.8498336E-1,4.534888E-1,6.208651E-1,9.5720285E-1,1.2741798E0,1.6689914E0,2.1883028E0,3.1148987E0],"split_indices":[4,4,4,4,4,4,4,4,4,4,6,6,6,4,4,0,0,0,0,0,0,0,0,0,0,0,0,0,0,0,0],"split_type":[0,0,0,0,0,0,0,0,0,0,0,0,0,0,0,0,0,0,0,0,0,0,0,0,0,0,0,0,0,0,0],"sum_hessian":[6.824E3,3.566E3,3.258E3,1.847E3,1.719E3,2.062E3,1.196E3,6.53E2,1.194E3,8.72E2,8.47E2,1.269E3,7.93E2,1.068E3,1.28E2,1.07E2,5.46E2,3.62E2,8.32E2,3.48E2,5.24E2,2.72E2,5.75E2,3.72E2,8.97E2,2.13E2,5.8E2,6.45E2,4.23E2,1E2,2.8E1],"tree_param":{"num_deleted":"0","num_feature":"8","num_nodes":"31","size_leaf_vector":"1"}},{"base_weights":[-4.7820706E-2,-1.607581E1,1.7491476E1,-2.6344456E1,-7.452205E0,1.10280695E1,2.9875938E1,-3.54313E1,-2.277785E1,-1.2460274E1,-2.8468432E0,6.4267287E0,1.6204376E1,2.6679178E1,4.0758057E1,-2.6861095E0,-1.700173E0,-1.3204533E0,-1.001065E0,-7.541835E-1,-4.8035908E-1,-2.6629168E-1,-4.1436803E-2,1.1831961E-1,4.048367E-1,6.107314E-1,8.8122696E-1,1.0214795E0,1.4114918E0,1.9139527E0,2.9120445E0],"categories":[],"categories_nodes":[],"categories_segments":[],"categories_sizes":[],"default_left":[0,0,0,0,0,0,0,0,0,0,0,0,0,0,0,0,0,0,0,0,0,0,0,0,0,0,0,0,0,0,0],"id":34,"left_children":[1,3,5,7,9,11,13,15,17,19,21,23,25,27,29,-1,-1,-1,-1,-1,-1,-1,-1,-1,-1,-1,-1,-1,-1,-1,-1],"loss_changes":[1.8981196E6,3.1221444E5,2.5773419E5,5.1365875E4,4.422275E4,5.038761E4,3.7346062E4,9.9690625E3,1.106775E4,6.7311406E3,5.0028413E3,7.6013945E3,5.4308438E3,7.723625E3,8.552594E3,0E0,0E0,0E0,0E0,0E0,0E0,0E0,0E0,0E0,0E0,0E0,0E0,0E0,0E0,0E0,0E0],"parents":[2147483647,0,0,1,1,2,2,3,3,4,4,5,5,6,6,7,7,8,8,9,9,10,10,11,11,12,12,13,13,14,14],"right_children":[2,4,6,8,10,12,14,16,18,20,22,24,26,28,30,-1,-1,-1,-1,-1,-1,-1,-1,-1,-1,-1,-1,-1,-1,-1,-1],"split_conditions":[2.7160938E2,1.6348203E2,3.8184348E2,9.562697E1,2.2083946E2,3.2570447E2,4.489396E2,3.9302643E1,1.2866286E2,1.9135205E2,2.4284767E2,1E1,9E0,9E0,5.1058826E2,-2.6861095E0,-1.700173E0,-1.3204533E0,-1.001065E0,-7.541835E-1,-4.8035908E-1,-2.6629168E-1,-4.1436803E-2,1.1831961E-1,4.048367E-1,6.107314E-1,8.8122696E-1,1.0214795E0,1.4114918E0,1.9139527E0,2.9120445E0],"split_indices":[4,4,4,4,4,4,4,4,4,4,4,6,6,6,2,0,0,0,0,0,0,0,0,0,0,0,0,0,0,0,0],"split_type":[0,0,0,0,0,0,0,0,0,0,0,0,0,0,0,0,0,0,0,0,0,0,0,0,0,0,0,0,0,0,0],"sum_hessian":[6.75E3,3.527E3,3.223E3,1.609E3,1.918E3,2.119E3,1.104E3,4.51E2,1.158E3,9.18E2,1E3,1.123E3,9.96E2,8.56E2,2.48E2,3E1,4.21E2,4.96E2,6.62E2,4.76E2,4.42E2,4.48E2,5.52E2,3.28E2,7.95E2,2.64E2,7.32E2,1.73E2,6.83E2,2.2E2,2.8E1],"tree_param":{"num_deleted":"0","num_feature":"8","num_nodes":"31","size_leaf_vector":"1"}},{"base_weights":[5.8067277E-2,-1.5109051E1,1.674563E1,-2.3805311E1,-6.0985193E0,9.972638E0,2.7292973E1,-2.9556665E1,-1.8400276E1,-1.0813094E1,-2.2808979E0,6.690208E0,1.5451877E1,2.4465265E1,3.951048E1,-1.7503594E0,-1.3014781E0,-9.394192E-1,2.6389524E-1,-5.664414E-1,3.4256378E-1,-1.3425125E-1,1.1891254E0,3.1423745E-1,1.3977419E0,7.378893E-1,2.1310718E0,1.147036E0,1.7120507E0,1.873715E0,3.0501268E0],"categories":[],"categories_nodes":[],"categories_segments":[],"categories_sizes":[],"default_left":[0,0,0,0,0,0,0,0,0,0,0,0,0,0,0,0,0,0,0,0,0,0,0,0,0,0,0,0,0,0,0],"id":35,"left_children":[1,3,5,7,9,11,13,15,17,19,21,23,25,27,29,-1,-1,-1,-1,-1,-1,-1,-1,-1,-1,-1,-1,-1,-1,-1,-1],"loss_changes":[1.7340035E6,2.8107844E5,2.3275181E5,5.6214938E4,3.1723312E4,3.564903E4,4.3075E4,1.60579375E4,8.7755E3,7.2659297E3,1.0341883E4,1.0555203E4,1.3395719E4,1.46786875E4,8.1194062E3,0E0,0E0,0E0,0E0,0E0,0E0,0E0,0E0,0E0,0E0,0E0,0E0,0E0,0E0,0E0,0E0],"parents":[2147483647,0,0,1,1,2,2,3,3,4,4,5,5,6,6,7,7,8,8,9,9,10,10,11,11,12,12,13,13,14,14],"right_children":[2,4,6,8,10,12,14,16,18,20,22,24,26,28,30,-1,-1,-1,-1,-1,-1,-1,-1,-1,-1,-1,-1,-1,-1,-1,-1],"split_conditions":[2.7261865E2,1.7405003E2,3.7360916E2,1.2548155E2,2.2359435E2,3.327026E2,4.489396E2,8.650392E1,2.5472252E1,2.1036598E1,2.8784704E1,2.8784704E1,2.8784704E1,1.5179678E1,2.0529995E1,-1.7503594E0,-1.3014781E0,-9.394192E-1,2.6389524E-1,-5.664414E-1,3.4256378E-1,-1.3425125E-1,1.1891254E0,3.1423745E-1,1.3977419E0,7.378893E-1,2.1310718E0,1.147036E0,1.7120507E0,1.873715E0,3.0501268E0],"split_indices":[4,4,4,4,4,4,4,4,5,5,5,5,5,5,5,0,0,0,0,0,0,0,0,0,0,0,0,0,0,0,0],"split_type":[0,0,0,0,0,0,0,0,0,0,0,0,0,0,0,0,0,0,0,0,0,0,0,0,0,0,0,0,0,0,0],"sum_hessian":[6.849E3,3.588E3,3.261E3,1.825E3,1.763E3,1.987E3,1.274E3,8.82E2,9.43E2,7.88E2,9.75E2,1.244E3,7.43E2,1.037E3,2.37E2,3.43E2,5.39E2,9.28E2,1.5E1,7.66E2,2.2E1,9.61E2,1.4E1,1.222E3,2.2E1,7.26E2,1.7E1,9E2,1.37E2,2.19E2,1.8E1],"tree_param":{"num_deleted":"0","num_feature":"8","num_nodes":"31","size_leaf_vector":"1"}},{"base_weights":[-1.9813782E-1,-1.4463271E1,1.587918E1,-2.2440985E1,-5.672316E0,1.0466742E1,2.771982E1,-2.8698467E1,-1.7567898E1,-9.012918E0,-1.2898425E0,5.835459E0,1.4818421E1,2.4560345E1,3.6878517E1,-1.6888103E0,-1.2796038E0,-1.0571835E0,-8.031421E-1,-5.6027144E-1,-3.5165098E-1,3.0204994E-3,-2.3588379E-1,9.4987325E-2,3.656291E-1,5.7975084E-1,8.1572336E-1,9.590915E-1,1.2966841E0,1.7144836E0,2.7933905E0],"categories":[],"categories_nodes":[],"categories_segments":[],"categories_sizes":[],"default_left":[0,0,0,0,0,0,0,0,0,0,0,0,0,0,0,0,0,0,0,0,0,0,0,0,0,0,0,0,0,0,0],"id":36,"left_children":[1,3,5,7,9,11,13,15,17,19,21,23,25,27,29,-1,-1,-1,-1,-1,-1,-1,-1,-1,-1,-1,-1,-1,-1,-1,-1],"loss_changes":[1.559088E6,2.5248438E5,2.0452725E5,5.7062438E4,2.5095113E4,4.4149203E4,2.8082625E4,1.21428125E4,5.3827812E3,4.143117E3,3.4396814E3,6.1765977E3,5.262125E3,5.023125E3,1.06111875E4,0E0,0E0,0E0,0E0,0E0,0E0,0E0,0E0,0E0,0E0,0E0,0E0,0E0,0E0,0E0,0E0],"parents":[2147483647,0,0,1,1,2,2,3,3,4,4,5,5,6,6,7,7,8,8,9,9,10,10,11,11,12,12,13,13,14,14],"right_children":[2,4,6,8,10,12,14,16,18,20,22,24,26,28,30,-1,-1,-1,-1,-1,-1,-1,-1,-1,-1,-1,-1,-1,-1,-1,-1],"split_conditions":[2.7261865E2,1.7898682E2,3.886327E2,1.222581E2,2.3505428E2,3.2440952E2,4.4298752E2,8.085414E1,1E1,2.082614E2,2.6435217E2,1E1,1E1,9E0,5.2601404E2,-1.6888103E0,-1.2796038E0,-1.0571835E0,-8.031421E-1,-5.6027144E-1,-3.5165098E-1,3.0204994E-3,-2.3588379E-1,9.4987325E-2,3.656291E-1,5.7975084E-1,8.1572336E-1,9.590915E-1,1.2966841E0,1.7144836E0,2.7933905E0],"split_indices":[4,4,4,4,4,4,4,4,6,4,2,6,6,6,0,0,0,0,0,0,0,0,0,0,0,0,0,0,0,0,0],"split_type":[0,0,0,0,0,0,0,0,0,0,0,0,0,0,0,0,0,0,0,0,0,0,0,0,0,0,0,0,0,0,0],"sum_hessian":[6.796E3,3.601E3,3.195E3,1.887E3,1.714E3,2.194E3,1.001E3,8.24E2,1.063E3,9.72E2,7.42E2,1.064E3,1.13E3,7.47E2,2.54E2,3.09E2,5.15E2,3.11E2,7.52E2,4.59E2,5.13E2,5.33E2,2.09E2,2.91E2,7.73E2,3.61E2,7.69E2,1.55E2,5.92E2,2.26E2,2.8E1],"tree_param":{"num_deleted":"0","num_feature":"8","num_nodes":"31","size_leaf_vector":"1"}},{"base_weights":[-3.398862E-2,-1.5536626E1,1.3507247E1,-2.4080889E1,-9.107943E0,5.541756E0,2.1765411E1,-3.1583773E1,-2.1225662E1,-1.2467589E1,-4.295425E0,9.6815634E-1,8.102378E0,1.844751E1,3.1508316E1,-2.420638E0,-1.5115751E0,-1.0807539E0,-1.14853024E-1,-6.4230114E-1,1.2625423E-1,-2.3893833E-1,1.1621575E0,3.046434E-1,-7.523123E-2,3.8175464E-1,1.1381372E0,8.959262E-1,2.076055E0,1.4950376E0,2.6134298E0],"categories":[],"categories_nodes":[],"categories_segments":[],"categories_sizes":[],"default_left":[0,0,0,0,0,0,0,0,0,0,0,0,0,0,0,0,0,0,0,0,0,0,0,0,0,0,0,0,0,0,0],"id":37,"left_children":[1,3,5,7,9,11,13,15,17,19,21,23,25,27,29,-1,-1,-1,-1,-1,-1,-1,-1,-1,-1,-1,-1,-1,-1,-1,-1],"loss_changes":[1.4237105E6,1.7346088E5,2.3800144E5,2.8394562E4,2.9144828E4,2.1586809E4,5.6857062E4,6.9943125E3,7.2158438E3,6.064625E3,1.0012268E4,8.411355E3,7.920539E3,1.5459031E4,1.3447E4,0E0,0E0,0E0,0E0,0E0,0E0,0E0,0E0,0E0,0E0,0E0,0E0,0E0,0E0,0E0,0E0],"parents":[2147483647,0,0,1,1,2,2,3,3,4,4,5,5,6,6,7,7,8,8,9,9,10,10,11,11,12,12,13,13,14,14],"right_children":[2,4,6,8,10,12,14,16,18,20,22,24,26,28,30,-1,-1,-1,-1,-1,-1,-1,-1,-1,-1,-1,-1,-1,-1,-1,-1],"split_conditions":[2.5139124E2,1.5116281E2,3.4608472E2,8.901107E1,2.1336911E2,2.858022E2,4.2209943E2,3.9302643E1,2.384164E1,2.1036598E1,2.5472252E1,2.6208444E2,2.1761213E1,2.5472252E1,5.190178E2,-2.420638E0,-1.5115751E0,-1.0807539E0,-1.14853024E-1,-6.4230114E-1,1.2625423E-1,-2.3893833E-1,1.1621575E0,3.046434E-1,-7.523123E-2,3.8175464E-1,1.1381372E0,8.959262E-1,2.076055E0,1.4950376E0,2.6134298E0],"split_indices":[4,4,4,4,4,4,4,4,5,5,5,1,5,5,1,0,0,0,0,0,0,0,0,0,0,0,0,0,0,0,0],"split_type":[0,0,0,0,0,0,0,0,0,0,0,0,0,0,0,0,0,0,0,0,0,0,0,0,0,0,0,0,0,0,0],"sum_hessian":[6.78E3,3.161E3,3.619E3,1.356E3,1.805E3,1.843E3,1.776E3,3.71E2,9.85E2,1.062E3,7.43E2,6.62E2,1.181E3,1.327E3,4.49E2,2.5E1,3.46E2,9.65E2,2E1,1.036E3,2.6E1,7.31E2,1.2E1,2.15E2,4.47E2,1.146E3,3.5E1,1.299E3,2.8E1,4.19E2,3E1],"tree_param":{"num_deleted":"0","num_feature":"8","num_nodes":"31","size_leaf_vector":"1"}},{"base_weights":[-3.325717E-2,-1.2792817E1,1.39559765E1,-1.9721004E1,-4.6338296E0,8.8080845E0,2.3488314E1,-2.501701E1,-1.577554E1,-7.6614294E0,-1.3156904E0,5.2122436E0,1.3135656E1,2.12944E1,3.3718258E1,-1.2830583E0,2.7772328E-2,-8.01779E-1,2.0395355E-1,-4.097607E-1,5.138634E-1,-8.5198365E-2,1.0813211E0,2.3941159E-1,1.3336238E0,6.3490653E-1,2.186017E0,1.02375E0,1.9103508E0,1.5638387E0,2.5055826E0],"categories":[],"categories_nodes":[],"categories_segments":[],"categories_sizes":[],"default_left":[0,0,0,0,0,0,0,0,0,0,0,0,0,0,0,0,0,0,0,0,0,0,0,0,0,0,0,0,0,0,0],"id":38,"left_children":[1,3,5,7,9,11,13,15,17,19,21,23,25,27,29,-1,-1,-1,-1,-1,-1,-1,-1,-1,-1,-1,-1,-1,-1,-1,-1],"loss_changes":[1.2075285E6,1.9989875E5,1.581435E5,3.9573688E4,1.63238125E4,3.2561656E4,2.4660188E4,1.3441969E4,5.74075E3,8.223109E3,6.9562896E3,1.0306145E4,1.2165078E4,1.2155406E4,6.349328E3,0E0,0E0,0E0,0E0,0E0,0E0,0E0,0E0,0E0,0E0,0E0,0E0,0E0,0E0,0E0,0E0],"parents":[2147483647,0,0,1,1,2,2,3,3,4,4,5,5,6,6,7,7,8,8,9,9,10,10,11,11,12,12,13,13,14,14],"right_children":[2,4,6,8,10,12,14,16,18,20,22,24,26,28,30,-1,-1,-1,-1,-1,-1,-1,-1,-1,-1,-1,-1,-1,-1,-1,-1],"split_conditions":[2.7189114E2,1.8188681E2,3.8068655E2,1.21555984E2,2.3297763E2,3.278919E2,4.528238E2,2.1761213E1,2.5472252E1,2.2631742E1,2.5472252E1,2.8784704E1,4.000334E1,2.1036598E1,5.1058826E2,-1.2830583E0,2.7772328E-2,-8.01779E-1,2.0395355E-1,-4.097607E-1,5.138634E-1,-8.5198365E-2,1.0813211E0,2.3941159E-1,1.3336238E0,6.3490653E-1,2.186017E0,1.02375E0,1.9103508E0,1.5638387E0,2.5055826E0],"split_indices":[0,0,0,0,0,0,0,5,5,5,5,5,5,5,2,0,0,0,0,0,0,0,0,0,0,0,0,0,0,0,0],"split_type":[0,0,0,0,0,0,0,0,0,0,0,0,0,0,0,0,0,0,0,0,0,0,0,0,0,0,0,0,0,0,0],"sum_hessian":[6.763E3,3.537E3,3.226E3,1.912E3,1.625E3,2.096E3,1.13E3,8.14E2,1.098E3,8.49E2,7.76E2,1.146E3,9.5E2,9.33E2,1.97E2,7.94E2,2E1,1.084E3,1.4E1,8.25E2,2.4E1,7.64E2,1.2E1,1.125E3,2.1E1,9.38E2,1.2E1,8.92E2,4.1E1,1.74E2,2.3E1],"tree_param":{"num_deleted":"0","num_feature":"8","num_nodes":"31","size_leaf_vector":"1"}},{"base_weights":[5.757664E-2,-1.4188745E1,1.1988735E1,-2.2436563E1,-9.010341E0,4.934374E0,2.011805E1,-2.959963E1,-2.013841E1,-1.2858201E1,-5.629571E0,1.8671618E0,8.498171E0,1.615884E1,2.6602837E1,-2.1667368E0,-1.4053073E0,-1.1716045E0,-9.004936E-1,1.1360646E0,-6.503135E-1,-4.625325E-1,-2.0850514E-1,-5.517239E-2,1.678151E-1,6.925874E-1,3.8885868E-1,1.6446031E0,7.876971E-1,1.2182919E0,1.8419427E0],"categories":[],"categories_nodes":[],"categories_segments":[],"categories_sizes":[],"default_left":[0,0,0,0,0,0,0,0,0,0,0,0,0,0,0,0,0,0,0,0,0,0,0,0,0,0,0,0,0,0,0],"id":39,"left_children":[1,3,5,7,9,11,13,15,17,19,21,23,25,27,29,-1,-1,-1,-1,-1,-1,-1,-1,-1,-1,-1,-1,-1,-1,-1,-1],"loss_changes":[1.1396831E6,1.3031806E5,2.0915788E5,1.8790938E4,2.4369172E4,2.1353047E4,4.3084312E4,4.6006094E3,5.8484375E3,4.9200156E3,5.255498E3,4.6576133E3,3.3794766E3,6.624875E3,1.3773875E4,0E0,0E0,0E0,0E0,0E0,0E0,0E0,0E0,0E0,0E0,0E0,0E0,0E0,0E0,0E0,0E0],"parents":[2147483647,0,0,1,1,2,2,3,3,4,4,5,5,6,6,7,7,8,8,9,9,10,10,11,11,12,12,13,13,14,14],"right_children":[2,4,6,8,10,12,14,16,18,20,22,24,26,28,30,-1,-1,-1,-1,-1,-1,-1,-1,-1,-1,-1,-1,-1,-1,-1,-1],"split_conditions":[2.4768617E2,1.4245235E2,3.4925067E2,8.085414E1,1.9135205E2,3.0078387E2,4.095604E2,3.9302643E1,1E1,1.3017137E2,9E0,1E1,3.013988E2,3.377481E2,4.7364935E2,-2.1667368E0,-1.4053073E0,-1.1716045E0,-9.004936E-1,1.1360646E0,-6.503135E-1,-4.625325E-1,-2.0850514E-1,-5.517239E-2,1.678151E-1,6.925874E-1,3.8885868E-1,1.6446031E0,7.876971E-1,1.2182919E0,1.8419427E0],"split_indices":[4,4,4,4,4,4,4,4,6,0,6,6,1,1,4,0,0,0,0,0,0,0,0,0,0,0,0,0,0,0,0],"split_type":[0,0,0,0,0,0,0,0,0,0,0,0,0,0,0,0,0,0,0,0,0,0,0,0,0,0,0,0,0,0,0],"sum_hessian":[6.703E3,3.055E3,3.648E3,1.177E3,1.878E3,1.954E3,1.694E3,2.83E2,8.94E2,8.77E2,1.001E3,1.051E3,9.03E2,1.054E3,6.4E2,2.5E1,2.58E2,3.47E2,5.47E2,3E0,8.74E2,2.86E2,7.15E2,3.51E2,7E2,1.05E2,7.98E2,2.3E1,1.031E3,5.28E2,1.12E2],"tree_param":{"num_deleted":"0","num_feature":"8","num_nodes":"31","size_leaf_vector":"1"}},{"base_weights":[-7.16748E-2,-1.1910633E1,1.2966575E1,-1.9144934E1,-5.337433E0,8.58269E0,2.29991E1,-2.5439232E1,-1.6091166E1,-8.7055435E0,-1.9088252E0,5.3383603E0,1.2648105E1,2.1801184E1,4.3560677E1,-1.6710056E0,-1.169763E0,-8.1821746E-1,8.2299036E-1,-4.6235052E-1,4.011921E-1,-1.1270227E-1,9.5890725E-1,2.3748429E-1,8.686657E-1,6.085212E-1,1.6171677E0,1.0375175E0,1.9561466E0,9.3028E-1,2.317422E0],"categories":[],"categories_nodes":[],"categories_segments":[],"categories_sizes":[],"default_left":[0,0,0,0,0,0,0,0,0,0,0,0,0,0,0,0,0,0,0,0,0,0,0,0,0,0,0,0,0,0,0],"id":40,"left_children":[1,3,5,7,9,11,13,15,17,19,21,23,25,27,29,-1,-1,-1,-1,-1,-1,-1,-1,-1,-1,-1,-1,-1,-1,-1,-1],"loss_changes":[1.0470191E6,1.6894456E5,1.417715E5,3.2109E4,2.1507664E4,2.9580781E4,2.3206781E4,8.20075E3,1.04245E4,8.589219E3,6.775212E3,8.785277E3,8.98175E3,1.6092156E4,2.8183125E3,0E0,0E0,0E0,0E0,0E0,0E0,0E0,0E0,0E0,0E0,0E0,0E0,0E0,0E0,0E0,0E0],"parents":[2147483647,0,0,1,1,2,2,3,3,4,4,5,5,6,6,7,7,8,8,9,9,10,10,11,11,12,12,13,13,14,14],"right_children":[2,4,6,8,10,12,14,16,18,20,22,24,26,28,30,-1,-1,-1,-1,-1,-1,-1,-1,-1,-1,-1,-1,-1,-1,-1,-1],"split_conditions":[2.7160938E2,1.6676782E2,3.8994266E2,1.01574036E2,2.2359435E2,3.327026E2,2.1036598E1,5.9755997E1,2.8784704E1,2.1036598E1,2.5472252E1,1.8706238E1,2.5472252E1,4.9427112E2,3.9549762E2,-1.6710056E0,-1.169763E0,-8.1821746E-1,8.2299036E-1,-4.6235052E-1,4.011921E-1,-1.1270227E-1,9.5890725E-1,2.3748429E-1,8.686657E-1,6.085212E-1,1.6171677E0,1.0375175E0,1.9561466E0,9.3028E-1,2.317422E0],"split_indices":[4,4,4,4,4,4,5,4,5,5,5,5,5,4,4,0,0,0,0,0,0,0,0,0,0,0,0,0,0,0,0],"split_type":[0,0,0,0,0,0,0,0,0,0,0,0,0,0,0,0,0,0,0,0,0,0,0,0,0,0,0,0,0,0,0],"sum_hessian":[6.781E3,3.554E3,3.227E3,1.691E3,1.863E3,2.247E3,9.8E2,5.5E2,1.141E3,9.39E2,9.24E2,1.251E3,9.96E2,9.28E2,5.2E1,1.09E2,4.41E2,1.132E3,9E0,9.1E2,2.9E1,9.1E2,1.4E1,1.194E3,5.7E1,9.74E2,2.2E1,8.77E2,5.1E1,6E0,4.6E1],"tree_param":{"num_deleted":"0","num_feature":"8","num_nodes":"31","size_leaf_vector":"1"}},{"base_weights":[1.4088067E-1,-1.30912E1,1.067843E1,-2.0328787E1,-8.202732E0,5.6251106E0,1.9936062E1,-2.831474E1,-1.8559435E1,-1.1256819E1,-4.8449416E0,1.9456161E0,9.502867E0,1.783563E1,3.0265158E1,-1.9550698E0,-1.3163785E0,-1.0903517E0,-8.2367086E-1,-5.846161E-1,4.7323868E-1,-2.9076442E-1,2.2274426E-1,7.110494E-2,8.950511E-1,4.469815E-1,1.45394E0,8.6097044E-1,1.9084473E0,1.3962196E0,2.2273E0],"categories":[],"categories_nodes":[],"categories_segments":[],"categories_sizes":[],"default_left":[0,0,0,0,0,0,0,0,0,0,0,0,0,0,0,0,0,0,0,0,0,0,0,0,0,0,0,0,0,0,0],"id":41,"left_children":[1,3,5,7,9,11,13,15,17,19,21,23,25,27,29,-1,-1,-1,-1,-1,-1,-1,-1,-1,-1,-1,-1,-1,-1,-1,-1],"loss_changes":[9.507985E5,1.0678628E5,1.774689E5,1.6680125E4,1.8464352E4,3.5037297E4,2.8527438E4,3.6582656E3,6.4115E3,8.638852E3,7.8047812E3,1.0514012E4,1.2923219E4,1.33205E4,6.2701562E3,0E0,0E0,0E0,0E0,0E0,0E0,0E0,0E0,0E0,0E0,0E0,0E0,0E0,0E0,0E0,0E0],"parents":[2147483647,0,0,1,1,2,2,3,3,4,4,5,5,6,6,7,7,8,8,9,9,10,10,11,11,12,12,13,13,14,14],"right_children":[2,4,6,8,10,12,14,16,18,20,22,24,26,28,30,-1,-1,-1,-1,-1,-1,-1,-1,-1,-1,-1,-1,-1,-1,-1,-1],"split_conditions":[2.43807E2,1.4245235E2,3.711176E2,7.211082E1,1.9506111E2,3.0676282E2,4.5379428E2,3.9302643E1,1E1,2.5472252E1,1.608985E1,2.1761213E1,2.8784704E1,2.384164E1,5.1058826E2,-1.9550698E0,-1.3163785E0,-1.0903517E0,-8.2367086E-1,-5.846161E-1,4.7323868E-1,-2.9076442E-1,2.2274426E-1,7.110494E-2,8.950511E-1,4.469815E-1,1.45394E0,8.6097044E-1,1.9084473E0,1.3962196E0,2.2273E0],"split_indices":[4,4,4,4,4,4,4,4,6,5,5,5,5,5,2,0,0,0,0,0,0,0,0,0,0,0,0,0,0,0,0],"split_type":[0,0,0,0,0,0,0,0,0,0,0,0,0,0,0,0,0,0,0,0,0,0,0,0,0,0,0,0,0,0,0],"sum_hessian":[6.817E3,3.022E3,3.795E3,1.217E3,1.805E3,2.456E3,1.339E3,2.18E2,9.99E2,9.44E2,8.61E2,1.261E3,1.195E3,1.115E3,2.24E2,3.1E1,1.87E2,3.87E2,6.12E2,9.25E2,1.9E1,7.8E2,8.1E1,1.222E3,3.9E1,1.163E3,3.2E1,1.084E3,3.1E1,1.95E2,2.9E1],"tree_param":{"num_deleted":"0","num_feature":"8","num_nodes":"31","size_leaf_vector":"1"}},{"base_weights":[-4.870231E-2,-9.943987E0,1.2489939E1,-1.764868E1,-4.355443E0,8.414542E0,2.083146E1,-2.1373877E1,-1.3891825E1,-8.607065E0,-1.7993702E0,5.76002E0,1.17717285E1,1.9742287E1,4.0715034E1,-1.3554908E0,-9.774539E-1,-7.054949E-1,8.5779923E-1,-6.007191E-1,-3.5650194E-1,-1.0669831E-1,1.0477238E0,1.212359E-1,3.538469E-1,5.6950176E-1,1.4780369E0,9.409669E-1,1.835933E0,5.283025E-1,2.1206253E0],"categories":[],"categories_nodes":[],"categories_segments":[],"categories_sizes":[],"default_left":[0,0,0,0,0,0,0,0,0,0,0,0,0,0,0,0,0,0,0,0,0,0,0,0,0,0,0,0,0,0,0],"id":42,"left_children":[1,3,5,7,9,11,13,15,17,19,21,23,25,27,29,-1,-1,-1,-1,-1,-1,-1,-1,-1,-1,-1,-1,-1,-1,-1,-1],"loss_changes":[8.4134175E5,1.6311081E5,1.01500875E5,2.1993625E4,2.387014E4,1.7851938E4,2.0435312E4,7.8179688E3,5.6312188E3,4.0643945E3,1.050357E4,4.92325E3,5.6818906E3,1.39063125E4,2.105414E3,0E0,0E0,0E0,0E0,0E0,0E0,0E0,0E0,0E0,0E0,0E0,0E0,0E0,0E0,0E0,0E0],"parents":[2147483647,0,0,1,1,2,2,3,3,4,4,5,5,6,6,7,7,8,8,9,9,10,10,11,11,12,12,13,13,14,14],"right_children":[2,4,6,8,10,12,14,16,18,20,22,24,26,28,30,-1,-1,-1,-1,-1,-1,-1,-1,-1,-1,-1,-1,-1,-1,-1,-1],"split_conditions":[2.8334415E2,1.6348203E2,3.8994266E2,1.2070847E2,2.1336911E2,3.394811E2,2.1761213E1,6.834029E1,2.8784704E1,1E1,2.8784704E1,1E1,2.5472252E1,4.9427112E2,3.937374E2,-1.3554908E0,-9.774539E-1,-7.054949E-1,8.5779923E-1,-6.007191E-1,-3.5650194E-1,-1.0669831E-1,1.0477238E0,1.212359E-1,3.538469E-1,5.6950176E-1,1.4780369E0,9.409669E-1,1.835933E0,5.283025E-1,2.1206253E0],"split_indices":[4,4,4,4,4,4,5,4,5,6,5,6,5,4,4,0,0,0,0,0,0,0,0,0,0,0,0,0,0,0,0],"split_type":[0,0,0,0,0,0,0,0,0,0,0,0,0,0,0,0,0,0,0,0,0,0,0,0,0,0,0,0,0,0,0],"sum_hessian":[6.779E3,3.789E3,2.99E3,1.592E3,2.197E3,2.01E3,9.8E2,7.97E2,7.95E2,8.24E2,1.373E3,1.124E3,8.86E2,9.31E2,4.9E1,1.89E2,6.08E2,7.9E2,5E0,2.47E2,5.77E2,1.354E3,1.9E1,3.19E2,8.05E2,8.69E2,1.7E1,8.85E2,4.6E1,3E0,4.6E1],"tree_param":{"num_deleted":"0","num_feature":"8","num_nodes":"31","size_leaf_vector":"1"}},{"base_weights":[3.7050985E-2,-1.00839405E1,1.12457E1,-1.7321558E1,-5.093446E0,7.2721767E0,1.954312E1,-2.3845856E1,-1.5066741E1,-8.400884E0,-1.8886696E0,4.7002606E0,1.0884002E1,1.7433504E1,2.7329496E1,-1.8196591E0,-1.1380628E0,-9.115395E-1,-6.6526806E-1,-5.652053E-1,-3.594762E-1,2.4541238E-1,-1.2642966E-1,7.717418E-2,2.9948497E-1,8.801648E-1,4.9725977E-1,5.957975E-1,9.413048E-1,1.259538E0,2.0051548E0],"categories":[],"categories_nodes":[],"categories_segments":[],"categories_sizes":[],"default_left":[0,0,0,0,0,0,0,0,0,0,0,0,0,0,0,0,0,0,0,0,0,0,0,0,0,0,0,0,0,0,0],"id":43,"left_children":[1,3,5,7,9,11,13,15,17,19,21,23,25,27,29,-1,-1,-1,-1,-1,-1,-1,-1,-1,-1,-1,-1,-1,-1,-1,-1],"loss_changes":[7.7197725E5,1.29072125E5,1.0631525E5,2.1100344E4,2.2433047E4,2.024443E4,1.6684531E4,4.241797E3,5.8122188E3,3.5814297E3,4.6965923E3,5.1920605E3,5.5499375E3,6.1116406E3,5.0208438E3,0E0,0E0,0E0,0E0,0E0,0E0,0E0,0E0,0E0,0E0,0E0,0E0,0E0,0E0,0E0,0E0],"parents":[2147483647,0,0,1,1,2,2,3,3,4,4,5,5,6,6,7,7,8,8,9,9,10,10,11,11,12,12,13,13,14,14],"right_children":[2,4,6,8,10,12,14,16,18,20,22,24,26,28,30,-1,-1,-1,-1,-1,-1,-1,-1,-1,-1,-1,-1,-1,-1,-1,-1],"split_conditions":[2.7261865E2,1.5638983E2,3.8497153E2,8.901107E1,2.1777512E2,3.342276E2,4.5379428E2,3.9302643E1,1E1,1E1,2.1848042E2,1E1,3.377481E2,9E0,5.190178E2,-1.8196591E0,-1.1380628E0,-9.115395E-1,-6.6526806E-1,-5.652053E-1,-3.594762E-1,2.4541238E-1,-1.2642966E-1,7.717418E-2,2.9948497E-1,8.801648E-1,4.9725977E-1,5.957975E-1,9.413048E-1,1.259538E0,2.0051548E0],"split_indices":[4,4,4,4,4,4,4,4,6,6,1,6,1,6,1,0,0,0,0,0,0,0,0,0,0,0,0,0,0,0,0],"split_type":[0,0,0,0,0,0,0,0,0,0,0,0,0,0,0,0,0,0,0,0,0,0,0,0,0,0,0,0,0,0,0],"sum_hessian":[6.803E3,3.575E3,3.228E3,1.458E3,2.117E3,2.184E3,1.044E3,3.72E2,1.086E3,1.041E3,1.076E3,1.277E3,9.07E2,8.24E2,2.2E2,2.7E1,3.45E2,3.85E2,7.01E2,3.04E2,7.37E2,9.2E1,9.84E2,3.71E2,9.06E2,1.09E2,7.98E2,1.68E2,6.56E2,1.91E2,2.9E1],"tree_param":{"num_deleted":"0","num_feature":"8","num_nodes":"31","size_leaf_vector":"1"}},{"base_weights":[1.4797655E-1,-1.1940383E1,8.607094E0,-1.8056437E1,-8.451973E0,3.2487018E0,1.5520418E1,-3.0883663E1,-1.7303415E1,-1.1232678E1,-5.7234416E0,1.619208E-1,5.9911375E0,1.3073081E1,2.3043646E1,-1.766386E0,-1.2481437E0,-9.684681E-1,-7.5831676E-1,-1.5866588E-1,-5.903234E-1,-2.6344705E-1,-6.76295E-1,2.9407603E-1,-2.1306986E-2,6.321781E-1,2.6787534E-1,5.6862754E-1,7.949487E-1,1.0998201E0,1.8869994E0],"categories":[],"categories_nodes":[],"categories_segments":[],"categories_sizes":[],"default_left":[0,0,0,0,0,0,0,0,0,0,0,0,0,0,0,0,0,0,0,0,0,0,0,0,0,0,0,0,0,0,0],"id":44,"left_children":[1,3,5,7,9,11,13,15,17,19,21,23,25,27,29,-1,-1,-1,-1,-1,-1,-1,-1,-1,-1,-1,-1,-1,-1,-1,-1],"loss_changes":[6.9473325E5,5.9519594E4,1.4801375E5,9.264844E3,1.3462055E4,1.9070732E4,3.1823875E4,5.592617E2,3.9456562E3,4.03975E3,3.1255469E3,3.571694E3,4.959168E3,6.1549375E3,5.735703E3,0E0,0E0,0E0,0E0,0E0,0E0,0E0,0E0,0E0,0E0,0E0,0E0,0E0,0E0,0E0,0E0],"parents":[2147483647,0,0,1,1,2,2,3,3,4,4,5,5,6,6,7,7,8,8,9,9,10,10,11,11,12,12,13,13,14,14],"right_children":[2,4,6,8,10,12,14,16,18,20,22,24,26,28,30,-1,-1,-1,-1,-1,-1,-1,-1,-1,-1,-1,-1,-1,-1,-1,-1],"split_conditions":[2.3365388E2,1.3360527E2,3.4925067E2,4.7238194E1,1.8044812E2,2.8715405E2,4.2426425E2,3.9302643E1,1.01574036E2,1.3099178E2,2.3524234E2,2.3524234E2,2.8653793E2,3.9549762E2,5.2601404E2,-1.766386E0,-1.2481437E0,-9.684681E-1,-7.5831676E-1,-1.5866588E-1,-5.903234E-1,-2.6344705E-1,-6.76295E-1,2.9407603E-1,-2.1306986E-2,6.321781E-1,2.6787534E-1,5.6862754E-1,7.949487E-1,1.0998201E0,1.8869994E0],"split_indices":[4,4,4,4,4,4,4,4,4,1,1,1,1,4,0,0,0,0,0,0,0,0,0,0,0,0,0,0,0,0,0],"split_type":[0,0,0,0,0,0,0,0,0,0,0,0,0,0,0,0,0,0,0,0,0,0,0,0,0,0,0,0,0,0,0],"sum_hessian":[6.792E3,2.796E3,3.996E3,1.014E3,1.782E3,2.252E3,1.744E3,5.4E1,9.6E2,8.81E2,9.01E2,1.06E3,1.192E3,1.318E3,4.26E2,2.8E1,2.6E1,4.84E2,4.76E2,5.9E1,8.22E2,8.53E2,4.8E1,9.8E1,9.62E2,1.02E2,1.09E3,8.26E2,4.92E2,4E2,2.6E1],"tree_param":{"num_deleted":"0","num_feature":"8","num_nodes":"31","size_leaf_vector":"1"}},{"base_weights":[7.381347E-2,-9.283866E0,9.939238E0,-1.5569946E1,-4.771004E0,5.9583054E0,1.6879303E1,-2.1753542E1,-1.3675858E1,-7.564806E0,-1.9916421E0,3.517977E0,8.869641E0,1.4959158E1,2.435651E1,-1.4421718E0,-1.016924E0,-6.9205374E-1,9.575945E-1,-3.9581808E-1,1.8948483E-1,-1.1364441E-1,8.470231E-1,1.6064773E-1,9.828561E-1,4.207482E-1,1.273061E0,6.941368E-1,1.1256229E0,1.1379331E0,2.2173915E0],"categories":[],"categories_nodes":[],"categories_segments":[],"categories_sizes":[],"default_left":[0,0,0,0,0,0,0,0,0,0,0,0,0,0,0,0,0,0,0,0,0,0,0,0,0,0,0,0,0,0,0],"id":45,"left_children":[1,3,5,7,9,11,13,15,17,19,21,23,25,27,29,-1,-1,-1,-1,-1,-1,-1,-1,-1,-1,-1,-1,-1,-1,-1,-1],"loss_changes":[6.2563556E5,9.858831E4,9.104169E4,1.6716906E4,1.571584E4,1.4873039E4,1.6889188E4,2.8095156E3,6.3119844E3,4.0620703E3,5.4521377E3,5.5613145E3,6.994242E3,7.4810156E3,6.7781094E3,0E0,0E0,0E0,0E0,0E0,0E0,0E0,0E0,0E0,0E0,0E0,0E0,0E0,0E0,0E0,0E0],"parents":[2147483647,0,0,1,1,2,2,3,3,4,4,5,5,6,6,7,7,8,8,9,9,10,10,11,11,12,12,13,13,14,14],"right_children":[2,4,6,8,10,12,14,16,18,20,22,24,26,28,30,-1,-1,-1,-1,-1,-1,-1,-1,-1,-1,-1,-1,-1,-1,-1,-1],"split_conditions":[2.6929822E2,1.5638983E2,3.7750717E2,8.650392E1,2.1777512E2,3.2440952E2,4.489396E2,4.7238194E1,3.5352818E1,2.0529995E1,2.8784704E1,2.8784704E1,2.5472252E1,1.5179678E1,2.0529995E1,-1.4421718E0,-1.016924E0,-6.9205374E-1,9.575945E-1,-3.9581808E-1,1.8948483E-1,-1.1364441E-1,8.470231E-1,1.6064773E-1,9.828561E-1,4.207482E-1,1.273061E0,6.941368E-1,1.1256229E0,1.1379331E0,2.2173915E0],"split_indices":[4,4,4,4,4,4,4,4,5,5,5,5,5,5,5,0,0,0,0,0,0,0,0,0,0,0,0,0,0,0,0],"split_type":[0,0,0,0,0,0,0,0,0,0,0,0,0,0,0,0,0,0,0,0,0,0,0,0,0,0,0,0,0,0,0],"sum_hessian":[6.775E3,3.477E3,3.298E3,1.452E3,2.025E3,2.097E3,1.201E3,3.38E2,1.114E3,1.009E3,1.016E3,1.142E3,9.55E2,9.58E2,2.43E2,5.3E1,2.85E2,1.109E3,5E0,9.79E2,3E1,1.002E3,1.4E1,1.122E3,2E1,9.31E2,2.4E1,8.41E2,1.17E2,2.27E2,1.6E1],"tree_param":{"num_deleted":"0","num_feature":"8","num_nodes":"31","size_leaf_vector":"1"}},{"base_weights":[-6.2152132E-2,-8.602356E0,9.741256E0,-1.4161626E1,-4.068954E0,6.5452695E0,1.7376411E1,-1.7816517E1,-1.1060535E1,-6.332826E0,-1.2043453E0,3.4842257E0,8.951531E0,1.6197308E1,3.1904661E1,-1.3262472E0,-8.402487E-1,-5.6647E-1,5.6614023E-1,-3.4052372E-1,1.6959062E-1,-7.563239E-2,9.792151E-1,-5.011223E-3,2.4374048E-1,4.3493316E-1,1.5314856E0,7.5982493E-1,1.5935532E0,8.491027E-1,1.7220147E0],"categories":[],"categories_nodes":[],"categories_segments":[],"categories_sizes":[],"default_left":[0,0,0,0,0,0,0,0,0,0,0,0,0,0,0,0,0,0,0,0,0,0,0,0,0,0,0,0,0,0,0],"id":46,"left_children":[1,3,5,7,9,11,13,15,17,19,21,23,25,27,29,-1,-1,-1,-1,-1,-1,-1,-1,-1,-1,-1,-1,-1,-1,-1,-1],"loss_changes":[5.689821E5,9.147569E4,7.7091375E4,1.8286062E4,1.2974805E4,1.640775E4,1.5461031E4,6.1301875E3,5.4542734E3,5.216504E3,5.69995E3,4.9056924E3,6.5763203E3,1.3079719E4,2.0208281E3,0E0,0E0,0E0,0E0,0E0,0E0,0E0,0E0,0E0,0E0,0E0,0E0,0E0,0E0,0E0,0E0],"parents":[2147483647,0,0,1,1,2,2,3,3,4,4,5,5,6,6,7,7,8,8,9,9,10,10,11,11,12,12,13,13,14,14],"right_children":[2,4,6,8,10,12,14,16,18,20,22,24,26,28,30,-1,-1,-1,-1,-1,-1,-1,-1,-1,-1,-1,-1,-1,-1,-1,-1],"split_conditions":[2.7261865E2,1.6495795E2,3.9218137E2,1.17007256E2,2.2840408E2,3.2106058E2,1.8455145E1,5.449526E1,2.5472252E1,1.8975374E1,2.8784704E1,1E1,4.000334E1,4.9427112E2,3.9854376E2,-1.3262472E0,-8.402487E-1,-5.6647E-1,5.6614023E-1,-3.4052372E-1,1.6959062E-1,-7.563239E-2,9.792151E-1,-5.011223E-3,2.4374048E-1,4.3493316E-1,1.5314856E0,7.5982493E-1,1.5935532E0,8.491027E-1,1.7220147E0],"split_indices":[4,4,4,4,4,4,5,4,5,5,5,6,5,4,4,0,0,0,0,0,0,0,0,0,0,0,0,0,0,0,0],"split_type":[0,0,0,0,0,0,0,0,0,0,0,0,0,0,0,0,0,0,0,0,0,0,0,0,0,0,0,0,0,0,0],"sum_hessian":[6.794E3,3.631E3,3.163E3,1.63E3,2.001E3,2.231E3,9.32E2,7.46E2,8.84E2,1.117E3,8.84E2,9.83E2,1.248E3,8.64E2,6.8E1,7.5E1,6.71E2,8.74E2,1E1,1.065E3,5.2E1,8.72E2,1.2E1,2.75E2,7.08E2,1.235E3,1.3E1,8.14E2,5E1,1.1E1,5.7E1],"tree_param":{"num_deleted":"0","num_feature":"8","num_nodes":"31","size_leaf_vector":"1"}},{"base_weights":[5.902468E-2,-8.338388E0,8.901997E0,-1.2443076E1,-2.8022544E0,5.224613E0,1.4479275E1,-1.57124815E1,-9.794663E0,-5.732E0,-1.6199577E0,3.235989E0,8.1715145E0,1.3268043E1,2.3215006E1,-9.447996E-1,-6.85613E-1,-6.4229244E-1,-4.232707E-1,-4.2352825E-1,-2.0140214E-1,7.878646E-2,-2.3391221E-1,-8.983924E-3,2.2007559E-1,4.8615214E-1,2.8120694E-1,4.1769335E-1,7.2235125E-1,1.0364455E0,1.7095646E0],"categories":[],"categories_nodes":[],"categories_segments":[],"categories_sizes":[],"default_left":[0,0,0,0,0,0,0,0,0,0,0,0,0,0,0,0,0,0,0,0,0,0,0,0,0,0,0,0,0,0,0],"id":47,"left_children":[1,3,5,7,9,11,13,15,17,19,21,23,25,27,29,-1,-1,-1,-1,-1,-1,-1,-1,-1,-1,-1,-1,-1,-1,-1,-1],"loss_changes":[5.085937E5,7.9793375E4,6.834306E4,1.7308219E4,5.175332E3,1.1763297E4,1.3708156E4,5.474953E3,4.4194375E3,1.9711797E3,1.0445594E4,4.7904023E3,3.145164E3,6.6325E3,3.6518594E3,0E0,0E0,0E0,0E0,0E0,0E0,0E0,0E0,0E0,0E0,0E0,0E0,0E0,0E0,0E0,0E0],"parents":[2147483647,0,0,1,1,2,2,3,3,4,4,5,5,6,6,7,7,8,8,9,9,10,10,11,11,12,12,13,13,14,14],"right_children":[2,4,6,8,10,12,14,16,18,20,22,24,26,28,30,-1,-1,-1,-1,-1,-1,-1,-1,-1,-1,-1,-1,-1,-1,-1,-1],"split_conditions":[2.6882327E2,1.8615804E2,3.71849E2,1.26995766E2,9E0,3.278919E2,4.6263693E2,1E1,1E1,2.1991948E2,1.6E1,9E0,1.6E1,9E0,5.190178E2,-9.447996E-1,-6.85613E-1,-6.4229244E-1,-4.232707E-1,-4.2352825E-1,-2.0140214E-1,7.878646E-2,-2.3391221E-1,-8.983924E-3,2.2007559E-1,4.8615214E-1,2.8120694E-1,4.1769335E-1,7.2235125E-1,1.0364455E0,1.7095646E0],"split_indices":[0,0,0,0,6,0,0,6,6,0,6,6,6,6,1,0,0,0,0,0,0,0,0,0,0,0,0,0,0,0,0],"split_type":[0,0,0,0,0,0,0,0,0,0,0,0,0,0,0,0,0,0,0,0,0,0,0,0,0,0,0,0,0,0,0],"sum_hessian":[6.847E3,3.512E3,3.335E3,2.016E3,1.496E3,2.011E3,1.324E3,9E2,1.116E3,4.29E2,1.067E3,1.202E3,8.09E2,1.165E3,1.59E2,3.44E2,5.56E2,3.36E2,7.8E2,1.63E2,2.66E2,5.22E2,5.45E2,3.06E2,8.96E2,5.01E2,3.08E2,2.27E2,9.38E2,1.32E2,2.7E1],"tree_param":{"num_deleted":"0","num_feature":"8","num_nodes":"31","size_leaf_vector":"1"}},{"base_weights":[8.39972E-2,-8.907962E0,7.691267E0,-1.3404986E1,-4.90181E0,3.272325E0,1.2897871E1,-1.942992E1,-1.2048163E1,-5.2233987E0,8.866684E0,1.0608945E0,5.3977256E0,1.08957815E1,1.9770874E1,-1.5437384E0,-8.955807E-1,-7.4786985E-1,-5.1750606E-1,-3.7338933E-1,-1.6878884E-1,1.2089983E-2,5.9673965E-1,3.6178317E-2,8.5888666E-1,1.1342799E-1,3.304269E-1,4.9971256E-1,9.610557E-1,9.348715E-1,1.9588495E0],"categories":[],"categories_nodes":[],"categories_segments":[],"categories_sizes":[],"default_left":[0,0,0,0,0,0,0,0,0,0,0,0,0,0,0,0,0,0,0,0,0,0,0,0,0,0,0,0,0,0,0],"id":48,"left_children":[1,3,5,7,9,11,13,15,17,19,21,23,25,27,29,-1,-1,-1,-1,-1,-1,-1,-1,-1,-1,-1,-1,-1,-1,-1,-1],"loss_changes":[4.6494375E5,5.605158E4,8.467044E4,1.1755125E4,7.347375E3,9.361078E3,2.3036531E4,4.099086E3,5.7706562E3,6.6583164E3,1.0014558E3,5.302837E3,3.8335742E3,9.64475E3,7.177625E3,0E0,0E0,0E0,0E0,0E0,0E0,0E0,0E0,0E0,0E0,0E0,0E0,0E0,0E0,0E0,0E0],"parents":[2147483647,0,0,1,1,2,2,3,3,4,4,5,5,6,6,7,7,8,8,9,9,10,10,11,11,12,12,13,13,14,14],"right_children":[2,4,6,8,10,12,14,16,18,20,22,24,26,28,30,-1,-1,-1,-1,-1,-1,-1,-1,-1,-1,-1,-1,-1,-1,-1,-1],"split_conditions":[2.4768617E2,1.5638983E2,3.5217102E2,7.791359E1,2.2631742E1,2.9819928E2,4.2900082E2,3.9302643E1,1E1,1.9948807E2,1.6632422E2,2.8784704E1,1E1,1.6561192E1,2.2631742E1,-1.5437384E0,-8.955807E-1,-7.4786985E-1,-5.1750606E-1,-3.7338933E-1,-1.6878884E-1,1.2089983E-2,5.9673965E-1,3.6178317E-2,8.5888666E-1,1.1342799E-1,3.304269E-1,4.9971256E-1,9.610557E-1,9.348715E-1,1.9588495E0],"split_indices":[4,4,4,4,5,4,4,4,6,4,3,5,6,5,5,0,0,0,0,0,0,0,0,0,0,0,0,0,0,0,0],"split_type":[0,0,0,0,0,0,0,0,0,0,0,0,0,0,0,0,0,0,0,0,0,0,0,0,0,0,0,0,0,0,0],"sum_hessian":[6.795E3,3.114E3,3.681E3,1.466E3,1.648E3,1.992E3,1.689E3,2.67E2,1.199E3,1.611E3,3.7E1,9.77E2,1.015E3,1.31E3,3.79E2,