{"learner":{"attributes":{"scikit_learn":"{\"_estimator_type\": \"regressor\"}"},"feature_names":[],"feature_types":[],"gradient_booster":{"model":{"cats":{"enc":[],"feature_segments":[],"sorted_idx":[]},"gbtree_model_param":{"num_parallel_tree":"1","num_trees":"300"},"iteration_indptr":[0,1,2,3,4,5,6,7,8,9,10,11,12,13,14,15,16,17,18,19,20,21,22,23,24,25,26,27,28,29,30,31,32,33,34,35,36,37,38,39,40,41,42,43,44,45,46,47,48,49,50,51,52,53,54,55,56,57,58,59,60,61,62,63,64,65,66,67,68,69,70,71,72,73,74,75,76,77,78,79,80,81,82,83,84,85,86,87,88,89,90,91,92,93,94,95,96,97,98,99,100,101,102,103,104,105,106,107,108,109,110,111,112,113,114,115,116,117,118,119,120,121,122,123,124,125,126,127,128,129,130,131,132,133,134,135,136,137,138,139,140,141,142,143,144,145,146,147,148,149,150,151,152,153,154,155,156,157,158,159,160,161,162,163,164,165,166,167,168,169,170,171,172,173,174,175,176,177,178,179,180,181,182,183,184,185,186,187,188,189,190,191,192,193,194,195,196,197,198,199,200,201,202,203,204,205,206,207,208,209,210,211,212,213,214,215,216,217,218,219,220,221,222,223,224,225,226,227,228,229,230,231,232,233,234,235,236,237,238,239,240,241,242,243,244,245,246,247,248,249,250,251,252,253,254,255,256,257,258,259,260,261,262,263,264,265,266,267,268,269,270,271,272,273,274,275,276,277,278,279,280,281,282,283,284,285,286,287,288,289,290,291,292,293,294,295,296,297,298,299,300],"tree_info":[0,0,0,0,0,0,0,0,0,0,0,0,0,0,0,0,0,0,0,0,0,0,0,0,0,0,0,0,0,0,0,0,0,0,0,0,0,0,0,0,0,0,0,0,0,0,0,0,0,0,0,0,0,0,0,0,0,0,0,0,0,0,0,0,0,0,0,0,0,0,0,0,0,0,0,0,0,0,0,0,0,0,0,0,0,0,0,0,0,0,0,0,0,0,0,0,0,0,0,0,0,0,0,0,0,0,0,0,0,0,0,0,0,0,0,0,0,0,0,0,0,0,0,0,0,0,0,0,0,0,0,0,0,0,0,0,0,0,0,0,0,0,0,0,0,0,0,0,0,0,0,0,0,0,0,0,0,0,0,0,0,0,0,0,0,0,0,0,0,0,0,0,0,0,0,0,0,0,0,0,0,0,0,0,0,0,0,0,0,0,0,0,0,0,0,0,0,0,0,0,0,0,0,0,0,0,0,0,0,0,0,0,0,0,0,0,0,0,0,0,0,0,0,0,0,0,0,0,0,0,0,0,0,0,0,0,0,0,0,0,0,0,0,0,0,0,0,0,0,0,0,0,0,0,0,0,0,0,0,0,0,0,0,0,0,0,0,0,0,0,0,0,0,0,0,0,0,0,0,0,0,0,0,0,0,0,0,0,0,0,0,0,0,0,0,0,0,0,0,0],"trees":[{"base_weights":[1.2930636E-3,-2.072306E-2,7.558594E-1,-2.3901964E-2,2.1278411E-1,5.6156254E-1,8.858407E-1,-1.2490068E-3,1.1447392E-2,5.3500023E-2,4.0897438E-1,7.5390625E-1,4.22449E-1,4.743671E-2,7.1571434E-1,-9.426218E-4,3.5781253E-2,-1.0267845E-3,7.2826096E-3,2.6041677E-3,2.7187502E-2,2.1136364E-2,4.403409E-2,1.6951222E-2,3.7222225E-2,-0E0,3.8030308E-2],"categories":[],"categories_nodes":[],"categories_segments":[],"categories_sizes":[],"default_left":[0,0,0,0,0,0,0,0,0,0,0,0,0,0,0,0,0,0,0,0,0,0,0,0,0,0,0],"id":0,"left_children":[1,3,5,7,9,11,13,-1,15,17,19,21,23,-1,25,-1,-1,-1,-1,-1,-1,-1,-1,-1,-1,-1,-1],"loss_changes":[1.1250681E2,4.8675423E0,4.2067566E0,2.4895215E-1,2.6818717E0,1.7044888E0,3.6361694E-1,0E0,4.137096E0,3.5663033E-1,1.7880039E0,8.409023E-1,9.555235E-1,0E0,1.162569E0,0E0,0E0,0E0,0E0,0E0,0E0,0E0,0E0,0E0,0E0,0E0,0E0],"parents":[2147483647,0,0,1,1,2,2,3,3,4,4,5,5,6,6,8,8,9,9,10,10,11,11,12,12,14,14],"right_children":[2,4,6,8,10,12,14,-1,16,18,20,22,24,-1,26,-1,-1,-1,-1,-1,-1,-1,-1,-1,-1,-1,-1],"split_conditions":[4.588238E2,4.443903E2,4.7417062E2,2.1761213E1,1.0436773E1,1.7E1,1.2682648E1,-1.8852471E0,4.0948846E2,4.5695563E2,4.3208173E2,4.3192844E2,4.777809E2,5.1748896E0,1.288182E1,-7.074941E-1,1.8944107E0,-9.767609E-2,1.0838928E-1,2.1833344E-1,3.1097276E0,8.373154E-1,3.9142442E0,9.1712093E-1,1.4612229E0,-1.1561432E-1,5.0885453E0],"split_indices":[0,0,0,5,5,6,5,0,1,2,1,3,1,0,5,0,0,0,0,0,0,0,0,0,0,0,0],"split_type":[0,0,0,0,0,0,0,0,0,0,0,0,0,0,0,0,0,0,0,0,0,0,0,0,0,0,0],"sum_hessian":[6.766E3,6.575E3,1.91E2,6.488E3,8.7E1,7.9E1,1.12E2,6.299E3,1.89E2,4.9E1,3.8E1,3.1E1,4.8E1,7.8E1,3.4E1,1.82E2,7E0,2.7E1,2.2E1,1.1E1,2.7E1,1E1,2.1E1,4E1,8E0,2E0,3.2E1],"tree_param":{"num_deleted":"0","num_feature":"8","num_nodes":"27","size_leaf_vector":"1"}},{"base_weights":[-1.1233661E-3,-2.1529317E-2,7.9808825E-1,-2.4523677E-2,1.6844663E-1,5.3962266E-1,9.065678E-1,-2.4827827E-2,4.629632E-2,3.5060998E-2,6.534091E-1,5.7350004E-1,-0E0,7.391667E-1,4.7584273E-2,-1.249038E-3,2.4193664E-4,-9.999989E-4,3.0833334E-2,-1.1403498E-3,8.221155E-3,4.3375E-2,2.1538464E-2,3.6015626E-2,2.4357146E-2,3.9687503E-2,-0E0],"categories":[],"categories_nodes":[],"categories_segments":[],"categories_sizes":[],"default_left":[0,0,0,0,0,0,0,0,0,0,0,0,0,0,0,0,0,0,0,0,0,0,0,0,0,0,0],"id":1,"left_children":[1,3,5,7,9,11,13,15,17,19,21,23,-1,25,-1,-1,-1,-1,-1,-1,-1,-1,-1,-1,-1,-1,-1],"loss_changes":[1.1136039E2,3.780028E0,4.132675E0,1.4032531E-1,6.5710077E0,1.0119047E0,1.8684387E-2,3.1784534E-2,1.092963E0,6.317575E-1,5.451145E-1,1.622734E-1,0E0,1.2500725E0,0E0,0E0,0E0,0E0,0E0,0E0,0E0,0E0,0E0,0E0,0E0,0E0,0E0],"parents":[2147483647,0,0,1,1,2,2,3,3,4,4,5,5,6,6,7,7,8,8,9,9,10,10,11,11,13,13],"right_children":[2,4,6,8,10,12,14,16,18,20,22,24,-1,26,-1,-1,-1,-1,-1,-1,-1,-1,-1,-1,-1,-1,-1],"split_conditions":[4.6259686E2,4.4298752E2,4.7364935E2,4.370434E2,1.3094749E1,4.8403055E2,4.804441E2,4.5106155E1,1.9956444E1,4.5866315E2,1.5E1,1.6E1,-1.1154785E-1,4.8608798E2,4.9102373E0,-1.8747895E0,4.408829E-1,-2.2806703E-1,1.0533508E0,-6.357667E-2,2.1774903E-1,1.7996902E0,7.9544985E-1,2.1258926E0,5.7449037E-1,1.5739853E0,-4.3585207E-2],"split_indices":[4,4,4,4,5,3,4,5,5,4,6,6,0,2,0,0,0,0,0,0,0,0,0,0,0,0,0],"split_type":[0,0,0,0,0,0,0,0,0,0,0,0,0,0,0,0,0,0,0,0,0,0,0,0,0,0,0],"sum_hessian":[6.831E3,6.662E3,1.69E2,6.56E3,1.02E2,5.2E1,1.17E2,6.534E3,2.6E1,8.1E1,2.1E1,4.9E1,3E0,2.9E1,8.8E1,6.504E3,3E1,2.4E1,2E0,5.6E1,2.5E1,9E0,1.2E1,1.5E1,3.4E1,2.7E1,2E0],"tree_param":{"num_deleted":"0","num_feature":"8","num_nodes":"27","size_leaf_vector":"1"}},{"base_weights":[-2.5361546E-3,-2.1500431E-2,7.5636363E-1,-2.4061566E-2,1.8140246E-1,5E-1,4.4128444E-2,-2.4671588E-2,4.385967E-2,4.9736845E-1,8.320315E-2,6.9655174E-1,2.8275865E-1,-1.2490016E-3,-7.3170615E-4,1.8000001E-2,5.6603894E-4,2.85E-2,8.000001E-3,8.625002E-3,7.142973E-5,2.7500002E-2,4.3863636E-2,3.3750013E-3,1.8562501E-2],"categories":[],"categories_nodes":[],"categories_segments":[],"categories_sizes":[],"default_left":[0,0,0,0,0,0,0,0,0,0,0,0,0,0,0,0,0,0,0,0,0,0,0,0,0],"id":2,"left_children":[1,3,5,7,9,11,-1,13,15,17,19,21,23,-1,-1,-1,-1,-1,-1,-1,-1,-1,-1,-1,-1],"loss_changes":[9.7405304E1,3.4225569E0,4.758934E0,2.6959944E-1,2.4448268E0,2.1389666E0,0E0,1.5707016E-2,5.451433E-1,3.013687E-1,4.4970226E-1,1.4283657E-1,4.8347282E-1,0E0,0E0,0E0,0E0,0E0,0E0,0E0,0E0,0E0,0E0,0E0,0E0],"parents":[2147483647,0,0,1,1,2,2,3,3,4,4,5,5,7,7,8,8,9,9,10,10,11,11,12,12],"right_children":[2,4,6,8,10,12,-1,14,16,18,20,22,24,-1,-1,-1,-1,-1,-1,-1,-1,-1,-1,-1,-1],"split_conditions":[4.6259686E2,4.489396E2,4.7364935E2,4.370434E2,4.440748E2,4.6577463E2,4.5868497E0,4.1829535E2,4.2126218E2,2.1E1,4.547882E2,4.6728302E2,4.6728302E2,-2.4968257E0,-3.4456554E-1,1.0006837E0,4.5253655E-1,1.7097062E0,1.712555E-1,3.90596E-1,1.5721131E-2,2.0195985E0,7.835922E-1,9.5983885E-2,5.842331E-1],"split_indices":[4,4,4,4,1,1,0,4,1,6,1,4,4,0,0,0,0,0,0,0,0,0,0,0,0],"split_type":[0,0,0,0,0,0,0,0,0,0,0,0,0,0,0,0,0,0,0,0,0,0,0,0,0],"sum_hessian":[6.771E3,6.607E3,1.64E2,6.526E3,8.1E1,5.6E1,1.08E2,6.47E3,5.6E1,1.8E1,6.3E1,2.8E1,2.8E1,6.266E3,2.04E2,4E0,5.2E1,1.4E1,4E0,2.9E1,3.4E1,1.8E1,1E1,9E0,1.9E1],"tree_param":{"num_deleted":"0","num_feature":"8","num_nodes":"25","size_leaf_vector":"1"}},{"base_weights":[-5.2466625E-3,-2.1076126E-2,7.864662E-1,-2.3764798E-2,1.9629632E-1,6.6920733E-1,4.7716346E-2,-2.4520976E-2,6.4545475E-2,1.4506581E-1,3.979167E-2,7.2042257E-1,3.0208334E-1,-1.2490338E-3,1.7968761E-3,-1.2499884E-4,3.1458333E-2,4.0178685E-4,1.0918369E-2,-0E0,3.710145E-2,2.0555558E-2,-0E0],"categories":[],"categories_nodes":[],"categories_segments":[],"categories_sizes":[],"default_left":[0,0,0,0,0,0,0,0,0,0,0,0,0,0,0,0,0,0,0,0,0,0,0],"id":3,"left_children":[1,3,5,7,9,11,-1,13,15,17,-1,19,21,-1,-1,-1,-1,-1,-1,-1,-1,-1,-1],"loss_changes":[8.503496E1,3.8786368E0,1.816864E0,4.3684745E-1,2.2783432E0,1.2219124E0,0E0,1.8112254E-1,2.1462803E0,7.389879E-1,0E0,1.1422691E0,4.26059E-1,0E0,0E0,0E0,0E0,0E0,0E0,0E0,0E0,0E0,0E0],"parents":[2147483647,0,0,1,1,2,2,3,3,4,4,5,5,7,7,8,8,9,9,11,11,12,12],"right_children":[2,4,6,8,10,12,-1,14,16,18,-1,20,22,-1,-1,-1,-1,-1,-1,-1,-1,-1,-1],"split_conditions":[4.6728302E2,4.5379428E2,4.9427112E2,4.4298752E2,1.8455145E1,4.8608798E2,4.3954463E0,4.000334E1,2.0529995E1,6.650726E0,1.9186188E0,3.9905554E2,1.1731514E1,-1.599893E0,8.477341E-1,5.524618E-4,6.214401E-1,7.944184E-2,2.7886745E-1,-1.5706329E-1,2.6895669E0,7.81781E-1,-2.2139435E-1],"split_indices":[4,4,4,4,5,2,0,5,5,5,0,3,5,0,0,0,0,0,0,0,0,0,0],"split_type":[0,0,0,0,0,0,0,0,0,0,0,0,0,0,0,0,0,0,0,0,0,0,0],"sum_hessian":[6.789E3,6.657E3,1.32E2,6.577E3,8E1,8.1E1,5.1E1,6.523E3,5.4E1,7.5E1,5E0,7E1,1.1E1,6.476E3,4.7E1,4.9E1,5E0,2.7E1,4.8E1,2E0,6.8E1,8E0,3E0],"tree_param":{"num_deleted":"0","num_feature":"8","num_nodes":"23","size_leaf_vector":"1"}},{"base_weights":[-6.6154627E-3,-2.212447E-2,6.540064E-1,-2.437059E-2,1.2729594E-1,4.9809527E-1,4.7716346E-2,-2.4827005E-2,3.2352965E-2,6.305558E-2,3.7222225E-2,5.3092784E-1,7.7777795E-2,-1.2490338E-3,4.0178685E-4,-1.1197905E-3,3.53125E-2,1.2987026E-3,1.2767859E-2,1.950521E-2,3.2675E-2,-4.6874894E-4,2.1875E-2],"categories":[],"categories_nodes":[],"categories_segments":[],"categories_sizes":[],"default_left":[0,0,0,0,0,0,0,0,0,0,0,0,0,0,0,0,0,0,0,0,0,0,0],"id":4,"left_children":[1,3,5,7,9,11,-1,13,15,17,-1,19,21,-1,-1,-1,-1,-1,-1,-1,-1,-1,-1],"loss_changes":[6.968277E1,2.224994E0,6.6838455E0,1.6973066E-1,3.7576015E0,1.3468475E0,0E0,3.4740925E-2,1.9658494E0,6.0700953E-1,0E0,1.3150291E0,3.2907116E-1,0E0,0E0,0E0,0E0,0E0,0E0,0E0,0E0,0E0,0E0],"parents":[2147483647,0,0,1,1,2,2,3,3,4,4,5,5,7,7,8,8,9,9,11,11,12,12],"right_children":[2,4,6,8,10,12,-1,14,16,18,-1,20,22,-1,-1,-1,-1,-1,-1,-1,-1,-1,-1],"split_conditions":[4.6259686E2,4.4298752E2,4.9427112E2,4.000334E1,2.0529995E1,4.924883E2,4.277891E0,4.370434E2,3.7466852E2,1.3163234E1,1.5931488E0,4.7364935E2,1.8177464E1,-1.6971785E0,4.5074463E-2,-9.200734E-2,9.0826267E-1,8.086621E-2,1.4874879E-1,1.698177E0,2.918126E0,-1.4608459E-1,7.7882844E-1],"split_indices":[4,4,4,5,5,1,0,4,1,5,0,4,5,0,0,0,0,0,0,0,0,0,0],"split_type":[0,0,0,0,0,0,0,0,0,0,0,0,0,0,0,0,0,0,0,0,0,0,0],"sum_hessian":[6.805E3,6.65E3,1.55E2,6.553E3,9.7E1,1.04E2,5.1E1,6.503E3,5E1,8.9E1,8E0,9.6E1,8E0,6.476E3,2.7E1,4.7E1,3E0,7.6E1,1.3E1,4.7E1,4.9E1,7E0,1E0],"tree_param":{"num_deleted":"0","num_feature":"8","num_nodes":"23","size_leaf_vector":"1"}},{"base_weights":[-7.2760954E-3,-2.1396002E-2,6.624114E-1,-2.4223343E-2,1.7213544E-1,4.4397593E-1,4.7838982E-2,-2.4675252E-2,2.7232166E-2,4.107143E-2,1.18611135E-1,6.3E-1,3E-1,-1.2490115E-3,-7.558128E-4,2.8E-2,-1.1298065E-3,3.768117E-3,1.22159105E-2,2.4673915E-2,4.076923E-2,3.5781253E-2,1.0565477E-2],"categories":[],"categories_nodes":[],"categories_segments":[],"categories_sizes":[],"default_left":[0,0,0,0,0,0,0,0,0,0,0,0,0,0,0,0,0,0,0,0,0,0,0],"id":5,"left_children":[1,3,5,7,9,11,-1,13,15,-1,17,19,21,-1,-1,-1,-1,-1,-1,-1,-1,-1,-1],"loss_changes":[6.457186E1,3.6521976E0,8.501503E0,1.5386367E-1,3.1448498E0,1.9409885E0,0E0,1.4690638E-2,1.5530214E0,0E0,4.3892062E-1,3.5255527E-1,1.5623255E0,0E0,0E0,0E0,0E0,0E0,0E0,0E0,0E0,0E0,0E0],"parents":[2147483647,0,0,1,1,2,2,3,3,4,4,5,5,7,7,8,8,10,10,11,11,12,12],"right_children":[2,4,6,8,10,12,-1,14,16,-1,18,20,22,-1,-1,-1,-1,-1,-1,-1,-1,-1,-1],"split_conditions":[4.6728302E2,4.489396E2,4.9427112E2,4.370434E2,4.26004E2,4.7089285E2,4.0493813E0,4.1829535E2,4.2727695E2,1.1152191E0,2.2E1,1.8E1,1.7E1,-2.2175434E0,-1.9185191E-1,8.628494E-1,-7.207946E-2,7.6075613E-1,3.4968567E-1,2.963292E0,1.157132E0,7.2010344E-1,2.1260464E0],"split_indices":[4,4,4,4,1,1,0,4,0,0,6,6,6,0,0,0,0,0,0,0,0,0,0],"split_type":[0,0,0,0,0,0,0,0,0,0,0,0,0,0,0,0,0,0,0,0,0,0,0],"sum_hessian":[6.833E3,6.693E3,1.4E2,6.598E3,9.5E1,8.2E1,5.8E1,6.543E3,5.5E1,6E0,8.9E1,3.4E1,4.8E1,6.329E3,2.14E2,4E0,5.1E1,6.8E1,2.1E1,2.2E1,1.2E1,7E0,4.1E1],"tree_param":{"num_deleted":"0","num_feature":"8","num_nodes":"23","size_leaf_vector":"1"}},{"base_weights":[-8.602602E-3,-2.1819457E-2,6.3621324E-1,-2.4217771E-2,1.5000002E-1,4.4969514E-1,4.5045458E-2,-2.4672851E-2,2.6315812E-2,6.7857146E-1,1.0352944E-1,3.5144232E-2,3.2456142E-1,-1.2489994E-3,-8.1454794E-4,1.8000001E-2,-1.8867808E-4,-0E0,3.979167E-2,2.7000012E-3,2.1136364E-2,1.0372342E-2,3.9318185E-2],"categories":[],"categories_nodes":[],"categories_segments":[],"categories_sizes":[],"default_left":[0,0,0,0,0,0,0,0,0,0,0,0,0,0,0,0,0,0,0,0,0,0,0],"id":6,"left_children":[1,3,5,7,9,11,-1,13,15,17,19,-1,21,-1,-1,-1,-1,-1,-1,-1,-1,-1,-1],"loss_changes":[5.7709007E1,2.7280707E0,6.174202E0,1.5116E-1,2.0867734E0,2.2670937E0,0E0,1.2188911E-2,6.09281E-1,5.7688975E-1,1.273323E0,0E0,2.8202658E0,0E0,0E0,0E0,0E0,0E0,0E0,0E0,0E0,0E0,0E0],"parents":[2147483647,0,0,1,1,2,2,3,3,4,4,5,5,7,7,8,8,9,9,10,10,12,12],"right_children":[2,4,6,8,10,12,-1,14,16,18,20,-1,22,-1,-1,-1,-1,-1,-1,-1,-1,-1,-1],"split_conditions":[4.6728302E2,4.5379428E2,4.9427112E2,4.4298752E2,4.3900793E2,1.7E1,3.855264E0,4.1829535E2,4.037186E2,4.5866315E2,2.3E1,2.8151276E0,2.3E1,-2.131358E0,-2.127925E-1,1.4754547E0,3.1160617E-1,-8.656311E-2,1.6997422E0,1.5821247E-1,3.3220062E-1,1.8373555E0,1.0992752E0],"split_indices":[4,4,4,4,1,6,0,4,2,4,6,0,6,0,0,0,0,0,0,0,0,0,0],"split_type":[0,0,0,0,0,0,0,0,0,0,0,0,0,0,0,0,0,0,0,0,0,0,0],"sum_hessian":[6.776E3,6.641E3,1.35E2,6.551E3,9E1,8.1E1,5.4E1,6.495E3,5.6E1,6E0,8.4E1,2.5E1,5.6E1,6.252E3,2.43E2,4E0,5.2E1,1E0,5E0,7.4E1,1E1,4.6E1,1E1],"tree_param":{"num_deleted":"0","num_feature":"8","num_nodes":"23","size_leaf_vector":"1"}},{"base_weights":[-1.0461255E-2,-1.9045828E-2,7.115625E-1,-2.3921575E-2,2.2255641E-1,5.847222E-1,4.675926E-2,-2.4676142E-2,8.206524E-2,8.518521E-2,4.2641512E-1,-0E0,5.9622645E-1,-1.2490362E-3,1.0563497E-4,-0E0,3.8E-2,-0E0,9.177633E-3,1.7146742E-2,4.2031255E-2,-0E0,3.0408654E-2],"categories":[],"categories_nodes":[],"categories_segments":[],"categories_sizes":[],"default_left":[0,0,0,0,0,0,0,0,0,0,0,0,0,0,0,0,0,0,0,0,0,0,0],"id":7,"left_children":[1,3,5,7,9,11,-1,13,15,17,19,-1,21,-1,-1,-1,-1,-1,-1,-1,-1,-1,-1],"loss_changes":[4.2204082E1,7.923942E0,1.5703354E0,5.246756E-1,3.6370907E0,3.7814903E-1,0E0,5.58815E-2,2.5782037E0,6.925019E-1,1.4260178E0,0E0,3.9271927E-1,0E0,0E0,0E0,0E0,0E0,0E0,0E0,0E0,0E0,0E0],"parents":[2147483647,0,0,1,1,2,2,3,3,4,4,5,5,7,7,8,8,9,9,10,10,12,12],"right_children":[2,4,6,8,10,12,-1,14,16,18,20,-1,22,-1,-1,-1,-1,-1,-1,-1,-1,-1,-1],"split_conditions":[4.804441E2,4.5379428E2,5.2601404E2,4.000334E1,1.0216331E1,4.1193842E2,3.6938202E0,2.5472252E1,3.7655133E2,7.076637E0,1.8455145E1,-4.227066E-1,1.2944717E0,-1.2685819E0,1.9813342E-2,3.476585E-1,1.4016815E0,9.495462E-3,1.6328584E-1,3.960553E-1,1.6147553E0,-9.285583E-2,2.4723103E0],"split_indices":[4,4,0,5,5,3,0,5,3,5,5,0,5,0,0,0,0,0,0,0,0,0,0],"split_type":[0,0,0,0,0,0,0,0,0,0,0,0,0,0,0,0,0,0,0,0,0,0,0],"sum_hessian":[6.817E3,6.738E3,7.9E1,6.606E3,1.32E2,5.3E1,2.6E1,6.561E3,4.5E1,8E1,5.2E1,1E0,5.2E1,6.491E3,7E1,4.1E1,4E0,4.3E1,3.7E1,4.5E1,7E0,1E0,5.1E1],"tree_param":{"num_deleted":"0","num_feature":"8","num_nodes":"23","size_leaf_vector":"1"}},{"base_weights":[-1.1060204E-2,-2.0084558E-2,6.9505817E-1,-2.40687E-2,1.4018407E-1,5.450893E-1,4.701613E-2,-2.4520682E-2,2.5431057E-2,1.0551727E-1,3.9210528E-1,4.6097565E-1,3.6015626E-2,-1.2489777E-3,-8.5937383E-4,2.8E-2,-1.1342581E-3,2.6785716E-2,4.1187066E-3,7.500001E-3,3.1666666E-2,2.4294874E-2,-0E0],"categories":[],"categories_nodes":[],"categories_segments":[],"categories_sizes":[],"default_left":[0,0,0,0,0,0,0,0,0,0,0,0,0,0,0,0,0,0,0,0,0,0,0],"id":8,"left_children":[1,3,5,7,9,11,-1,13,15,17,19,21,-1,-1,-1,-1,-1,-1,-1,-1,-1,-1,-1],"loss_changes":[4.343078E1,4.294836E0,2.5021515E0,1.476798E-1,1.3323922E0,3.7519073E-1,0E0,1.7293692E-2,1.5582786E0,1.3376982E0,9.363158E-1,4.9531746E-1,0E0,0E0,0E0,0E0,0E0,0E0,0E0,0E0,0E0,0E0,0E0],"parents":[2147483647,0,0,1,1,2,2,3,3,4,4,5,5,7,7,8,8,9,9,10,10,11,11],"right_children":[2,4,6,8,10,12,-1,14,16,18,20,22,-1,-1,-1,-1,-1,-1,-1,-1,-1,-1,-1],"split_conditions":[4.804441E2,4.489396E2,5.2601404E2,4.370434E2,2.3E1,2.2E1,3.425612E0,4.069204E2,4.2727695E2,4.2908704E2,4.6259686E2,5.0466135E2,1.3817765E0,-2.3888092E0,-2.687442E-1,7.602631E-1,-2.109374E-2,1.3315979E0,1.22219555E-1,2.9578707E-1,9.6357423E-1,2.5507553E0,-1.0655212E-2],"split_indices":[4,4,0,4,6,6,0,4,0,1,4,3,0,0,0,0,0,0,0,0,0,0,0],"split_type":[0,0,0,0,0,0,0,0,0,0,0,0,0,0,0,0,0,0,0,0,0,0,0],"sum_hessian":[6.823E3,6.738E3,8.5E1,6.576E3,1.62E2,5.5E1,3E1,6.519E3,5.7E1,1.44E2,1.8E1,4E1,1.5E1,6.12E3,3.99E2,4E0,5.3E1,6E0,1.38E2,1E1,8E0,3.8E1,2E0],"tree_param":{"num_deleted":"0","num_feature":"8","num_nodes":"23","size_leaf_vector":"1"}},{"base_weights":[-1.2327081E-2,-1.9192494E-2,7.5708336E-1,-2.3465188E-2,1.8014187E-1,5.24138E-1,4.7070313E-2,-2.4366044E-2,4.0109914E-2,1.3596156E-1,6.354167E-1,-0E0,5.8750004E-1,-1.2490321E-3,3.3139547E-3,-5.9592904E-4,3.979167E-2,4.752157E-3,2.1833336E-2,-0E0,3.8375E-2,1.659091E-2,3.6015626E-2],"categories":[],"categories_nodes":[],"categories_segments":[],"categories_sizes":[],"default_left":[0,0,0,0,0,0,0,0,0,0,0,0,0,0,0,0,0,0,0,0,0,0,0],"id":9,"left_children":[1,3,5,7,9,11,-1,13,15,17,19,-1,21,-1,-1,-1,-1,-1,-1,-1,-1,-1,-1],"loss_changes":[3.5839397E1,5.726425E0,1.9362526E0,3.772261E-1,2.6725693E0,1.0071654E0,0E0,3.6003327E-1,3.6659198E0,1.5048966E0,1.0455108E0,0E0,5.3867626E-1,0E0,0E0,0E0,0E0,0E0,0E0,0E0,0E0,0E0,0E0],"parents":[2147483647,0,0,1,1,2,2,3,3,4,4,5,5,7,7,8,8,9,9,10,10,12,12],"right_children":[2,4,6,8,10,12,-1,14,16,18,20,-1,22,-1,-1,-1,-1,-1,-1,-1,-1,-1,-1],"split_conditions":[4.950504E2,4.588238E2,5.2601404E2,2.8784704E1,1.8455145E1,2.6959562E0,3.3378494E0,4.4963745E2,3.8753113E2,2.3E1,4.6263693E2,-6.3250735E-2,4.924883E2,-1.2119273E0,2.6537052E-1,-8.260431E-2,1.5279068E0,2.9935384E-1,4.2495728E-1,-5.2279662E-2,2.4232178E0,1.0306839E0,1.635492E0],"split_indices":[0,0,0,5,5,5,0,2,1,6,0,0,1,0,0,0,0,0,0,0,0,0,0],"split_type":[0,0,0,0,0,0,0,0,0,0,0,0,0,0,0,0,0,0,0,0,0,0,0],"sum_hessian":[6.795E3,6.736E3,5.9E1,6.596E3,1.4E2,2.8E1,3.1E1,6.506E3,9E1,1.29E2,1.1E1,3E0,2.5E1,6.464E3,4.2E1,8.5E1,5E0,1.15E2,1.4E1,2E0,9E0,1E1,1.5E1],"tree_param":{"num_deleted":"0","num_feature":"8","num_nodes":"23","size_leaf_vector":"1"}},{"base_weights":[-1.1215933E-2,-1.7671168E-2,7.884259E-1,-2.4057234E-2,1.8236718E-1,1.6000003E-1,8.335E-1,-2.4670467E-2,5.5102065E-2,1.1671055E-1,8.5972226E-1,-0E0,2.1875E-2,3.9285716E-1,4.411932E-2,-1.2490185E-3,3.333451E-5,-1.1079534E-3,3.1458333E-2,1.9715459E-3,1.2665442E-2,-0E0,4.5588236E-2,-0E0,2.8E-2],"categories":[],"categories_nodes":[],"categories_segments":[],"categories_sizes":[],"default_left":[0,0,0,0,0,0,0,0,0,0,0,0,0,0,0,0,0,0,0,0,0,0,0,0,0],"id":10,"left_children":[1,3,5,7,9,11,13,15,17,19,21,-1,-1,23,-1,-1,-1,-1,-1,-1,-1,-1,-1,-1,-1],"loss_changes":[3.4810497E1,8.551356E0,1.2968788E0,3.1370187E-1,9.007898E0,2.5481248E-1,6.028938E-1,5.3085566E-2,2.2479336E0,1.9664283E0,8.281517E-1,0E0,0E0,4.8764277E-1,0E0,0E0,0E0,0E0,0E0,0E0,0E0,0E0,0E0,0E0,0E0],"parents":[2147483647,0,0,1,1,2,2,3,3,4,4,5,5,6,6,7,7,8,8,9,9,10,10,13,13],"right_children":[2,4,6,8,10,12,14,16,18,20,22,-1,-1,24,-1,-1,-1,-1,-1,-1,-1,-1,-1,-1,-1],"split_conditions":[4.9427112E2,4.4298752E2,2.6959562E0,4.000334E1,2.0529995E1,5.2601404E2,4.924883E2,4.3151215E2,3.54673E2,1.0216331E1,4.082141E2,-2.1258698E-1,2.5624664E0,8.319477E0,2.9408863E0,-1.4548441E0,3.2146078E-2,-1.0617796E0,6.458557E-1,6.864918E-2,3.4298506E-1,-2.7815858E-1,2.302057E0,-3.1747285E-1,9.791504E-1],"split_indices":[4,4,5,5,5,0,1,4,1,5,1,0,0,5,0,0,0,0,0,0,0,0,0,0,0],"split_type":[0,0,0,0,0,0,0,0,0,0,0,0,0,0,0,0,0,0,0,0,0,0,0,0,0],"sum_hessian":[6.755E3,6.702E3,5.3E1,6.496E3,2.06E2,4E0,4.9E1,6.448E3,4.8E1,1.89E2,1.7E1,3E0,1E0,6E0,4.3E1,6.374E3,7.4E1,4.3E1,5E0,1.22E2,6.7E1,1E0,1.6E1,2E0,4E0],"tree_param":{"num_deleted":"0","num_feature":"8","num_nodes":"25","size_leaf_vector":"1"}},{"base_weights":[-1.140219E-2,-1.7834252E-2,7.0708334E-1,-2.2380674E-2,1.4776538E-1,4.391667E-1,4.701613E-2,-2.4358252E-2,9.144147E-2,-8.5224916E-4,2.894022E-1,4.2031255E-2,2.76087E-1,-1.2256722E-3,6.4583346E-3,-6.6406134E-4,3.6015626E-2,-1.1666655E-3,5.625001E-3,8.556339E-3,3.2670457E-2,8.562501E-3,3.53125E-2],"categories":[],"categories_nodes":[],"categories_segments":[],"categories_sizes":[],"default_left":[0,0,0,0,0,0,0,0,0,0,0,0,0,0,0,0,0,0,0,0,0,0,0],"id":11,"left_children":[1,3,5,7,9,11,-1,13,15,17,19,-1,21,-1,-1,-1,-1,-1,-1,-1,-1,-1,-1],"loss_changes":[3.1253288E1,5.0471487E0,3.1984138E0,1.4671719E0,3.797003E0,1.6203346E0,0E0,1.4585233E-1,7.3904047E0,2.179569E-1,3.7666125E0,0E0,8.2853544E-1,0E0,0E0,0E0,0E0,0E0,0E0,0E0,0E0,0E0,0E0],"parents":[2147483647,0,0,1,1,2,2,3,3,4,4,5,5,7,7,8,8,9,9,10,10,12,12],"right_children":[2,4,6,8,10,12,-1,14,16,18,20,-1,22,-1,-1,-1,-1,-1,-1,-1,-1,-1,-1],"split_conditions":[4.924883E2,4.440748E2,5.190178E2,2.8784704E1,7.7954125E0,1.7E1,3.0239122E0,4.5200214E2,3.827982E2,4.743996E2,2.2E1,1.9140732E0,5.1058826E2,-1.0808468E0,4.2207338E-2,-1.24794066E-1,1.336409E0,-1.6692908E-2,6.668549E-2,1.2091484E0,9.301926E-1,6.022827E-1,1.916893E0],"split_indices":[1,1,1,5,5,6,0,3,1,2,6,0,2,0,0,0,0,0,0,0,0,0,0],"split_type":[0,0,0,0,0,0,0,0,0,0,0,0,0,0,0,0,0,0,0,0,0,0,0],"sum_hessian":[6.774E3,6.715E3,5.9E1,6.537E3,1.78E2,2.9E1,3E1,6.427E3,1.1E2,8.7E1,9.1E1,7E0,2.2E1,6.422E3,5E0,9.5E1,1.5E1,7.4E1,1.3E1,7E1,2.1E1,1.9E1,3E0],"tree_param":{"num_deleted":"0","num_feature":"8","num_nodes":"23","size_leaf_vector":"1"}},{"base_weights":[-1.3367368E-2,-2.081284E-2,5.671512E-1,-2.4211636E-2,8.064519E-2,3.9041668E-1,4.675926E-2,-2.4670824E-2,3.858698E-2,9.4476985E-3,3.4293482E-1,2.8593752E-1,3.6923077E-2,-1.2490227E-3,5.324086E-4,-1.1011893E-3,2.8E-2,-4.6296182E-4,3.914475E-3,1.990625E-2,-3.5714183E-4,1.1164774E-2,3.8E-2],"categories":[],"categories_nodes":[],"categories_segments":[],"categories_sizes":[],"default_left":[0,0,0,0,0,0,0,0,0,0,0,0,0,0,0,0,0,0,0,0,0,0,0],"id":12,"left_children":[1,3,5,7,9,11,-1,13,15,17,19,21,-1,-1,-1,-1,-1,-1,-1,-1,-1,-1,-1],"loss_changes":[2.9357006E1,2.3125668E0,5.096142E0,1.8702626E-1,4.013859E0,1.8682117E0,0E0,7.2300434E-2,1.5198802E0,2.2913277E-1,9.3070126E-1,1.1573858E0,0E0,0E0,0E0,0E0,0E0,0E0,0E0,0E0,0E0,0E0,0E0],"parents":[2147483647,0,0,1,1,2,2,3,3,4,4,5,5,7,7,8,8,9,9,10,10,11,11],"right_children":[2,4,6,8,10,12,-1,14,16,18,20,22,-1,-1,-1,-1,-1,-1,-1,-1,-1,-1,-1],"split_conditions":[4.804441E2,4.370434E2,5.2601404E2,4.000334E1,1.4158709E1,1.403971E1,2.7891998E0,4.3151215E2,3.6611902E2,1.0495216E1,4.5970114E2,5.190178E2,2.126497E0,-1.3786476E0,4.533235E-2,-1.2178802E-1,2.6957247E-1,-3.052114E-3,4.0385436E-2,6.3262177E-1,-5.462784E-1,8.699202E-1,1.0516891E0],"split_indices":[4,4,0,5,5,5,0,4,1,5,1,1,0,0,0,0,0,0,0,0,0,0,0],"split_type":[0,0,0,0,0,0,0,0,0,0,0,0,0,0,0,0,0,0,0,0,0,0,0],"sum_hessian":[6.801E3,6.716E3,8.5E1,6.5E3,2.16E2,5.9E1,2.6E1,6.455E3,4.5E1,1.71E2,4.5E1,4.7E1,1.2E1,6.402E3,5.3E1,4.1E1,4E0,1.34E2,3.7E1,3.9E1,6E0,4.3E1,4E0],"tree_param":{"num_deleted":"0","num_feature":"8","num_nodes":"23","size_leaf_vector":"1"}},{"base_weights":[-1.4113649E-2,-1.8051436E-2,4.683036E-2,-2.346169E-2,1.5870649E-1,-2.4670672E-2,3.596156E-2,8.106511E-2,5.4848486E-1,-1.2490195E-3,8.680674E-5,-0E0,3.3928573E-2,1.8926067E-3,1.4687501E-2,1.8152175E-2,4.3863636E-2],"categories":[],"categories_nodes":[],"categories_segments":[],"categories_sizes":[],"default_left":[0,0,0,0,0,0,0,0,0,0,0,0,0,0,0,0,0],"id":13,"left_children":[1,3,-1,5,7,9,11,13,15,-1,-1,-1,-1,-1,-1,-1,-1],"loss_changes":[2.541615E1,6.4758615E0,0E0,4.7262025E-1,5.97543E0,5.514431E-2,3.0550942E0,1.5089571E0,1.569519E0,0E0,0E0,0E0,0E0,0E0,0E0,0E0,0E0],"parents":[2147483647,0,0,1,1,3,3,4,4,5,5,6,6,7,7,8,8],"right_children":[2,4,-1,6,8,10,12,14,16,-1,-1,-1,-1,-1,-1,-1,-1],"split_conditions":[5.2332416E2,4.5379428E2,2.733258E0,4.3151215E2,1.4617909E1,3.5352818E1,2.2631742E1,4.9427112E2,2.0529995E1,-1.3195599E0,6.446778E-2,1.5853787E-2,9.750687E-1,6.0840733E-2,1.0358781E0,1.1491517E0,2.020172E0],"split_indices":[4,4,0,4,5,5,5,4,5,0,0,0,0,0,0,0,0],"split_type":[0,0,0,0,0,0,0,0,0,0,0,0,0,0,0,0,0],"sum_hessian":[6.808E3,6.781E3,2.7E1,6.581E3,2E2,6.452E3,1.29E2,1.68E2,3.2E1,6.381E3,7.1E1,1.23E2,6E0,1.41E2,2.7E1,2.2E1,1E1],"tree_param":{"num_deleted":"0","num_feature":"8","num_nodes":"17","size_leaf_vector":"1"}},{"base_weights":[-1.5220693E-2,-1.92766E-2,4.6896555E-2,-2.318404E-2,1.4328128E-1,-2.451906E-2,2.4583356E-2,9.3708634E-2,4.3375E-2,-1.2413115E-3,2.7604178E-3,-2.9584615E-5,1.9270835E-2,4.0939613E-3,3.0833334E-2],"categories":[],"categories_nodes":[],"categories_segments":[],"categories_sizes":[],"default_left":[0,0,0,0,0,0,0,0,0,0,0,0,0,0,0],"id":14,"left_children":[1,3,-1,5,7,9,11,13,-1,-1,-1,-1,-1,-1,-1],"loss_changes":[2.6461716E1,4.333439E0,0E0,4.2639112E-1,5.566817E0,1.5746856E-1,1.6738299E0,8.137826E-1,0E0,0E0,0E0,0E0,0E0,0E0,0E0],"parents":[2147483647,0,0,1,1,3,3,4,4,5,5,6,6,7,7],"right_children":[2,4,-1,6,8,10,12,14,-1,-1,-1,-1,-1,-1,-1],"split_conditions":[5.1058826E2,4.5866315E2,2.5965943E0,4.2900082E2,2.0529995E1,4.5106155E1,2.2631742E1,5.190178E2,1.9191636E0,-1.2986008E0,2.5287172E-1,4.141879E-3,4.6635896E-1,3.1111532E-1,1.8138733E0],"split_indices":[2,4,0,4,5,5,5,1,0,0,0,0,0,0,0],"split_type":[0,0,0,0,0,0,0,0,0,0,0,0,0,0,0],"sum_hessian":[6.863E3,6.835E3,2.8E1,6.676E3,1.59E2,6.497E3,1.79E2,1.5E2,9E0,6.474E3,2.3E1,1.68E2,1.1E1,1.48E2,2E0],"tree_param":{"num_deleted":"0","num_feature":"8","num_nodes":"15","size_leaf_vector":"1"}},{"base_weights":[-1.5080514E-2,-1.9784683E-2,4.7121212E-2,-2.361698E-2,1.6286235E-1,-2.4511848E-2,5.076166E-3,1.0722659E-1,7.8636366E-1,-1.2490124E-3,9.32837E-4,-9.210515E-4,7.870371E-3,3.141594E-3,2.0390628E-2,-0E0,4.3375E-2],"categories":[],"categories_nodes":[],"categories_segments":[],"categories_sizes":[],"default_left":[0,0,0,0,0,0,0,0,0,0,0,0,0,0,0,0,0],"id":15,"left_children":[1,3,-1,5,7,9,11,13,15,-1,-1,-1,-1,-1,-1,-1,-1],"loss_changes":[3.0406738E1,4.7041383E0,0E0,1.7148185E-1,4.6133995E0,1.3054776E-1,7.219317E-1,1.6353981E0,7.235174E-1,0E0,0E0,0E0,0E0,0E0,0E0,0E0,0E0],"parents":[2147483647,0,0,1,1,3,3,4,4,5,5,6,6,7,7,8,8],"right_children":[2,4,-1,6,8,10,12,14,16,-1,-1,-1,-1,-1,-1,-1,-1],"split_conditions":[5.190178E2,4.6259686E2,2.4667633E0,4.3151215E2,2.0529995E1,3.5352818E1,1.5707885E1,2.3E1,1.2E1,-1.2027978E0,8.0484234E-2,-1.8906089E-2,5.0964355E-2,5.890961E-1,1.415094E0,-6.8804935E-2,1.8232056E0],"split_indices":[1,4,0,4,5,5,5,6,6,0,0,0,0,0,0,0,0],"split_type":[0,0,0,0,0,0,0,0,0,0,0,0,0,0,0,0,0],"sum_hessian":[6.766E3,6.734E3,3.2E1,6.597E3,1.37E2,6.401E3,1.96E2,1.27E2,1E1,6.335E3,6.6E1,1.7E2,2.6E1,1.12E2,1.5E1,1E0,9E0],"tree_param":{"num_deleted":"0","num_feature":"8","num_nodes":"17","size_leaf_vector":"1"}},{"base_weights":[-1.5980499E-2,-1.9942923E-2,4.3625E-2,-2.1834709E-2,1.4733335E-1,-2.3002563E-2,5.1201947E-2,9.328361E-2,5.222222E-1,-1.2409028E-3,2.86728E-4,-6.578936E-4,3.3375002E-2,7.9787354E-4,1.2857144E-2,-0E0,3.979167E-2],"categories":[],"categories_nodes":[],"categories_segments":[],"categories_sizes":[],"default_left":[0,0,0,0,0,0,0,0,0,0,0,0,0,0,0,0,0],"id":16,"left_children":[1,3,-1,5,7,9,11,13,15,-1,-1,-1,-1,-1,-1,-1,-1],"loss_changes":[2.3790817E1,2.1260777E0,0E0,5.6762505E-1,1.4094334E0,3.448732E-1,4.19936E0,8.175172E-1,1.3456597E0,0E0,0E0,0E0,0E0,0E0,0E0,0E0,0E0],"parents":[2147483647,0,0,1,1,3,3,4,4,5,5,6,6,7,7,8,8],"right_children":[2,4,-1,6,8,10,12,14,16,-1,-1,-1,-1,-1,-1,-1,-1],"split_conditions":[5.2601404E2,4.7417062E2,2.3434265E0,2.8784704E1,2.0529995E1,4.1857593E2,3.833236E2,4.924883E2,4.3466147E2,-1.448953E0,9.470219E-3,-2.22182E-2,9.4983065E-1,1.04895465E-1,8.247986E-1,-3.894043E-3,6.5290684E-1],"split_indices":[0,0,0,5,5,0,2,1,2,0,0,0,0,0,0,0,0],"split_type":[0,0,0,0,0,0,0,0,0,0,0,0,0,0,0,0,0],"sum_hessian":[6.776E3,6.747E3,2.9E1,6.673E3,7.4E1,6.57E3,1.03E2,6.6E1,8E0,6.183E3,3.87E2,9.4E1,9E0,4.6E1,2E1,3E0,5E0],"tree_param":{"num_deleted":"0","num_feature":"8","num_nodes":"17","size_leaf_vector":"1"}},{"base_weights":[-1.5797636E-2,-1.9923363E-2,4.529167E-2,-2.1396002E-2,3.172414E-1,-2.2562703E-2,7.531648E-2,2.2187503E-1,3.1458333E-2,-1.1873445E-3,1.7293245E-3,9.32837E-4,1.7692309E-2,7.6704556E-3,3.0833334E-2],"categories":[],"categories_nodes":[],"categories_segments":[],"categories_sizes":[],"default_left":[0,0,0,0,0,0,0,0,0,0,0,0,0,0,0],"id":17,"left_children":[1,3,-1,5,7,9,11,13,-1,-1,-1,-1,-1,-1,-1],"loss_changes":[2.5599442E1,3.3148272E0,0E0,7.517381E-1,6.3796735E-1,4.4747806E-1,1.2028801E0,4.7710466E-1,0E0,0E0,0E0,0E0,0E0,0E0,0E0],"parents":[2147483647,0,0,1,1,3,3,4,4,5,5,6,6,7,7],"right_children":[2,4,-1,6,8,10,12,14,-1,-1,-1,-1,-1,-1,-1],"split_conditions":[5.2601404E2,4.950504E2,2.2262542E0,4.6251425E2,5.190178E2,2.5472252E1,1.403971E1,5.1058826E2,8.364258E-1,-6.1888665E-1,2.8920275E-1,1.9635697E-1,6.200058E-1,7.0242465E-1,7.835571E-1],"split_indices":[0,0,0,2,1,5,5,2,0,0,0,0,0,0,0],"split_type":[0,0,0,0,0,0,0,0,0,0,0,0,0,0,0],"sum_hessian":[6.75E3,6.721E3,2.9E1,6.693E3,2.8E1,6.615E3,7.8E1,2.3E1,5E0,6.483E3,1.32E2,6.6E1,1.2E1,2.1E1,2E0],"tree_param":{"num_deleted":"0","num_feature":"8","num_nodes":"15","size_leaf_vector":"1"}},{"base_weights":[-1.6075315E-2,-1.9849682E-2,4.1958336E-2,-2.3608122E-2,7.2830215E-2,-2.4359945E-2,1.8973239E-2,1.7945208E-1,3.1606242E-2,-1.2489535E-3,-8.0835E-4,1.3235295E-2,-1.1848946E-3,6.6269855E-3,2.1136364E-2,1.0986854E-3,2.28125E-2],"categories":[],"categories_nodes":[],"categories_segments":[],"categories_sizes":[],"default_left":[0,0,0,0,0,0,0,0,0,0,0,0,0,0,0,0,0],"id":18,"left_children":[1,3,-1,5,7,9,11,13,15,-1,-1,-1,-1,-1,-1,-1,-1],"loss_changes":[2.2043278E1,2.3724196E0,0E0,2.1088243E-1,1.137997E0,2.8173923E-2,1.2047712E0,7.215662E-1,7.3159844E-1,0E0,0E0,0E0,0E0,0E0,0E0,0E0,0E0],"parents":[2147483647,0,0,1,1,3,3,4,4,5,5,6,6,7,7,8,8],"right_children":[2,4,-1,6,8,10,12,14,16,-1,-1,-1,-1,-1,-1,-1,-1],"split_conditions":[5.190178E2,4.370434E2,2.1149414E0,4.2702014E2,1.6E1,3.9854376E2,4.1749042E2,4.7364935E2,5.1058826E2,-2.2207196E0,-1.7340194E-1,8.7155156E-2,-1.23918705E-1,4.677424E-1,1.1266419E0,3.791069E-1,7.443787E-1],"split_indices":[1,4,0,4,6,4,1,4,2,0,0,0,0,0,0,0,0],"split_type":[0,0,0,0,0,0,0,0,0,0,0,0,0,0,0,0,0],"sum_hessian":[6.848E3,6.819E3,2.9E1,6.555E3,2.64E2,6.444E3,1.11E2,7.2E1,1.92E2,5.978E3,4.66E2,1.6E1,9.5E1,6.2E1,1E1,1.89E2,3E0],"tree_param":{"num_deleted":"0","num_feature":"8","num_nodes":"17","size_leaf_vector":"1"}},{"base_weights":[-1.7001601E-2,-2.0382708E-2,4.1203704E-2,-2.213995E-2,1.9181821E-1,-2.4353018E-2,2.2836562E-2,8.953491E-2,5.0769234E-1,-1.2410118E-3,-0E0,-8.316917E-4,9.703391E-3,1.2179499E-3,2.8E-2,2.7604168E-2,-0E0],"categories":[],"categories_nodes":[],"categories_segments":[],"categories_sizes":[],"default_left":[0,0,0,0,0,0,0,0,0,0,0,0,0,0,0,0,0],"id":19,"left_children":[1,3,-1,5,7,9,11,13,15,-1,-1,-1,-1,-1,-1,-1,-1],"loss_changes":[1.9180199E1,2.5009174E0,0E0,6.66306E-1,1.6717966E0,7.440829E-2,2.1296442E0,1.2464316E0,3.0678296E-1,0E0,0E0,0E0,0E0,0E0,0E0,0E0,0E0],"parents":[2147483647,0,0,1,1,3,3,4,4,5,5,6,6,7,7,8,8],"right_children":[2,4,-1,6,8,10,12,14,16,-1,-1,-1,-1,-1,-1,-1,-1],"split_conditions":[5.2332416E2,4.804441E2,1.9256775E0,4.2702014E2,1.2449135E1,2.5472252E1,1.3947724E1,5.1058826E2,5.2601404E2,-1.1076487E0,6.472482E-2,-3.6580447E-2,6.246611E-1,5.0787354E-1,7.0715946E-1,1.6511368E0,-3.4158327E-2],"split_indices":[4,4,0,4,5,5,5,2,0,0,0,0,0,0,0,0,0],"split_type":[0,0,0,0,0,0,0,0,0,0,0,0,0,0,0,0,0],"sum_hessian":[6.766E3,6.74E3,2.6E1,6.686E3,5.4E1,6.375E3,3.11E2,4.2E1,1.2E1,6.258E3,1.17E2,2.53E2,5.8E1,3.8E1,4E0,1.1E1,1E0],"tree_param":{"num_deleted":"0","num_feature":"8","num_nodes":"17","size_leaf_vector":"1"}},{"base_weights":[-1.6709724E-2,-2.0086745E-2,3.8275864E-2,-2.1692801E-2,1.811321E-1,-2.4339024E-2,1.4833357E-2,9.8437525E-2,3.979167E-2,-1.2489788E-3,4.5652292E-4,-8.5937383E-4,1.3382355E-2,3.1111124E-3,2.28125E-2],"categories":[],"categories_nodes":[],"categories_segments":[],"categories_sizes":[],"default_left":[0,0,0,0,0,0,0,0,0,0,0,0,0,0,0],"id":20,"left_children":[1,3,-1,5,7,9,11,13,-1,-1,-1,-1,-1,-1,-1],"loss_changes":[1.7824442E1,2.1667883E0,0E0,6.479428E-1,2.5263531E0,1.356132E-1,3.6725338E0,5.4176116E-1,0E0,0E0,0E0,0E0,0E0,0E0,0E0],"parents":[2147483647,0,0,1,1,3,3,4,4,5,5,6,6,7,7],"right_children":[2,4,-1,6,8,10,12,14,-1,-1,-1,-1,-1,-1,-1],"split_conditions":[5.2332416E2,4.804441E2,1.912912E0,4.1597894E2,2.0529995E1,2.5472252E1,1.6742569E1,5.1058826E2,1.5685791E0,-1.3599304E0,4.339014E-2,-4.0632498E-2,8.19678E-1,5.9656614E-1,6.7180175E-1],"split_indices":[4,4,0,4,5,5,5,2,0,0,0,0,0,0,0],"split_type":[0,0,0,0,0,0,0,0,0,0,0,0,0,0,0],"sum_hessian":[6.769E3,6.741E3,2.8E1,6.689E3,5.2E1,6.24E3,4.49E2,4.7E1,5E0,6.126E3,1.14E2,3.99E2,5E1,4.4E1,3E0],"tree_param":{"num_deleted":"0","num_feature":"8","num_nodes":"15","size_leaf_vector":"1"}},{"base_weights":[-1.864966E-2,-2.1435408E-2,7.635417E-1,-2.2458797E-2,2.0583336E-1,-0E0,3.9891306E-2,-2.3628827E-2,6.8235315E-2,5.8695674E-2,5.9062505E-1,-1.2182583E-3,3.085455E-4,-5.0986727E-4,3.3375002E-2,1.2500002E-2,-8.823518E-4,-0E0,3.3928573E-2],"categories":[],"categories_nodes":[],"categories_segments":[],"categories_sizes":[],"default_left":[0,0,0,0,0,0,0,0,0,0,0,0,0,0,0,0,0,0,0],"id":21,"left_children":[1,3,5,7,9,-1,-1,11,13,15,17,-1,-1,-1,-1,-1,-1,-1,-1],"loss_changes":[1.4739662E1,1.5604181E0,6.482086E-1,7.122586E-1,1.5989213E0,0E0,0E0,1.4799857E-1,4.0677013E0,3.6355498E-1,4.3251133E-1,0E0,0E0,0E0,0E0,0E0,0E0,0E0,0E0],"parents":[2147483647,0,0,1,1,2,2,3,3,4,4,7,7,8,8,9,9,10,10],"right_children":[2,4,6,8,10,-1,-1,12,14,16,18,-1,-1,-1,-1,-1,-1,-1,-1],"split_conditions":[5.1058826E2,4.950504E2,4.8196805E2,3.5352818E1,1.2449135E1,-1.9976807E-1,1.7337494E0,4.528238E2,3.8863794E2,1.7E1,4.188816E2,-6.8788767E-1,1.5911046E-2,-5.3565033E-2,1.4901489E0,6.0316163E-1,-1.16894536E-1,-1.2246612E0,8.783814E-1],"split_indices":[2,0,0,5,5,0,0,0,2,6,2,0,0,0,0,0,0,0,0],"split_type":[0,0,0,0,0,0,0,0,0,0,0,0,0,0,0,0,0,0,0],"sum_hessian":[6.79E3,6.767E3,2.3E1,6.738E3,2.9E1,1E0,2.2E1,6.654E3,8.4E1,2.2E1,7E0,6.497E3,1.57E2,7.5E1,9E0,6E0,1.6E1,1E0,6E0],"tree_param":{"num_deleted":"0","num_feature":"8","num_nodes":"19","size_leaf_vector":"1"}},{"base_weights":[-1.6861042E-2,-2.0237189E-2,3.8275864E-2,-2.1113483E-2,2.2187503E-1,-2.4494885E-2,1.7770546E-2,8.1944466E-2,5.357143E-1,-1.2489673E-3,-3.8758506E-5,-2.1472274E-4,1.2213543E-2,1.4166668E-2,1.6406261E-3,-0E0,3.1458333E-2],"categories":[],"categories_nodes":[],"categories_segments":[],"categories_sizes":[],"default_left":[0,0,0,0,0,0,0,0,0,0,0,0,0,0,0,0,0],"id":22,"left_children":[1,3,-1,5,7,9,11,13,15,-1,-1,-1,-1,-1,-1,-1,-1],"loss_changes":[1.783133E1,1.4156392E0,0E0,8.8493276E-1,9.483124E-1,6.850171E-2,2.7038298E0,1.3719183E-1,3.661754E-1,0E0,0E0,0E0,0E0,0E0,0E0,0E0,0E0],"parents":[2147483647,0,0,1,1,3,3,4,4,5,5,6,6,7,7,8,8],"right_children":[2,4,-1,6,8,10,12,14,16,-1,-1,-1,-1,-1,-1,-1,-1],"split_conditions":[5.2332416E2,4.9427112E2,1.7305787E0,4.1200012E2,1.1970429E1,2.384164E1,1.8177464E1,4.398387E2,4.8196805E2,-1.3819404E0,3.1440575E-3,-7.690982E-3,1.2760665E0,4.224945E-1,5.5152285E-1,-3.0704805E-1,5.325562E-1],"split_indices":[4,4,0,4,5,5,5,3,0,0,0,0,0,0,0,0,0],"split_type":[0,0,0,0,0,0,0,0,0,0,0,0,0,0,0,0,0],"sum_hessian":[6.772E3,6.744E3,2.8E1,6.721E3,2.3E1,6.186E3,5.35E2,1.7E1,6E0,6.058E3,1.28E2,4.88E2,4.7E1,2E0,1.5E1,1E0,5E0],"tree_param":{"num_deleted":"0","num_feature":"8","num_nodes":"17","size_leaf_vector":"1"}},{"base_weights":[-1.7085807E-2,-2.042882E-2,7.1451616E-1,-2.3906346E-2,5.6101717E-2,-0E0,3.6958333E-2,-2.4666015E-2,7.1895663E-3,1.25000235E-2,2.3232761E-1,-1.248984E-3,-7.3170615E-4,-8.5937383E-4,1.8375E-2,2.2340546E-4,2.28125E-2,2.3375003E-2,8.877552E-3],"categories":[],"categories_nodes":[],"categories_segments":[],"categories_sizes":[],"default_left":[0,0,0,0,0,0,0,0,0,0,0,0,0,0,0,0,0,0,0],"id":23,"left_children":[1,3,5,7,9,-1,-1,11,13,15,17,-1,-1,-1,-1,-1,-1,-1,-1],"loss_changes":[1.6671705E1,1.8102479E0,5.644884E-1,1.5582633E-1,2.2393188E0,0E0,0E0,1.5695095E-2,1.3851931E0,8.001602E-1,5.996418E-1,0E0,0E0,0E0,0E0,0E0,0E0,0E0,0E0],"parents":[2147483647,0,0,1,1,2,2,3,3,4,4,7,7,8,8,9,9,10,10],"right_children":[2,4,6,8,10,-1,-1,12,14,16,18,-1,-1,-1,-1,-1,-1,-1,-1],"split_conditions":[5.2332416E2,4.3435107E2,5.2601404E2,2.384164E1,1.5179678E1,-5.468262E-1,1.644049E0,4.1597894E2,3.9038843E2,5.1058826E2,4.3607132E2,-1.1986532E0,-3.3803504E-2,-8.770189E-2,4.561615E-2,1.5768839E-2,5.239472E-1,6.0458225E-1,1.2066433E0],"split_indices":[4,4,0,5,5,0,0,4,2,2,0,0,0,0,0,0,0,0,0],"split_type":[0,0,0,0,0,0,0,0,0,0,0,0,0,0,0,0,0,0,0],"sum_hessian":[6.838E3,6.808E3,3E1,6.514E3,2.94E2,1E0,2.9E1,6.362E3,1.52E2,2.37E2,5.7E1,6.158E3,2.04E2,1.43E2,9E0,2.34E2,3E0,9E0,4.8E1],"tree_param":{"num_deleted":"0","num_feature":"8","num_nodes":"19","size_leaf_vector":"1"}},{"base_weights":[-1.8930761E-2,-2.1573035E-2,5.9310347E-1,-2.260078E-2,2.2232145E-1,4.4761908E-1,4.277778E-2,-2.4818555E-2,3.6468569E-3,2.9411787E-2,4.6875003E-1,4.107143E-2,2.366667E-1,-1.2489868E-3,5.288473E-4,-8.622817E-4,3.7605055E-3,2.1875E-2,-8.593739E-4,-0E0,2.8375E-2,-3.5714183E-4,2.0555558E-2],"categories":[],"categories_nodes":[],"categories_segments":[],"categories_sizes":[],"default_left":[0,0,0,0,0,0,0,0,0,0,0,0,0,0,0,0,0,0,0,0,0,0,0],"id":24,"left_children":[1,3,5,7,9,11,-1,13,15,17,19,-1,21,-1,-1,-1,-1,-1,-1,-1,-1,-1,-1],"loss_changes":[1.0913531E1,1.6765151E0,5.94018E-1,3.934462E-1,1.2674737E0,1.3557615E0,0E0,3.7082195E-2,7.8605855E-1,3.728332E-1,5.838437E-1,0E0,6.8130153E-1,0E0,0E0,0E0,0E0,0E0,0E0,0E0,0E0,0E0,0E0],"parents":[2147483647,0,0,1,1,2,2,3,3,4,4,5,5,7,7,8,8,9,9,10,10,12,12],"right_children":[2,4,6,8,10,12,-1,14,16,18,20,-1,22,-1,-1,-1,-1,-1,-1,-1,-1,-1,-1],"split_conditions":[5.190178E2,4.9427112E2,1.1731514E1,4.1200012E2,9.178025E0,5.256981E0,1.4783295E0,4.5106155E1,1.3414661E1,4.398387E2,4.2082608E2,9.722778E-1,6.9319577E0,-1.2211431E0,4.556427E-2,-4.8936475E-2,1.22960865E-1,4.0058288E-1,-1.3941346E-1,-3.520279E-1,6.6573185E-1,-6.0653687E-2,1.561847E0],"split_indices":[1,4,5,4,5,5,0,5,5,3,3,0,5,0,0,0,0,0,0,0,0,0,0],"split_type":[0,0,0,0,0,0,0,0,0,0,0,0,0,0,0,0,0,0,0,0,0,0,0],"sum_hessian":[6.775E3,6.747E3,2.8E1,6.72E3,2.7E1,2E1,8E0,6.2E3,5.2E2,1.6E1,1.1E1,6E0,1.4E1,6.175E3,2.5E1,4.02E2,1.18E2,1E0,1.5E1,2E0,9E0,6E0,8E0],"tree_param":{"num_deleted":"0","num_feature":"8","num_nodes":"23","size_leaf_vector":"1"}},{"base_weights":[-1.7913392E-2,-2.0692818E-2,6.0583335E-1,-2.3001347E-2,5.6250025E-2,4.7159094E-1,4.277778E-2,-2.3452757E-2,9.687502E-2,-1.2094144E-3,3.4534886E-1,3.7222225E-2,2.5535718E-1,-1.248933E-3,-5.0660677E-4,1.4791667E-2,1.1842117E-3,1.1132814E-2,3.1770837E-2,3.3750013E-3,2.8E-2],"categories":[],"categories_nodes":[],"categories_segments":[],"categories_sizes":[],"default_left":[0,0,0,0,0,0,0,0,0,0,0,0,0,0,0,0,0,0,0,0,0],"id":25,"left_children":[1,3,5,7,9,11,-1,13,15,-1,17,-1,19,-1,-1,-1,-1,-1,-1,-1,-1],"loss_changes":[1.17273E1,1.1990669E0,4.69512E-1,3.5029292E-1,4.598376E0,1.0079241E0,0E0,1.292491E-1,3.1052762E-1,0E0,1.3030472E0,0E0,7.0066065E-1,0E0,0E0,0E0,0E0,0E0,0E0,0E0,0E0],"parents":[2147483647,0,0,1,1,2,2,3,3,4,4,5,5,7,7,8,8,10,10,12,12],"right_children":[2,4,6,8,10,12,-1,14,16,-1,18,-1,20,-1,-1,-1,-1,-1,-1,-1,-1],"split_conditions":[5.190178E2,2.2631742E1,1.1731514E1,4.950504E2,3.7173236E2,5.256981E0,1.387439E0,4.0287912E2,1.7E1,-9.397325E-1,4.26004E2,9.236633E-1,2.2E1,-1.5095618E0,-2.5393507E-2,5.047211E-1,7.1136476E-3,1.12680055E-1,1.2853546E0,3.2618102E-1,1.4837555E0],"split_indices":[1,5,5,0,1,5,0,0,6,0,1,0,6,0,0,0,0,0,0,0,0],"split_type":[0,0,0,0,0,0,0,0,0,0,0,0,0,0,0,0,0,0,0,0,0],"sum_hessian":[6.79E3,6.761E3,2.9E1,6.566E3,1.95E2,2.1E1,8E0,6.543E3,2.3E1,1.53E2,4.2E1,8E0,1.3E1,5.863E3,6.8E2,5E0,1.8E1,3.1E1,1.1E1,9E0,4E0],"tree_param":{"num_deleted":"0","num_feature":"8","num_nodes":"21","size_leaf_vector":"1"}},{"base_weights":[-1.8211897E-2,-2.1287654E-2,3.6116075E-2,-2.1728983E-2,5.6E-1,-2.2600422E-2,1.0666669E-1,-0E0,3.53125E-2,-1.2489756E-3,4.8940834E-5,1.1562512E-3,3.1458333E-2],"categories":[],"categories_nodes":[],"categories_segments":[],"categories_sizes":[],"default_left":[0,0,0,0,0,0,0,0,0,0,0,0,0],"id":26,"left_children":[1,3,-1,5,7,9,11,-1,-1,-1,-1,-1,-1],"loss_changes":[1.5422249E1,1.6945987E0,0E0,7.508218E-1,4.2715633E-1,3.7939692E-1,1.8844947E0,0E0,0E0,0E0,0E0,0E0,0E0],"parents":[2147483647,0,0,1,1,3,3,4,4,5,5,6,6],"right_children":[2,4,-1,6,8,10,12,-1,-1,-1,-1,-1,-1],"split_conditions":[5.2332416E2,5.1058826E2,1.4095672E0,4.804441E2,4.8196805E2,4.069204E2,2.0529995E1,-2.1187592E-1,4.7948608E-1,-1.3221134E0,5.4397853E-3,3.0230713E-1,1.2210877E0],"split_indices":[4,2,0,4,0,4,5,0,0,0,0,0,0],"split_type":[0,0,0,0,0,0,0,0,0,0,0,0,0],"sum_hessian":[6.794E3,6.767E3,2.7E1,6.763E3,4E0,6.719E3,4.4E1,1E0,3E0,6.107E3,6.12E2,3.9E1,5E0],"tree_param":{"num_deleted":"0","num_feature":"8","num_nodes":"13","size_leaf_vector":"1"}},{"base_weights":[-1.7846197E-2,-2.0740068E-2,6.1774194E-1,-2.447166E-2,3.0877811E-3,-0E0,6.391667E-1,-1.2488875E-3,-1.4297921E-2,4.157666E-4,1.0795457E-1,-0E0,3.3103447E-2,9.523821E-4,-8.5937383E-4,-9.426218E-4,2.7257064E-4,3.0833334E-2,1.0625011E-3],"categories":[],"categories_nodes":[],"categories_segments":[],"categories_sizes":[],"default_left":[0,0,0,0,0,0,0,0,0,0,0,0,0,0,0,0,0,0,0],"id":27,"left_children":[1,3,5,7,9,-1,11,-1,13,15,17,-1,-1,-1,-1,-1,-1,-1,-1],"loss_changes":[1.2583649E1,6.1013126E-1,4.2626286E-1,2.617073E-2,2.4774784E-1,0E0,4.5570183E-1,0E0,2.8276686E-2,8.628179E-2,8.9347255E-1,0E0,0E0,0E0,0E0,0E0,0E0,0E0,0E0],"parents":[2147483647,0,0,1,1,2,2,3,3,4,4,6,6,8,8,9,9,10,10],"right_children":[2,4,6,8,10,-1,12,-1,14,16,18,-1,-1,-1,-1,-1,-1,-1,-1],"split_conditions":[5.2601404E2,3.9383383E2,4.547882E2,3.7540686E2,4.924883E2,-4.0036318E-1,4.2082608E2,-2.2908857E0,3.7680927E2,1.1E1,4.4963745E2,-4.9550173E-1,1.33909E0,1.0375824E-1,-4.4333807E-1,-2.4001534E-1,8.509945E-3,3.536194E-1,1.7412415E-1],"split_indices":[0,0,1,2,1,0,3,0,2,6,2,0,0,0,0,0,0,0,0],"split_type":[0,0,0,0,0,0,0,0,0,0,0,0,0,0,0,0,0,0,0],"sum_hessian":[6.866E3,6.836E3,3E1,5.914E3,9.22E2,1E0,2.9E1,5.623E3,2.91E2,9.01E2,2.1E1,1E0,2.8E1,2E1,2.71E2,1.82E2,7.19E2,2E0,1.9E1],"tree_param":{"num_deleted":"0","num_feature":"8","num_nodes":"19","size_leaf_vector":"1"}},{"base_weights":[-1.8042203E-2,-2.0828985E-2,2.9274195E-2,-2.1843694E-2,1.1078434E-1,-1.248936E-3,7.380312E-4,4.625E-1,6.032611E-2,3.53125E-2,-1.3117165E-4,-0E0,2.8E-2,2.1875E-2,2.000001E-3],"categories":[],"categories_nodes":[],"categories_segments":[],"categories_sizes":[],"default_left":[0,0,0,0,0,0,0,0,0,0,0,0,0,0,0],"id":28,"left_children":[1,3,-1,5,7,-1,9,11,13,-1,-1,-1,-1,-1,-1],"loss_changes":[1.1347206E1,8.9404845E-1,0E0,4.76269E-1,8.24911E-1,0E0,2.0002885E0,2.8456247E-1,2.8740758E-1,0E0,0E0,0E0,0E0,0E0,0E0],"parents":[2147483647,0,0,1,1,3,3,4,4,6,6,7,7,8,8],"right_children":[2,4,-1,6,8,-1,10,12,14,-1,-1,-1,-1,-1,-1],"split_conditions":[5.2332416E2,4.804441E2,1.1976074E0,3.9706622E2,4.5695563E2,-1.644091E0,3.8300864E2,4.1269397E2,4.528238E2,1.7916718E-1,-7.67271E-3,-6.9972533E-1,1.15961E0,5.143005E-1,1.6376993E-1],"split_indices":[4,4,0,4,2,0,0,2,0,0,0,0,0,0,0],"split_type":[0,0,0,0,0,0,0,0,0,0,0,0,0,0,0],"sum_hessian":[6.772E3,6.742E3,3E1,6.692E3,5E1,5.88E3,8.12E2,5E0,4.5E1,3E0,8.09E2,1E0,4E0,1E0,4.4E1],"tree_param":{"num_deleted":"0","num_feature":"8","num_nodes":"15","size_leaf_vector":"1"}},{"base_weights":[-1.7594894E-2,-2.0679401E-2,3.4827586E-2,-2.1843694E-2,1.3673472E-1,-2.2863708E-2,5.9451245E-2,6.4204566E-2,6.2916666E-1,-1.2407044E-3,-8.021271E-5,-1.158087E-3,2.1833336E-2,1.1562512E-3,1.8000001E-2,3.8E-2,-0E0],"categories":[],"categories_nodes":[],"categories_segments":[],"categories_sizes":[],"default_left":[0,0,0,0,0,0,0,0,0,0,0,0,0,0,0,0,0],"id":29,"left_children":[1,3,-1,5,7,9,11,13,15,-1,-1,-1,-1,-1,-1,-1,-1],"loss_changes":[1.4857502E1,1.2269623E0,0E0,5.526979E-1,1.6403594E0,2.714784E-1,2.6068218E0,4.8801276E-1,5.128958E-1,0E0,0E0,0E0,0E0,0E0,0E0,0E0,0E0],"parents":[2147483647,0,0,1,1,3,3,4,4,5,5,6,6,7,7,8,8],"right_children":[2,4,-1,6,8,10,12,14,16,-1,-1,-1,-1,-1,-1,-1,-1],"split_conditions":[5.2332416E2,4.804441E2,1.2122529E0,3.5352818E1,2.0529995E1,4.095604E2,3.6713544E2,5.1058826E2,4.6533456E2,-1.1049459E0,-1.6432028E-3,-5.0201184E-1,5.2290344E-1,2.7795717E-1,4.3861696E-1,1.1016296E0,-3.885315E-1],"split_indices":[4,4,0,5,5,4,3,2,3,0,0,0,0,0,0,0,0],"split_type":[0,0,0,0,0,0,0,0,0,0,0,0,0,0,0,0,0],"sum_hessian":[6.768E3,6.74E3,2.8E1,6.692E3,4.8E1,6.611E3,8.1E1,4.3E1,5E0,6.051E3,5.6E2,6.7E1,1.4E1,3.9E1,4E0,4E0,1E0],"tree_param":{"num_deleted":"0","num_feature":"8","num_nodes":"17","size_leaf_vector":"1"}},{"base_weights":[-1.8863779E-2,-2.0886932E-2,4.7232145E-1,-2.2022024E-2,7.283953E-2,3.2125002E-1,3.7222225E-2,-2.2604344E-2,1.1517859E-1,-1.153845E-3,4.411765E-1,3.8235298E-1,-0E0,-1.2489308E-3,-3.3380566E-4,3.0833334E-2,2.4519244E-3,3.1770837E-2,-2.0833232E-4,-0E0,2.0390628E-2],"categories":[],"categories_nodes":[],"categories_segments":[],"categories_sizes":[],"default_left":[0,0,0,0,0,0,0,0,0,0,0,0,0,0,0,0,0,0,0,0,0],"id":30,"left_children":[1,3,5,7,9,11,-1,13,15,-1,17,19,-1,-1,-1,-1,-1,-1,-1,-1,-1],"loss_changes":[6.786768E0,7.24005E-1,8.053584E-1,5.332744E-1,2.9136858E0,4.2126274E-1,0E0,2.5122023E-1,8.3190644E-1,0E0,1.5363324E0,1.7568254E-1,0E0,0E0,0E0,0E0,0E0,0E0,0E0,0E0,0E0],"parents":[2147483647,0,0,1,1,2,2,3,3,4,4,5,5,7,7,8,8,10,10,11,11],"right_children":[2,4,6,8,10,12,-1,14,16,-1,18,20,-1,-1,-1,-1,-1,-1,-1,-1,-1],"split_conditions":[5.190178E2,3.5352818E1,1.1731514E1,4.924883E2,3.7173236E2,9.310114E0,1.0771118E0,3.9383383E2,4.4963745E2,-5.4800606E-1,4.7417062E2,4.5695563E2,-3.6114502E-1,-1.6215187E0,-2.367856E-2,2.6405945E-1,3.3971557E-1,1.0465485E0,-4.518738E-2,-8.014526E-2,9.6187747E-1],"split_indices":[1,5,5,1,1,5,0,0,2,0,0,2,0,0,0,0,0,0,0,0,0],"split_type":[0,0,0,0,0,0,0,0,0,0,0,0,0,0,0,0,0,0,0,0,0],"sum_hessian":[6.864E3,6.837E3,2.7E1,6.757E3,8E1,1.9E1,8E0,6.73E3,2.7E1,6.4E1,1.6E1,1.6E1,3E0,5.851E3,8.79E2,2E0,2.5E1,1.1E1,5E0,1E0,1.5E1],"tree_param":{"num_deleted":"0","num_feature":"8","num_nodes":"21","size_leaf_vector":"1"}},{"base_weights":[-1.8692385E-2,-2.145583E-2,5.854839E-1,-2.2612855E-2,1.24528326E-1,-0E0,3.0291667E-2,-1.2489579E-3,-3.557157E-3,2.5657918E-2,3.4531254E-1,-9.502169E-4,7.923078E-3,1.4166668E-2,3.472338E-5,2.3375003E-2,5.357144E-3],"categories":[],"categories_nodes":[],"categories_segments":[],"categories_sizes":[],"default_left":[0,0,0,0,0,0,0,0,0,0,0,0,0,0,0,0,0],"id":31,"left_children":[1,3,5,7,9,-1,-1,-1,11,13,15,-1,-1,-1,-1,-1,-1],"loss_changes":[1.1371269E1,1.1423767E0,3.8448906E-1,3.0165052E-1,1.1109812E0,0E0,0E0,0E0,1.8711205E0,2.1583423E-1,3.5806787E-1,0E0,0E0,0E0,0E0,0E0,0E0],"parents":[2147483647,0,0,1,1,2,2,3,3,4,4,8,8,9,9,10,10],"right_children":[2,4,6,8,10,-1,-1,-1,12,14,16,-1,-1,-1,-1,-1,-1],"split_conditions":[5.2601404E2,4.804441E2,4.547882E2,3.9854376E2,1.2449135E1,-3.668457E-1,1.1035461E0,-1.3752112E0,1.7427197E1,4.4963745E2,4.8403055E2,-6.661767E-2,2.447799E-1,2.3744202E-1,3.9970094E-1,9.9421996E-1,1.2634583E-1],"split_indices":[0,4,1,4,5,0,0,0,5,2,3,0,0,0,0,0,0],"split_type":[0,0,0,0,0,0,0,0,0,0,0,0,0,0,0,0,0],"sum_hessian":[6.836E3,6.806E3,3E1,6.754E3,5.2E1,1E0,2.9E1,6.003E3,7.51E2,3.7E1,1.5E1,6.87E2,6.4E1,2E0,3.5E1,9E0,6E0],"tree_param":{"num_deleted":"0","num_feature":"8","num_nodes":"17","size_leaf_vector":"1"}},{"base_weights":[-1.8787766E-2,-2.1278856E-2,5.391667E-1,-2.3587875E-2,2.972511E-2,3.8068184E-1,4.277778E-2,-2.4660518E-2,9.113324E-3,1.4440457E-2,3.0333334E-1,3.8E-2,2.4861114E-1,-1.2489683E-3,-7.07907E-4,-1.2150826E-3,1.2600002E-2,-6.6939776E-4,3.4473694E-3,-0E0,2.1136364E-2,2.3375003E-2,-5.555545E-4],"categories":[],"categories_nodes":[],"categories_segments":[],"categories_sizes":[],"default_left":[0,0,0,0,0,0,0,0,0,0,0,0,0,0,0,0,0,0,0,0,0,0,0],"id":32,"left_children":[1,3,5,7,9,11,-1,13,15,17,19,-1,21,-1,-1,-1,-1,-1,-1,-1,-1,-1,-1],"loss_changes":[9.384699E0,7.9526424E-1,1.0549669E0,2.2844553E-1,1.1808064E0,8.123245E-1,0E0,1.6695261E-2,1.6764526E0,4.266441E-1,5.85515E-1,0E0,1.0741386E0,0E0,0E0,0E0,0E0,0E0,0E0,0E0,0E0,0E0,0E0],"parents":[2147483647,0,0,1,1,2,2,3,3,4,4,5,5,7,7,8,8,9,9,10,10,12,12],"right_children":[2,4,6,8,10,12,-1,14,16,18,20,-1,22,-1,-1,-1,-1,-1,-1,-1,-1,-1,-1],"split_conditions":[5.2332416E2,4.3435107E2,2.2E1,2.1761213E1,2.384164E1,3.772376E0,1.0483704E0,1.8177464E1,3.9549762E2,1.0495216E1,3.9225656E2,5.1628417E-1,1.9E1,-7.4152356E-1,-4.5021277E-2,-9.4440156E-1,1.6049652E-1,-6.16709E-2,1.0520639E-1,-2.1514893E-1,4.32193E-1,9.6808165E-1,-9.612427E-2],"split_indices":[4,4,6,5,5,5,0,5,4,5,3,0,6,0,0,0,0,0,0,0,0,0,0],"split_type":[0,0,0,0,0,0,0,0,0,0,0,0,0,0,0,0,0,0,0,0,0,0,0],"sum_hessian":[6.78E3,6.751E3,2.9E1,6.461E3,2.9E2,2.1E1,8E0,6.259E3,2.02E2,2.76E2,1.4E1,4E0,1.7E1,6.064E3,1.95E2,1.78E2,2.4E1,1.82E2,9.4E1,4E0,1E1,9E0,8E0],"tree_param":{"num_deleted":"0","num_feature":"8","num_nodes":"23","size_leaf_vector":"1"}},{"base_weights":[-1.9120855E-2,-2.1156369E-2,4.5517245E-1,-2.3305641E-2,3.933192E-2,2.7125E-1,3.8375E-2,-2.4814056E-2,-5.377883E-3,2.2031252E-1,2.5345646E-2,-0E0,2.8684214E-1,-1.248947E-3,-7.386352E-4,5.0641038E-3,-7.1391097E-4,-2.0833232E-4,1.659091E-2,2.245521E-4,4.558825E-3,2.28125E-2,1.1015627E-2],"categories":[],"categories_nodes":[],"categories_segments":[],"categories_sizes":[],"default_left":[0,0,0,0,0,0,0,0,0,0,0,0,0,0,0,0,0,0,0,0,0,0,0],"id":33,"left_children":[1,3,5,7,9,11,-1,13,15,17,19,-1,21,-1,-1,-1,-1,-1,-1,-1,-1,-1,-1],"loss_changes":[6.5552907E0,8.829639E-1,1.3538179E0,1.744082E-1,5.57099E-1,9.175825E-2,0E0,5.674362E-3,4.825894E-1,4.3463904E-1,2.8793788E-1,0E0,4.5968294E-2,0E0,0E0,0E0,0E0,0E0,0E0,0E0,0E0,0E0,0E0],"parents":[2147483647,0,0,1,1,2,2,3,3,4,4,5,5,7,7,8,8,9,9,10,10,12,12],"right_children":[2,4,6,8,10,12,-1,14,16,18,20,-1,22,-1,-1,-1,-1,-1,-1,-1,-1,-1,-1],"split_conditions":[5.2332416E2,4.4298752E2,2.2E1,4.026049E2,4.2098874E2,5.2601404E2,9.959534E-1,3.9706622E2,3.9459152E2,3.9225656E2,4.804441E2,-9.131775E-2,1.7E1,-1.3341836E0,-9.248915E-2,1.3461152E-1,-3.4395035E-2,-1.1335144E-1,4.105835E-1,1.8537587E-2,7.5431424E-1,9.1967773E-1,5.1820374E-1],"split_indices":[4,4,6,4,2,0,0,4,1,3,4,0,6,0,0,0,0,0,0,0,0,0,0],"split_type":[0,0,0,0,0,0,0,0,0,0,0,0,0,0,0,0,0,0,0,0,0,0,0],"sum_hessian":[6.824E3,6.796E3,2.8E1,6.565E3,2.31E2,1.9E1,9E0,6.05E3,5.15E2,1.5E1,2.16E2,1E0,1.8E1,5.941E3,1.09E2,3.8E1,4.77E2,5E0,1E1,1.66E2,5E1,3E0,1.5E1],"tree_param":{"num_deleted":"0","num_feature":"8","num_nodes":"23","size_leaf_vector":"1"}},{"base_weights":[-2.0093296E-2,-2.1709034E-2,3.5172415E-1,-2.229354E-2,1.20370395E-1,2.443182E-1,5.9062505E-1,-2.4811817E-2,-1.1821737E-3,4.5625E-1,5.5208355E-2,3.0833334E-2,1.7125002E-1,-0E0,3.3928573E-2,-1.2489359E-3,-6.8749883E-4,5.590279E-3,-3.636684E-4,3.0833334E-2,-0E0,4.765626E-3,-5.555545E-4,-2.0833232E-4,1.1833335E-2],"categories":[],"categories_nodes":[],"categories_segments":[],"categories_sizes":[],"default_left":[0,0,0,0,0,0,0,0,0,0,0,0,0,0,0,0,0,0,0,0,0,0,0,0,0],"id":34,"left_children":[1,3,5,7,9,11,13,15,17,19,21,-1,23,-1,-1,-1,-1,-1,-1,-1,-1,-1,-1,-1,-1],"loss_changes":[4.0303645E0,5.511956E-1,5.163269E-1,3.5341263E-1,5.146036E-1,4.141543E-1,4.3251133E-1,6.8223476E-3,4.8519763E-1,3.0817705E-1,7.3311634E-2,0E0,2.5373966E-1,0E0,0E0,0E0,0E0,0E0,0E0,0E0,0E0,0E0,0E0,0E0,0E0],"parents":[2147483647,0,0,1,1,2,2,3,3,4,4,5,5,6,6,7,7,8,8,9,9,10,10,12,12],"right_children":[2,4,6,8,10,12,14,16,18,20,22,-1,24,-1,-1,-1,-1,-1,-1,-1,-1,-1,-1,-1,-1],"split_conditions":[5.1058826E2,4.9427112E2,2.3E1,4.026049E2,4.398387E2,1.7E1,5.0466135E2,3.9706622E2,3.9459152E2,4.8608798E2,2.1E1,3.4508058E-1,1.9E1,-1.2764893E-1,8.488922E-1,-1.3028382E0,-7.927772E-2,1.0823212E-1,-1.3973023E-2,1.9093628E-1,-6.0795593E-1,1.0985718E-1,-8.525696E-2,-1.1004639E-2,4.922943E-1],"split_indices":[2,4,6,4,3,6,3,4,1,2,6,0,6,0,0,0,0,0,0,0,0,0,0,0,0],"split_type":[0,0,0,0,0,0,0,0,0,0,0,0,0,0,0,0,0,0,0,0,0,0,0,0,0],"sum_hessian":[6.75E3,6.722E3,2.8E1,6.696E3,2.6E1,2.1E1,7E0,5.978E3,7.18E2,3E0,2.3E1,2E0,1.9E1,1E0,6E0,5.879E3,9.9E1,3.5E1,6.83E2,2E0,1E0,1.5E1,8E0,5E0,1.4E1],"tree_param":{"num_deleted":"0","num_feature":"8","num_nodes":"25","size_leaf_vector":"1"}},{"base_weights":[-2.045618E-2,-2.2050394E-2,3.6517859E-1,-2.3331309E-2,3.1847157E-2,2.76087E-1,3.1458333E-2,-2.4358451E-2,4.096662E-3,2.8E-2,1.3725514E-2,2.6785716E-2,1.4705884E-1,-1.2489704E-3,-6.673717E-4,-1.2185918E-3,7.406251E-3,-4.807574E-5,4.843751E-3,1.8000001E-2,2.3076935E-3],"categories":[],"categories_nodes":[],"categories_segments":[],"categories_sizes":[],"default_left":[0,0,0,0,0,0,0,0,0,0,0,0,0,0,0,0,0,0,0,0,0],"id":35,"left_children":[1,3,5,7,9,11,-1,13,15,-1,17,-1,19,-1,-1,-1,-1,-1,-1,-1,-1],"loss_changes":[4.185011E0,4.709394E-1,3.9430547E-1,1.8995118E-1,1.4375877E0,6.2342346E-1,0E0,3.979802E-2,9.918499E-1,0E0,1.9653106E-1,0E0,3.080452E-1,0E0,0E0,0E0,0E0,0E0,0E0,0E0,0E0],"parents":[2147483647,0,0,1,1,2,2,3,3,4,4,5,5,7,7,8,8,10,10,12,12],"right_children":[2,4,6,8,10,12,-1,14,16,-1,18,-1,20,-1,-1,-1,-1,-1,-1,-1,-1],"split_conditions":[5.2601404E2,4.5866315E2,2.3E1,2.1036598E1,4.528238E2,6.463002E0,8.064484E-1,4.1386444E2,3.9549762E2,3.9075318E-1,4.9427112E2,4.5651552E-1,1.7E1,-8.456338E-1,-2.4325086E-2,-7.39119E-1,3.7147218E-1,2.8442605E-3,3.2782593E-1,8.5643923E-1,4.6767884E-1],"split_indices":[0,4,6,5,0,5,0,4,4,0,4,0,6,0,0,0,0,0,0,0,0],"split_type":[0,0,0,0,0,0,0,0,0,0,0,0,0,0,0,0,0,0,0,0,0],"sum_hessian":[6.849E3,6.822E3,2.7E1,6.666E3,1.56E2,2.2E1,5E0,6.429E3,2.37E2,4E0,1.52E2,6E0,1.6E1,6.076E3,3.53E2,1.98E2,3.9E1,1.29E2,2.3E1,4E0,1.2E1],"tree_param":{"num_deleted":"0","num_feature":"8","num_nodes":"21","size_leaf_vector":"1"}},{"base_weights":[-2.0126503E-2,-2.2027303E-2,4.3660715E-1,-2.3319462E-2,3.4105983E-2,3.2125002E-1,3.1666666E-2,-2.4814455E-2,-6.822238E-3,3.9285716E-1,1.5862092E-2,5.357143E-1,1.839286E-1,-1.2489439E-3,-8.510627E-4,3.4523823E-3,-8.333322E-4,2.3125E-2,-0E0,-1.1170201E-3,1.7424254E-3,-0E0,3.1458333E-2,-0E0,1.3375001E-2],"categories":[],"categories_nodes":[],"categories_segments":[],"categories_sizes":[],"default_left":[0,0,0,0,0,0,0,0,0,0,0,0,0,0,0,0,0,0,0,0,0,0,0,0,0],"id":36,"left_children":[1,3,5,7,9,11,-1,13,15,17,19,21,23,-1,-1,-1,-1,-1,-1,-1,-1,-1,-1,-1,-1],"loss_changes":[5.8690386E0,4.907663E-1,3.3650875E-1,1.5993762E-1,9.411942E-1,4.185133E-1,0E0,3.144741E-3,4.1193256E-1,2.030803E-1,1.0720196E-1,3.661754E-1,2.4194646E-1,0E0,0E0,0E0,0E0,0E0,0E0,0E0,0E0,0E0,0E0,0E0,0E0],"parents":[2147483647,0,0,1,1,2,2,3,3,4,4,5,5,7,7,8,8,9,9,10,10,11,11,12,12],"right_children":[2,4,6,8,10,12,-1,14,16,18,20,22,24,-1,-1,-1,-1,-1,-1,-1,-1,-1,-1,-1,-1],"split_conditions":[5.2332416E2,4.5866315E2,2.2E1,4.038903E2,4.528238E2,5.0466135E2,8.9815676E-1,3.9706622E2,4.0586548E2,4.6533456E2,4.6728302E2,5.2601404E2,1.9E1,-1.1978397E0,-4.3917343E-2,1.0099145E-1,-4.1705485E-2,3.7121582E-1,-8.750092E-1,-1.1333677E-2,1.1401061E-1,-8.321533E-1,4.4429627E-1,-3.3837892E-2,4.1711733E-1],"split_indices":[4,4,6,4,0,3,0,4,0,3,4,0,6,0,0,0,0,0,0,0,0,0,0,0,0],"split_type":[0,0,0,0,0,0,0,0,0,0,0,0,0,0,0,0,0,0,0,0,0,0,0,0,0],"sum_hessian":[6.796E3,6.769E3,2.7E1,6.619E3,1.5E2,1.9E1,8E0,6.063E3,5.56E2,6E0,1.44E2,6E0,1.3E1,5.923E3,1.4E2,6.2E1,4.94E2,5E0,1E0,4.6E1,9.8E1,1E0,5E0,4E0,9E0],"tree_param":{"num_deleted":"0","num_feature":"8","num_nodes":"25","size_leaf_vector":"1"}},{"base_weights":[-2.0704888E-2,-2.275124E-2,2.2366074E-1,-2.3761787E-2,1.696972E-2,1.1517859E-1,3.172414E-1,-1.2405989E-3,-1.2694277E-2,-1.2059847E-3,2.635417E-1,1.7045477E-2,3.9285716E-1,2.8E-2,2.5200003E-1,-1.0510288E-3,4.103262E-3,3.1458333E-2,6.4473697E-3,-9.210515E-4,1.03125E-2,-0E0,3.53125E-2,-0E0,1.5238096E-2],"categories":[],"categories_nodes":[],"categories_segments":[],"categories_sizes":[],"default_left":[0,0,0,0,0,0,0,0,0,0,0,0,0,0,0,0,0,0,0,0,0,0,0,0,0],"id":37,"left_children":[1,3,5,7,9,11,13,-1,15,-1,17,19,21,-1,23,-1,-1,-1,-1,-1,-1,-1,-1,-1,-1],"loss_changes":[3.375893E0,2.7106333E-1,4.8872137E-1,7.220435E-2,1.7019958E0,7.152984E-1,2.3697901E-1,0E0,4.524493E-1,0E0,1.024124E0,1.7021158E-1,9.147991E-1,0E0,3.628763E-1,0E0,0E0,0E0,0E0,0E0,0E0,0E0,0E0,0E0,0E0],"parents":[2147483647,0,0,1,1,2,2,3,3,4,4,5,5,6,6,8,8,10,10,11,11,12,12,14,14],"right_children":[2,4,6,8,10,12,14,-1,16,-1,18,20,22,-1,24,-1,-1,-1,-1,-1,-1,-1,-1,-1,-1],"split_conditions":[4.924883E2,2.384164E1,5.2601404E2,4.0815906E2,3.8551273E2,1.2449135E1,3.3093472E0,-8.5473204E-1,1.6742569E1,-2.2961512E-1,3.9969595E2,5.1058826E2,4.9427112E2,3.962616E-1,6.3215675E0,-4.2320512E-2,8.6986825E-2,9.8846436E-2,8.8003844E-1,-5.727234E-2,3.0573425E-1,-1.3098968E0,1.4371948E-1,-1.9042969E-2,8.5325015E-1],"split_indices":[1,5,0,4,2,5,5,0,5,0,0,2,4,0,5,0,0,0,0,0,0,0,0,0,0],"split_type":[0,0,0,0,0,0,0,0,0,0,0,0,0,0,0,0,0,0,0,0,0,0,0,0,0],"sum_hessian":[6.78E3,6.725E3,5.5E1,6.561E3,1.64E2,2.7E1,2.8E1,5.983E3,5.78E2,1.41E2,2.3E1,2.1E1,6E0,4E0,2.4E1,5.33E2,4.5E1,5E0,1.8E1,1.8E1,3E0,3E0,3E0,4E0,2E1],"tree_param":{"num_deleted":"0","num_feature":"8","num_nodes":"25","size_leaf_vector":"1"}},{"base_weights":[-1.9807043E-2,-2.155568E-2,2.0882355E-1,-1.2488741E-3,-5.030201E-3,4.227273E-1,1.4390247E-1,-1.8162165E-2,1.11111134E-1,-0E0,5.222222E-1,1.7045477E-2,2.7125E-1,-1.1338786E-3,6.738293E-4,1.147436E-2,2.500001E-3,-0E0,2.9531254E-2,-8.3333225E-4,4.531251E-3,3.88889E-3,1.9270835E-2],"categories":[],"categories_nodes":[],"categories_segments":[],"categories_sizes":[],"default_left":[0,0,0,0,0,0,0,0,0,0,0,0,0,0,0,0,0,0,0,0,0,0,0],"id":38,"left_children":[1,3,5,-1,7,9,11,13,15,-1,17,19,21,-1,-1,-1,-1,-1,-1,-1,-1,-1,-1],"loss_changes":[2.689968E0,3.7652922E-1,5.9073544E-1,0E0,1.7588629E0,4.8876274E-1,6.288989E-1,1.5008774E-1,8.069658E-1,0E0,3.3625865E-1,6.347775E-2,3.6546516E-1,0E0,0E0,0E0,0E0,0E0,0E0,0E0,0E0,0E0,0E0],"parents":[2147483647,0,0,1,1,2,2,4,4,5,5,6,6,7,7,8,8,10,10,11,11,12,12],"right_children":[2,4,6,-1,8,10,12,14,16,-1,18,20,22,-1,-1,-1,-1,-1,-1,-1,-1,-1,-1],"split_conditions":[4.924883E2,3.76017E2,1.7E1,-1.8958539E0,1.6742569E1,4.950504E2,5.190178E2,4.528238E2,4.0436295E2,-5.2756196E-1,4.2082608E2,1.2449135E1,2.1E1,-1.255929E-1,2.8009105E-3,9.3904115E-2,3.2411057E-1,-6.687439E-1,7.7264404E-1,-1.5864563E-1,4.2279053E-2,7.508545E-2,8.105866E-1],"split_indices":[1,0,6,0,5,0,1,0,0,0,3,5,6,0,0,0,0,0,0,0,0,0,0],"split_type":[0,0,0,0,0,0,0,0,0,0,0,0,0,0,0,0,0,0,0,0,0,0,0],"sum_hessian":[6.763E3,6.713E3,5E1,5.556E3,1.157E3,1E1,4E1,1.041E3,1.16E2,2E0,8E0,2.1E1,1.9E1,9.14E2,1.27E2,3.8E1,7.8E1,1E0,7E0,1.4E1,7E0,8E0,1.1E1],"tree_param":{"num_deleted":"0","num_feature":"8","num_nodes":"23","size_leaf_vector":"1"}},{"base_weights":[-2.0058896E-2,-2.182233E-2,1.8421055E-1,-1.2489076E-3,-2.0629512E-3,3.9285716E-1,1.5000002E-1,4.5625E-1,-4.1666427E-3,-0E0,5.6E-1,5.2000023E-2,2.314815E-1,3.0833334E-2,-0E0,9.5541525E-4,-4.5439514E-4,3.53125E-2,-0E0,5.625001E-3,-7.2916556E-4,-0E0,1.3177085E-2],"categories":[],"categories_nodes":[],"categories_segments":[],"categories_sizes":[],"default_left":[0,0,0,0,0,0,0,0,0,0,0,0,0,0,0,0,0,0,0,0,0,0,0],"id":39,"left_children":[1,3,5,-1,7,9,11,13,15,-1,17,19,21,-1,-1,-1,-1,-1,-1,-1,-1,-1,-1],"loss_changes":[2.4026651E0,4.1179442E-1,2.9364657E-1,0E0,8.446741E-1,4.8764277E-1,3.668592E-1,3.0817705E-1,1.0432123E-1,0E0,4.2715633E-1,1.1213958E-1,2.2014165E-1,0E0,0E0,0E0,0E0,0E0,0E0,0E0,0E0,0E0,0E0],"parents":[2147483647,0,0,1,1,2,2,4,4,5,5,6,6,7,7,8,8,10,10,11,11,12,12],"right_children":[2,4,6,-1,8,10,12,14,16,-1,18,20,22,-1,-1,-1,-1,-1,-1,-1,-1,-1,-1],"split_conditions":[4.9427112E2,3.8994266E2,4.6533456E2,-1.3499993E0,3.7745142E2,4.2082608E2,5.190178E2,3.861089E2,3.9583582E2,-5.0118256E-1,1.9E1,2.1E1,1.6E1,8.936157E-2,-1.0027726E0,3.3867724E-2,-1.5265514E-2,3.6505738E-1,-2.0614319E-1,2.518158E-1,-1.2363892E-1,-3.093567E-2,7.700562E-1],"split_indices":[4,4,3,0,0,3,1,1,1,0,6,6,6,0,0,0,0,0,0,0,0,0,0],"split_type":[0,0,0,0,0,0,0,0,0,0,0,0,0,0,0,0,0,0,0,0,0,0,0],"sum_hessian":[6.703E3,6.647E3,5.6E1,5.727E3,9.2E2,6E0,5E1,3E0,9.17E2,2E0,4E0,2.4E1,2.6E1,2E0,1E0,1.56E2,7.61E2,3E0,1E0,1.3E1,1.1E1,3E0,2.3E1],"tree_param":{"num_deleted":"0","num_feature":"8","num_nodes":"23","size_leaf_vector":"1"}},{"base_weights":[-1.9968275E-2,-2.1133043E-2,2.6851854E-1,-1.2489216E-3,2.1466208E-3,1.8913046E-1,2.8E-2,-1.5292688E-2,1.2563027E-1,2.3421055E-1,-0E0,-1.1071897E-3,1.901597E-3,2.0044645E-2,1.97011E-3,-0E0,1.2430557E-2],"categories":[],"categories_nodes":[],"categories_segments":[],"categories_sizes":[],"default_left":[0,0,0,0,0,0,0,0,0,0,0,0,0,0,0,0,0],"id":40,"left_children":[1,3,5,-1,7,9,-1,11,13,15,-1,-1,-1,-1,-1,-1,-1],"loss_changes":[2.2598262E0,6.071296E-1,4.4395816E-1,0E0,2.0695183E0,2.1951944E-1,0E0,3.0503672E-1,2.7646832E0,7.029796E-2,0E0,0E0,0E0,0E0,0E0,0E0,0E0],"parents":[2147483647,0,0,1,1,2,2,4,4,5,5,7,7,8,8,9,9],"right_children":[2,4,6,-1,8,10,-1,12,14,16,-1,-1,-1,-1,-1,-1,-1],"split_conditions":[5.2601404E2,3.8994266E2,2.3E1,-1.2982463E0,1.6270027E1,1.2198575E1,5.9952086E-1,4.6728302E2,4.0436295E2,5.2332416E2,-3.0429078E-2,-8.4755845E-2,7.694017E-2,2.4648896E-1,2.948424E-1,-6.102478E-1,7.315521E-1],"split_indices":[0,4,6,0,5,5,0,4,0,4,0,0,0,0,0,0,0],"split_type":[0,0,0,0,0,0,0,0,0,0,0,0,0,0,0,0,0],"sum_hessian":[6.781E3,6.755E3,2.6E1,5.801E3,9.54E2,2.2E1,4E0,8.36E2,1.18E2,1.8E1,4E0,7.43E2,9.3E1,2.7E1,9.1E1,1E0,1.7E1],"tree_param":{"num_deleted":"0","num_feature":"8","num_nodes":"17","size_leaf_vector":"1"}},{"base_weights":[-2.0141514E-2,-2.2025105E-2,2.1435188E-1,-1.2489251E-3,-3.70368E-3,3.0833334E-2,1.8509617E-1,-1.4677578E-2,1.512097E-1,7.631581E-2,2.3750003E-1,-1.1094565E-3,1.4341098E-3,2.5166666E-2,1.7968761E-3,1.0781251E-2,-7.2916556E-4,3.0833334E-2,9.570315E-3],"categories":[],"categories_nodes":[],"categories_segments":[],"categories_sizes":[],"default_left":[0,0,0,0,0,0,0,0,0,0,0,0,0,0,0,0,0,0,0],"id":41,"left_children":[1,3,5,-1,7,-1,9,11,13,15,17,-1,-1,-1,-1,-1,-1,-1,-1],"loss_changes":[2.9969301E0,3.6309648E-1,4.4126105E-1,0E0,1.5950696E0,0E0,2.4691987E-1,2.8790522E-1,2.4445682E0,2.638473E-1,3.9538407E-1,0E0,0E0,0E0,0E0,0E0,0E0,0E0,0E0],"parents":[2147483647,0,0,1,1,2,2,4,4,6,6,7,7,8,8,9,9,10,10],"right_children":[2,4,6,-1,8,-1,10,12,14,16,18,-1,-1,-1,-1,-1,-1,-1,-1],"split_conditions":[4.9427112E2,3.8994266E2,4.4963745E2,-1.2087587E0,1.8975374E1,1.01428226E-1,7.4092865E0,1.3508518E1,4.0436295E2,2.1E1,7.7954125E0,-1.041245E-1,3.8436785E-2,2.3416443E-1,7.003748E-1,3.1022644E-1,-1.0281982E-1,3.005829E-1,6.9497377E-1],"split_indices":[4,4,2,0,5,0,5,5,0,6,5,0,0,0,0,0,0,0,0],"split_type":[0,0,0,0,0,0,0,0,0,0,0,0,0,0,0,0,0,0,0],"sum_hessian":[6.817E3,6.764E3,5.3E1,5.82E3,9.44E2,2E0,5.1E1,8.83E2,6.1E1,1.8E1,3.3E1,7.55E2,1.28E2,1.4E1,4.7E1,7E0,1.1E1,2E0,3.1E1],"tree_param":{"num_deleted":"0","num_feature":"8","num_nodes":"19","size_leaf_vector":"1"}},{"base_weights":[-2.0704253E-2,-2.1575572E-2,1.8660717E-1,-2.328289E-2,1.836366E-2,4.615387E-2,2.8281254E-1,-2.4816183E-2,2.6462632E-3,-1.22146E-3,1.8421055E-1,2.1875E-2,-7.2916556E-4,4.227273E-1,-2.0833232E-4,-1.2489515E-3,-8.8473904E-4,-2.9891185E-4,3.914475E-3,2.3375003E-2,5.963543E-3,-0E0,2.3375003E-2],"categories":[],"categories_nodes":[],"categories_segments":[],"categories_sizes":[],"default_left":[0,0,0,0,0,0,0,0,0,0,0,0,0,0,0,0,0,0,0,0,0,0,0],"id":42,"left_children":[1,3,5,7,9,11,13,15,17,-1,19,-1,-1,21,-1,-1,-1,-1,-1,-1,-1,-1,-1],"loss_changes":[1.212224E0,4.6139956E-1,3.3239645E-1,2.5986814E-1,1.9721705E0,3.5767224E-1,6.8605936E-1,2.3889542E-3,2.4190539E-1,0E0,9.341774E-1,0E0,0E0,2.198807E-1,0E0,0E0,0E0,0E0,0E0,0E0,0E0,0E0,0E0],"parents":[2147483647,0,0,1,1,2,2,3,3,4,4,5,5,6,6,7,7,8,8,10,10,13,13],"right_children":[2,4,6,8,10,12,14,16,18,-1,20,-1,-1,22,-1,-1,-1,-1,-1,-1,-1,-1,-1],"split_conditions":[5.190178E2,2.0529995E1,6.3215675E0,4.2426425E2,3.6611902E2,2.1660163E0,1.2198575E1,1.8177464E1,1.5707885E1,-4.9832955E-1,3.8145685E2,2.8210145E-1,-2.701416E-2,1.5E1,-5.7678223E-3,-5.990941E-1,-3.6983814E-2,-3.030962E-3,3.721161E-2,2.2245637E-1,6.6582185E-1,-3.6731872E-1,6.2418216E-1],"split_indices":[1,5,5,4,1,5,5,5,5,0,1,0,0,6,0,0,0,0,0,0,0,0,0],"split_type":[0,0,0,0,0,0,0,0,0,0,0,0,0,0,0,0,0,0,0,0,0,0,0],"sum_hessian":[6.779E3,6.752E3,2.7E1,6.478E3,2.74E2,1.2E1,1.5E1,6.12E3,3.58E2,2.18E2,5.6E1,1E0,1.1E1,1E1,5E0,5.967E3,1.53E2,3.21E2,3.7E1,9E0,4.7E1,1E0,9E0],"tree_param":{"num_deleted":"0","num_feature":"8","num_nodes":"23","size_leaf_vector":"1"}},{"base_weights":[-2.086638E-2,-2.1882815E-2,2.2232145E-1,-2.3166467E-2,2.9090934E-2,1.5340911E-1,3.9285716E-1,-1.2489137E-3,-1.0802084E-2,3.6E-1,1.8012445E-2,1.9305559E-1,-0E0,-0E0,2.3125E-2,2.8E-2,-7.132341E-4,2.28125E-2,-0E0,3.9732154E-3,2.1455342E-4,1.8000001E-2,5.625001E-3],"categories":[],"categories_nodes":[],"categories_segments":[],"categories_sizes":[],"default_left":[0,0,0,0,0,0,0,0,0,0,0,0,0,0,0,0,0,0,0,0,0,0,0],"id":43,"left_children":[1,3,5,7,9,11,13,-1,15,17,19,21,-1,-1,-1,-1,-1,-1,-1,-1,-1,-1,-1],"loss_changes":[1.6666682E0,4.4351768E-1,2.1416199E-1,1.4429593E-1,5.605996E-1,1.5311235E-1,2.030803E-1,0E0,1.6413101E0,1.8465626E-1,1.2703936E-1,1.543194E-1,0E0,0E0,0E0,0E0,0E0,0E0,0E0,0E0,0E0,0E0,0E0],"parents":[2147483647,0,0,1,1,2,2,3,3,4,4,5,5,6,6,8,8,9,9,10,10,11,11],"right_children":[2,4,6,8,10,12,14,-1,16,18,20,22,-1,-1,-1,-1,-1,-1,-1,-1,-1,-1,-1],"split_conditions":[5.2601404E2,4.5866315E2,2.3E1,3.8497153E2,4.528238E2,2.1E1,5.190178E2,-1.2811004E0,3.7493994E2,4.6577463E2,4.6263693E2,4.8403055E2,-2.5662232E-2,-6.550598E-2,5.035858E-1,2.1133423E-1,-2.2901868E-2,2.101593E-1,-8.6957246E-1,3.806305E-2,6.92753E-2,2.6350403E-1,5.929718E-1],"split_indices":[0,4,6,4,0,6,1,0,0,1,0,3,0,0,0,0,0,0,0,0,0,0,0],"split_type":[0,0,0,0,0,0,0,0,0,0,0,0,0,0,0,0,0,0,0,0,0,0,0],"sum_hessian":[6.803E3,6.776E3,2.7E1,6.612E3,1.64E2,2.1E1,6E0,5.759E3,8.53E2,4E0,1.6E2,1.7E1,4E0,1E0,5E0,4E0,8.49E2,3E0,1E0,2.7E1,1.33E2,4E0,1.3E1],"tree_param":{"num_deleted":"0","num_feature":"8","num_nodes":"23","size_leaf_vector":"1"}},{"base_weights":[-2.0565264E-2,-2.2558274E-2,4.8289496E-2,-1.2401683E-3,-7.870871E-3,1.5454547E-1,2.515825E-2,2.675E-1,-1.1126978E-2,3.9285716E-1,8.333336E-2,-1.325734E-3,1.5740743E-1,2.3125E-2,-0E0,1.1728407E-3,-7.38349E-4,-0E0,2.3125E-2,-9.523798E-4,1.9642858E-2,-4.2635543E-4,1.03125E-2,2.1875E-2,6.2980778E-3],"categories":[],"categories_nodes":[],"categories_segments":[],"categories_sizes":[],"default_left":[0,0,0,0,0,0,0,0,0,0,0,0,0,0,0,0,0,0,0,0,0,0,0,0,0],"id":44,"left_children":[1,3,5,-1,7,9,11,13,15,17,19,21,23,-1,-1,-1,-1,-1,-1,-1,-1,-1,-1,-1,-1],"loss_changes":[9.3070745E-1,2.1430135E-1,4.4512984E-1,0E0,7.6906985E-1,4.7967535E-1,5.692095E-1,5.6787497E-1,1.0950091E-1,2.030803E-1,9.004762E-1,1.7930408E-1,1.2635505E-1,0E0,0E0,0E0,0E0,0E0,0E0,0E0,0E0,0E0,0E0,0E0,0E0],"parents":[2147483647,0,0,1,1,2,2,4,4,5,5,6,6,7,7,8,8,9,9,10,10,11,11,12,12],"right_children":[2,4,6,-1,8,10,12,14,16,18,20,22,24,-1,-1,-1,-1,-1,-1,-1,-1,-1,-1,-1,-1],"split_conditions":[4.5866315E2,3.8497153E2,4.6263693E2,-1.2023294E0,3.7745142E2,4.5970114E2,5.2601404E2,3.861089E2,3.9004736E2,3.8830923E2,4.6728302E2,5.1058826E2,4.743996E2,2.0076752E-1,-1.5588227E-1,1.16201835E-2,-2.108367E-2,-8.570557E-2,1.996521E-1,-8.639527E-3,1.3572083E-1,-1.0157301E-2,2.1703492E-1,2.5032958E-1,6.3029784E-1],"split_indices":[4,4,0,0,0,1,0,1,0,3,4,2,2,0,0,0,0,0,0,0,0,0,0,0,0],"split_type":[0,0,0,0,0,0,0,0,0,0,0,0,0,0,0,0,0,0,0,0,0,0,0,0,0],"sum_hessian":[6.792E3,6.603E3,1.89E2,5.721E3,8.82E2,3.2E1,1.57E2,9E0,8.73E2,6E0,2.6E1,1.31E2,2.6E1,5E0,4E0,8E1,7.93E2,1E0,5E0,2E1,6E0,1.28E2,3E0,1E0,2.5E1],"tree_param":{"num_deleted":"0","num_feature":"8","num_nodes":"25","size_leaf_vector":"1"}},{"base_weights":[-2.0996876E-2,-2.2442097E-2,9.6036606E-2,-2.2882285E-2,8.750002E-2,2.4861114E-1,5.0769255E-2,-1.2489154E-3,-9.340331E-3,-9.210515E-4,3.4062502E-1,-2.0833232E-4,3.5384616E-1,1.1320778E-2,2.0000002E-1,-1.053458E-3,3.8078714E-3,-0E0,1.9642858E-2,8.375001E-3,3.53125E-2,1.2500002E-2,-1.1170201E-3,-4.6874894E-4,2.3125E-2],"categories":[],"categories_nodes":[],"categories_segments":[],"categories_sizes":[],"default_left":[0,0,0,0,0,0,0,0,0,0,0,0,0,0,0,0,0,0,0,0,0,0,0,0,0],"id":45,"left_children":[1,3,5,7,9,11,13,-1,15,-1,17,-1,19,21,23,-1,-1,-1,-1,-1,-1,-1,-1,-1,-1],"loss_changes":[1.1408825E0,3.1954646E-1,5.237852E-1,1.8565774E-1,7.35588E-1,5.1526165E-1,3.5925397E-1,0E0,9.006109E-1,0E0,1.5215409E-1,0E0,6.4802647E-1,4.5416498E-1,7.641406E-1,0E0,0E0,0E0,0E0,0E0,0E0,0E0,0E0,0E0,0E0],"parents":[2147483647,0,0,1,1,2,2,3,3,4,4,5,5,6,6,8,8,10,10,12,12,13,13,14,14],"right_children":[2,4,6,8,10,12,14,-1,16,-1,18,-1,20,22,24,-1,-1,-1,-1,-1,-1,-1,-1,-1,-1],"split_conditions":[4.804441E2,4.5106155E1,4.6533456E2,3.8994266E2,3.210086E2,4.2574084E2,2.3E1,-1.0272421E0,1.5532343E1,-4.043091E-1,3.1420612E2,-1.4163513E-1,4.924883E2,1.7E1,5.190178E2,-4.987803E-2,6.4950794E-2,-1.1217682E0,2.146881E-1,7.3458254E-1,2.3781434E-1,5.318085E-1,-9.3812505E-3,-9.374695E-2,4.4689026E-1],"split_indices":[4,5,3,4,3,3,6,0,5,0,1,0,1,6,1,0,0,0,0,0,0,0,0,0,0],"split_type":[0,0,0,0,0,0,0,0,0,0,0,0,0,0,0,0,0,0,0,0,0,0,0,0,0],"sum_hessian":[6.775E3,6.694E3,8.1E1,6.669E3,2.5E1,1.7E1,6.4E1,5.768E3,9.01E2,1.8E1,7E0,5E0,1.2E1,5.2E1,1.2E1,7.94E2,1.07E2,1E0,6E0,9E0,3E0,6E0,4.6E1,7E0,5E0],"tree_param":{"num_deleted":"0","num_feature":"8","num_nodes":"25","size_leaf_vector":"1"}},{"base_weights":[-2.0419402E-2,-2.2015842E-2,1.8509617E-1,-1.2489142E-3,-4.5269346E-3,3.675E-1,1.3604653E-1,-1.9081963E-2,1.0148308E-1,4.6562502E-1,-0E0,-9.027766E-4,2.4134618E-1,-1.240767E-3,4.6053818E-5,2.6111111E-2,3.261365E-3,-0E0,2.6785716E-2,1.7692309E-2,5.625001E-3],"categories":[],"categories_nodes":[],"categories_segments":[],"categories_sizes":[],"default_left":[0,0,0,0,0,0,0,0,0,0,0,0,0,0,0,0,0,0,0,0,0],"id":46,"left_children":[1,3,5,-1,7,9,11,13,15,17,-1,-1,19,-1,-1,-1,-1,-1,-1,-1,-1],"loss_changes":[2.2171605E0,3.4634185E-1,3.6488414E-1,0E0,1.5104445E0,3.8389063E-1,7.244432E-1,1.0172945E-1,1.7071906E0,2.7447546E-1,0E0,0E0,2.9043257E-1,0E0,0E0,0E0,0E0,0E0,0E0,0E0,0E0],"parents":[2147483647,0,0,1,1,2,2,4,4,5,5,6,6,7,7,8,8,9,9,12,12],"right_children":[2,4,6,-1,8,10,12,14,16,18,-1,-1,20,-1,-1,-1,-1,-1,-1,-1,-1],"split_conditions":[4.950504E2,3.8497153E2,1.7E1,-1.1276304E0,1.6270027E1,1.3414661E1,5.2601404E2,4.4298752E2,3.8165527E2,3.1270921E0,-1.34552E-1,-7.96814E-3,9.310114E0,-1.1762231E-1,1.1718806E-3,1.8748169E-1,1.2014305E-1,-1.6788025E-1,5.052185E-1,5.9925234E-1,4.245453E-1],"split_indices":[0,4,6,0,5,5,0,4,0,5,0,0,5,0,0,0,0,0,0,0,0],"split_type":[0,0,0,0,0,0,0,0,0,0,0,0,0,0,0,0,0,0,0,0,0],"sum_hessian":[6.794E3,6.743E3,5.1E1,5.761E3,9.82E2,9E0,4.2E1,8.65E2,1.17E2,7E0,2E0,1.7E1,2.5E1,6.76E2,1.89E2,8E0,1.09E2,1E0,6E0,1.2E1,1.3E1],"tree_param":{"num_deleted":"0","num_feature":"8","num_nodes":"21","size_leaf_vector":"1"}},{"base_weights":[-2.0892937E-2,-2.1902923E-2,2.2232145E-1,-2.3608334E-2,2.0000024E-2,1.3854168E-1,2.8E-2,-1.2488797E-3,-1.5621765E-2,1.4565219E-1,7.6131923E-3,-0E0,1.6190478E-1,2.1875012E-3,-8.734132E-4,1.2767859E-2,-6.2499894E-4,8.577139E-4,-1.1383918E-3,2.1875E-2,6.0625016E-3],"categories":[],"categories_nodes":[],"categories_segments":[],"categories_sizes":[],"default_left":[0,0,0,0,0,0,0,0,0,0,0,0,0,0,0,0,0,0,0,0,0],"id":47,"left_children":[1,3,5,7,9,11,-1,-1,13,15,17,-1,19,-1,-1,-1,-1,-1,-1,-1,-1],"loss_changes":[1.6669908E0,4.8827362E-1,6.4470005E-1,6.725502E-2,3.9601916E-1,8.982518E-2,0E0,0E0,1.04806036E-1,4.2652947E-1,7.026713E-2,0E0,1.2636751E-1,0E0,0E0,0E0,0E0,0E0,0E0,0E0,0E0],"parents":[2147483647,0,0,1,1,2,2,3,3,4,4,5,5,8,8,9,9,10,10,12,12],"right_children":[2,4,6,8,10,12,-1,-1,14,16,18,-1,20,-1,-1,-1,-1,-1,-1,-1,-1],"split_conditions":[5.190178E2,4.3462817E2,2.3E1,3.7322348E2,4.2098874E2,5.2601404E2,4.0331727E-1,-1.2382596E0,3.7466852E2,1.6E1,4.7195255E2,-1.3288574E-1,4.743996E2,1.7810822E-1,-5.946823E-2,1.8041535E-1,-4.204956E-1,4.7071595E-2,-3.438897E-2,1.9596253E-1,5.6929016E-1],"split_indices":[1,1,6,1,2,0,0,0,1,6,3,0,2,0,0,0,0,0,0,0,0],"split_type":[0,0,0,0,0,0,0,0,0,0,0,0,0,0,0,0,0,0,0,0,0],"sum_hessian":[6.847E3,6.82E3,2.7E1,6.556E3,2.64E2,2.3E1,4E0,5.584E3,9.72E2,2.2E1,2.42E2,3E0,2E1,2.7E1,9.45E2,1.3E1,9E0,1.87E2,5.5E1,1E0,1.9E1],"tree_param":{"num_deleted":"0","num_feature":"8","num_nodes":"21","size_leaf_vector":"1"}},{"base_weights":[-2.1008657E-2,-2.2607898E-2,1.700893E-1,-2.4646457E-2,-5.6771305E-3,3.0833334E-2,1.402778E-1,-1.2489416E-3,-3.7499764E-3,-1.2395822E-3,8.0492444E-2,1.2000022E-2,2.3916669E-1,-6.701019E-4,1.03125E-2,2.3125E-2,3.0511823E-3,-9.65908E-4,1.03125E-2,7.6704556E-3,2.0555558E-2],"categories":[],"categories_nodes":[],"categories_segments":[],"categories_sizes":[],"default_left":[0,0,0,0,0,0,0,0,0,0,0,0,0,0,0,0,0,0,0,0,0],"id":48,"left_children":[1,3,5,7,9,-1,11,-1,13,-1,15,17,19,-1,-1,-1,-1,-1,-1,-1,-1],"loss_changes":[2.0660331E0,2.2948933E-1,5.8333695E-1,3.878236E-2,1.2004478E0,0E0,6.5701663E-1,0E0,1.8617266E-1,0E0,9.011385E-1,1.7476648E-1,3.2284582E-1,0E0,0E0,0E0,0E0,0E0,0E0,0E0,0E0],"parents":[2147483647,0,0,1,1,2,2,3,3,4,4,6,6,8,8,10,10,11,11,12,12],"right_children":[2,4,6,8,10,-1,12,-1,14,-1,16,18,20,-1,-1,-1,-1,-1,-1,-1,-1],"split_conditions":[4.9427112E2,1.5707885E1,4.4963745E2,4.5695563E2,3.6611902E2,5.4049682E-2,5.2601404E2,-4.2036343E-1,1.403971E1,-1.716076E-1,3.6694388E2,5.1058826E2,2.2E1,-6.6431533E-3,6.342163E-2,1.6920319E-1,1.5020224E-1,-9.2468265E-4,1.5605164E-1,4.5149538E-1,5.4082644E-1],"split_indices":[4,5,2,2,3,0,0,0,5,0,2,2,6,0,0,0,0,0,0,0,0],"split_type":[0,0,0,0,0,0,0,0,0,0,0,0,0,0,0,0,0,0,0,0,0],"sum_hessian":[6.795E3,6.74E3,5.5E1,6.01E3,7.3E2,2E0,5.3E1,5.911E3,9.9E1,5.99E2,1.31E2,2.4E1,2.9E1,9.6E1,3E0,5E0,1.26E2,2.1E1,3E0,2.1E1,8E0],"tree_param":{"num_deleted":"0","num_feature":"8","num_nodes":"21","size_leaf_vector":"1"}},{"base_weights":[-2.0145785E-2,-2.1155803E-2,2.1379313E-1,-2.2984777E-2,2.0510588E-2,-0E0,2.5200003E-1,-2.4474766E-2,-7.0478483E-3,-1.9047596E-2,9.921877E-2,-0E0,2.635417E-1,-1.2403835E-3,-1.9801862E-4,-1.1318265E-3,3.7640461E-3,-1.2140793E-3,1.6406261E-3,1.5208334E-2,2.500001E-3,5.357144E-3,1.5208334E-2],"categories":[],"categories_nodes":[],"categories_segments":[],"categories_sizes":[],"default_left":[0,0,0,0,0,0,0,0,0,0,0,0,0,0,0,0,0,0,0,0,0,0,0],"id":49,"left_children":[1,3,5,7,9,-1,11,13,15,17,19,-1,21,-1,-1,-1,-1,-1,-1,-1,-1,-1,-1],"loss_changes":[1.597651E0,5.186198E-1,2.620827E-1,1.5133214E-1,8.94156E-1,0E0,7.9301E-2,3.765893E-2,7.2027564E-1,5.124493E-2,9.1775393E-1,0E0,7.876873E-2,0E0,0E0,0E0,0E0,0E0,0E0,0E0,0E0,0E0,0E0],"parents":[2147483647,0,0,1,1,2,2,3,3,4,4,6,6,7,7,8,8,9,9,10,10,12,12],"right_children":[2,4,6,8,10,-1,12,14,16,18,20,-1,22,-1,-1,-1,-1,-1,-1,-1,-1,-1,-1],"split_conditions":[5.2601404E2,4.3435107E2,5.190178E2,1.6742569E1,1.1288746E1,-1.3561097E-1,4.5821204E2,4.2426425E2,3.7860825E2,4.924883E2,4.443903E2,-3.4763184E-1,6.3215675E0,-5.213817E-1,-6.317255E-3,-3.1618878E-1,8.710881E-2,-4.5224264E-2,5.1345825E-2,6.173706E-2,1.7683749E-1,1.263031E-1,5.137848E-1],"split_indices":[0,4,1,5,5,0,3,4,4,1,0,0,5,0,0,0,0,0,0,0,0,0,0],"split_type":[0,0,0,0,0,0,0,0,0,0,0,0,0,0,0,0,0,0,0,0,0,0,0],"sum_hessian":[6.823E3,6.795E3,2.8E1,6.512E3,2.83E2,4E0,2.4E1,5.949E3,5.63E2,1.88E2,9.5E1,1E0,2.3E1,5.849E3,1E2,4.75E2,8.8E1,1.73E2,1.5E1,1.7E1,7.8E1,6E0,1.7E1],"tree_param":{"num_deleted":"0","num_feature":"8","num_nodes":"23","size_leaf_vector":"1"}},{"base_weights":[-1.9236976E-2,-2.2220068E-2,5.2500024E-2,-1.2488806E-3,-5.5525512E-3,4.009618E-2,3.318182E-1,-2.3525532E-2,7.455885E-2,2.109707E-2,2.2187503E-1,-2.0833232E-4,6.2916666E-1,-1.2415529E-3,6.770845E-4,7.6762834E-3,3.2258182E-4,-2.4839627E-4,3.582318E-3,-0E0,1.2857144E-2,3.8E-2,-0E0],"categories":[],"categories_nodes":[],"categories_segments":[],"categories_sizes":[],"default_left":[0,0,0,0,0,0,0,0,0,0,0,0,0,0,0,0,0,0,0,0,0,0,0],"id":50,"left_children":[1,3,5,-1,7,9,11,13,15,17,19,-1,21,-1,-1,-1,-1,-1,-1,-1,-1,-1,-1],"loss_changes":[1.4509706E0,2.9647684E-1,8.849513E-1,0E0,1.3385823E0,8.689671E-1,1.1640718E0,3.838843E-2,8.9730734E-1,3.192872E-1,2.0708716E-1,0E0,5.128958E-1,0E0,0E0,0E0,0E0,0E0,0E0,0E0,0E0,0E0,0E0],"parents":[2147483647,0,0,1,1,2,2,4,4,5,5,6,6,7,7,8,8,9,9,10,10,12,12],"right_children":[2,4,6,-1,8,10,12,14,16,18,20,-1,22,-1,-1,-1,-1,-1,-1,-1,-1,-1,-1],"split_conditions":[4.4298752E2,1.4493829E1,3.5352818E1,-4.7837406E-1,3.7750717E2,5.2601404E2,4.2126218E2,4.5106155E1,4.0436295E2,1.0495216E1,1.6E1,-3.7475738E-1,4.7417062E2,-8.4324616E-1,2.661728E-1,1.5757649E-1,8.65435E-3,-9.797472E-3,2.1525811E-2,-2.1683656E-1,4.880951E-1,6.731445E-1,-6.6124576E-1],"split_indices":[4,5,5,0,4,0,1,5,0,5,6,0,0,0,0,0,0,0,0,0,0,0,0],"split_type":[0,0,0,0,0,0,0,0,0,0,0,0,0,0,0,0,0,0,0,0,0,0,0],"sum_hessian":[6.788E3,6.519E3,2.69E2,5.588E3,9.31E2,2.59E2,1E1,7.62E2,1.69E2,2.36E2,2.3E1,5E0,5E0,7.39E2,2.3E1,7.7E1,9.2E1,1.55E2,8.1E1,3E0,2E1,4E0,1E0],"tree_param":{"num_deleted":"0","num_feature":"8","num_nodes":"23","size_leaf_vector":"1"}},{"base_weights":[-1.9937672E-2,-2.0811591E-2,1.9444446E-1,-2.2630401E-2,1.3813837E-2,2.8281254E-1,5.2083354E-2,-1.2487946E-3,-1.2332472E-2,8.206711E-3,3.6E-1,5.909093E-2,3.1458333E-2,-6.818171E-4,2.1875E-2,-1.1424584E-3,1.8719819E-3,-3.609902E-4,2.2831645E-3,3.0833334E-2,-0E0,2.1875E-2,-6.2499894E-4],"categories":[],"categories_nodes":[],"categories_segments":[],"categories_sizes":[],"default_left":[0,0,0,0,0,0,0,0,0,0,0,0,0,0,0,0,0,0,0,0,0,0,0],"id":51,"left_children":[1,3,5,7,9,11,13,-1,15,17,19,21,-1,-1,-1,-1,-1,-1,-1,-1,-1,-1,-1],"loss_changes":[1.2496302E0,4.2408514E-1,2.9144537E-1,1.5013456E-1,6.0661453E-1,1.1337867E0,3.5230586E-1,0E0,6.2438154E-1,1.9427827E-1,4.9283332E-1,3.4596592E-1,0E0,0E0,0E0,0E0,0E0,0E0,0E0,0E0,0E0,0E0,0E0],"parents":[2147483647,0,0,1,1,2,2,3,3,4,4,5,5,6,6,8,8,9,9,10,10,11,11],"right_children":[2,4,6,8,10,12,14,-1,16,18,20,22,-1,-1,-1,-1,-1,-1,-1,-1,-1,-1,-1],"split_conditions":[5.1058826E2,4.26004E2,9.310114E0,1.3336888E1,2.8784704E1,6.9319577E0,1.7225624E1,-4.908545E-1,3.638205E2,1.0495216E1,4.528238E2,2.1660163E0,4.636902E-1,-1.5323487E-1,2.7454835E-1,-6.496084E-1,3.0198414E-2,-1.5660672E-2,2.046837E-2,1.5666504E-1,-2.7439576E-1,9.558411E-2,-1.6714478E-1],"split_indices":[2,1,5,5,5,5,5,0,1,5,0,5,0,0,0,0,0,0,0,0,0,0,0],"split_type":[0,0,0,0,0,0,0,0,0,0,0,0,0,0,0,0,0,0,0,0,0,0,0],"sum_hessian":[6.74E3,6.714E3,2.6E1,6.382E3,3.32E2,1.5E1,1.1E1,5.189E3,1.193E3,3.28E2,4E0,1E1,5E0,1E1,1E0,9.87E2,2.06E2,2.31E2,9.7E1,2E0,2E0,1E0,9E0],"tree_param":{"num_deleted":"0","num_feature":"8","num_nodes":"23","size_leaf_vector":"1"}},{"base_weights":[-1.969917E-2,-2.0561343E-2,1.7931037E-1,-2.1684872E-2,4.451757E-2,-6.2499894E-4,2.7125E-1,-2.4791488E-2,-8.483166E-3,1.1342616E-2,5.357143E-1,2.8E-2,1.5781252E-1,-1.2488198E-3,-6.6406134E-4,-1.0016946E-3,1.9606866E-3,-1.167762E-3,4.696971E-3,3.8E-2,-0E0,-0E0,1.0937501E-2],"categories":[],"categories_nodes":[],"categories_segments":[],"categories_sizes":[],"default_left":[0,0,0,0,0,0,0,0,0,0,0,0,0,0,0,0,0,0,0,0,0,0,0],"id":52,"left_children":[1,3,5,7,9,-1,11,13,15,17,19,-1,21,-1,-1,-1,-1,-1,-1,-1,-1,-1,-1],"loss_changes":[1.157136E0,4.9493432E-1,5.4068E-1,2.701807E-1,1.7968968E0,0E0,4.9494517E-1,7.3268414E-3,7.035119E-1,3.1877303E-1,8.7907124E-1,0E0,1.7574221E-1,0E0,0E0,0E0,0E0,0E0,0E0,0E0,0E0,0E0,0E0],"parents":[2147483647,0,0,1,1,2,2,3,3,4,4,6,6,7,7,8,8,9,9,10,10,12,12],"right_children":[2,4,6,8,10,-1,12,14,16,18,20,-1,22,-1,-1,-1,-1,-1,-1,-1,-1,-1,-1],"split_conditions":[5.1058826E2,2.8784704E1,6.9319577E0,3.704985E2,4.26004E2,-1.5878907E-1,9.310114E0,3.7080368E2,1.3163234E1,3.210086E2,4.7417062E2,4.4050598E-1,5.190178E2,-1.6119204E0,-3.0762264E-1,-8.557268E-2,2.0620462E-2,-2.6977593E-1,2.8534395E-1,6.532074E-1,-2.6067504E-1,-1.455719E-1,3.8648987E-1],"split_indices":[2,5,5,0,1,0,5,2,5,3,0,0,1,0,0,0,0,0,0,0,0,0,0],"split_type":[0,0,0,0,0,0,0,0,0,0,0,0,0,0,0,0,0,0,0,0,0,0,0],"sum_hessian":[6.814E3,6.786E3,2.8E1,6.673E3,1.13E2,9E0,1.9E1,5.395E3,1.278E3,1.07E2,6E0,4E0,1.5E1,5.3E3,9.5E1,1.031E3,2.47E2,7.5E1,3.2E1,4E0,2E0,4E0,1.1E1],"tree_param":{"num_deleted":"0","num_feature":"8","num_nodes":"23","size_leaf_vector":"1"}},{"base_weights":[-1.9592898E-2,-2.059638E-2,2.4134618E-1,-2.2825897E-2,2.1159444E-2,-0E0,2.76087E-1,-2.4313392E-2,-4.336711E-3,1.27924215E-2,3.53125E-2,-0E0,3.0476192E-1,-1.2319536E-3,-3.7189966E-4,-1.1086672E-3,3.5483881E-3,-3.571417E-4,2.7343761E-3,-0E0,1.6062502E-2],"categories":[],"categories_nodes":[],"categories_segments":[],"categories_sizes":[],"default_left":[0,0,0,0,0,0,0,0,0,0,0,0,0,0,0,0,0,0,0,0,0],"id":53,"left_children":[1,3,5,7,9,-1,11,13,15,17,-1,-1,19,-1,-1,-1,-1,-1,-1,-1,-1],"loss_changes":[1.7807429E0,6.375141E-1,2.3870504E-1,1.7571378E-1,1.8966593E0,0E0,1.9732404E-1,2.9628992E-2,6.5485144E-1,2.907799E-1,0E0,0E0,1.13555074E-1,0E0,0E0,0E0,0E0,0E0,0E0,0E0,0E0],"parents":[2147483647,0,0,1,1,2,2,3,3,4,4,6,6,7,7,8,8,9,9,12,12],"right_children":[2,4,6,8,10,-1,12,14,16,18,-1,-1,20,-1,-1,-1,-1,-1,-1,-1,-1],"split_conditions":[5.2601404E2,4.26004E2,5.190178E2,1.7427197E1,4.000334E1,-1.3829346E-1,1.6E1,4.1649973E2,3.5020776E2,1.0495216E1,6.205475E-1,-1.8969727E-1,4.5821204E2,-3.912401E-1,-2.064749E-3,-5.039532E-1,7.4903026E-2,-1.0438616E-2,1.932924E-2,-3.663147E-1,4.1848144E-1],"split_indices":[0,1,1,5,5,0,6,2,1,5,0,0,3,0,0,0,0,0,0,0,0],"split_type":[0,0,0,0,0,0,0,0,0,0,0,0,0,0,0,0,0,0,0,0,0],"sum_hessian":[6.865E3,6.84E3,2.5E1,6.496E3,3.44E2,3E0,2.2E1,6.007E3,4.89E2,3.41E2,3E0,2E0,2E1,5.887E3,1.2E2,3.97E2,9.2E1,2.3E2,1.11E2,1E0,1.9E1],"tree_param":{"num_deleted":"0","num_feature":"8","num_nodes":"21","size_leaf_vector":"1"}},{"base_weights":[-1.8353194E-2,-1.9782359E-2,1.4612071E-1,-2.4619969E-2,3.8562904E-3,3.0833334E-2,1.1651788E-1,-1.2488192E-3,-1.7796587E-2,-2.2359677E-3,3.0724322E-2,8.035737E-3,2.1379313E-1,2.1875E-2,-1.0586723E-3,2.8125013E-3,-2.3516119E-4,1.2500002E-2,1.1358185E-3,1.03125E-2,-9.999989E-4,2.28125E-2,8.221155E-3],"categories":[],"categories_nodes":[],"categories_segments":[],"categories_sizes":[],"default_left":[0,0,0,0,0,0,0,0,0,0,0,0,0,0,0,0,0,0,0,0,0,0,0],"id":54,"left_children":[1,3,5,7,9,-1,11,-1,13,15,17,19,21,-1,-1,-1,-1,-1,-1,-1,-1,-1,-1],"loss_changes":[1.5860806E0,7.720063E-1,6.627395E-1,8.877754E-3,1.8968436E-1,0E0,5.670463E-1,0E0,4.2118514E-1,1.290202E-1,3.4282246E-1,1.7834821E-1,2.100476E-1,0E0,0E0,0E0,0E0,0E0,0E0,0E0,0E0,0E0,0E0],"parents":[2147483647,0,0,1,1,2,2,3,3,4,4,6,6,8,8,9,9,10,10,11,11,12,12],"right_children":[2,4,6,8,10,-1,12,-1,14,16,18,20,22,-1,-1,-1,-1,-1,-1,-1,-1,-1,-1],"split_conditions":[4.9427112E2,3.7750717E2,4.4963745E2,3.6246094E2,4.4298752E2,5.4855347E-2,5.1058826E2,-1.881861E0,3.2327863E2,3.7173236E2,1.2E1,4.6533456E2,1.7E1,2.9627535E-1,-1.6450222E-1,7.530365E-2,-1.5444561E-2,8.514404E-2,2.1629062E-2,9.763489E-2,-1.381836E-2,3.462433E-1,3.975586E-1],"split_indices":[4,4,2,4,4,0,2,0,1,1,6,3,6,0,0,0,0,0,0,0,0,0,0],"split_type":[0,0,0,0,0,0,0,0,0,0,0,0,0,0,0,0,0,0,0,0,0,0,0],"sum_hessian":[6.788E3,6.731E3,5.7E1,5.591E3,1.14E3,2E0,5.5E1,5.297E3,2.94E2,9.27E2,2.13E2,2.7E1,2.8E1,1E0,2.93E2,3.5E1,8.92E2,6E0,2.07E2,3E0,2.4E1,3E0,2.5E1],"tree_param":{"num_deleted":"0","num_feature":"8","num_nodes":"23","size_leaf_vector":"1"}},{"base_weights":[-1.8947732E-2,-2.0232242E-2,1.2887934E-1,-2.4449896E-2,2.3393433E-3,-6.2499894E-4,1.5714288E-1,-1.2488455E-3,-1.3117847E-2,-1.8520836E-2,6.427241E-2,2.9411787E-2,2.1515153E-1,-1.2250984E-3,1.0000001E-2,-1.168595E-3,6.9307047E-4,2.0555558E-2,2.581732E-3,1.4166668E-2,-8.3333225E-4,-0E0,1.1532259E-2],"categories":[],"categories_nodes":[],"categories_segments":[],"categories_sizes":[],"default_left":[0,0,0,0,0,0,0,0,0,0,0,0,0,0,0,0,0,0,0,0,0,0,0],"id":55,"left_children":[1,3,5,7,9,-1,11,-1,13,15,17,19,21,-1,-1,-1,-1,-1,-1,-1,-1,-1,-1],"loss_changes":[1.2820125E0,6.437204E-1,2.4818957E-1,2.979064E-2,1.3726326E0,0E0,3.322817E-1,0E0,6.254306E-1,1.2553191E-1,1.107214E0,2.3029411E-1,1.2153709E-1,0E0,0E0,0E0,0E0,0E0,0E0,0E0,0E0,0E0,0E0],"parents":[2147483647,0,0,1,1,2,2,3,3,4,4,6,6,8,8,9,9,10,10,11,11,12,12],"right_children":[2,4,6,8,10,-1,12,-1,14,16,18,20,22,-1,-1,-1,-1,-1,-1,-1,-1,-1,-1],"split_conditions":[4.950504E2,3.8323807E2,4.924883E2,3.7013528E2,1.2362175E1,-2.0859376E-1,6.5229783E0,-1.4016756E0,1.8706238E1,4.5866315E2,3.7493994E2,2.1660163E0,4.2574084E2,-1.5379815E-1,5.7992555E-2,-1.2426622E-1,1.2042748E-2,1.2976074E-1,3.4062263E-2,5.7943728E-2,-1.2199707E-1,-1.351471E-1,3.7767944E-1],"split_indices":[0,4,1,4,5,0,5,0,5,4,0,5,3,0,0,0,0,0,0,0,0,0,0],"split_type":[0,0,0,0,0,0,0,0,0,0,0,0,0,0,0,0,0,0,0,0,0,0,0],"sum_hessian":[6.794E3,6.737E3,5.7E1,5.68E3,1.057E3,9E0,4.8E1,5.418E3,2.62E2,7.9E2,2.67E2,1.6E1,3.2E1,2.5E2,1.2E1,6.9E2,1E2,8E0,2.59E2,2E0,1.4E1,2E0,3E1],"tree_param":{"num_deleted":"0","num_feature":"8","num_nodes":"23","size_leaf_vector":"1"}},{"base_weights":[-1.853288E-2,-1.9533182E-2,1.848485E-1,-2.4246965E-2,5.710145E-5,1.20370395E-1,3.9285716E-1,-2.4789656E-2,-9.615148E-4,-1.7803006E-2,5.4769255E-2,2.1875E-2,8.750002E-2,-0E0,4.625E-1,-1.2488103E-3,-6.318669E-4,-7.999988E-4,1.4791667E-2,-1.1827945E-3,6.737025E-4,1.0291669E-2,1.9467919E-3,-3.5714183E-4,6.0625016E-3,3.0833334E-2,1.03125E-2],"categories":[],"categories_nodes":[],"categories_segments":[],"categories_sizes":[],"default_left":[0,0,0,0,0,0,0,0,0,0,0,0,0,0,0,0,0,0,0,0,0,0,0,0,0,0,0],"id":56,"left_children":[1,3,5,7,9,11,13,15,17,19,21,-1,23,-1,25,-1,-1,-1,-1,-1,-1,-1,-1,-1,-1,-1,-1],"loss_changes":[1.37517E0,6.2953043E-1,3.4398508E-1,6.662583E-2,1.2886665E0,1.906713E-1,2.030803E-1,8.049011E-3,5.5698395E-1,1.825673E-1,7.448637E-1,0E0,9.53259E-2,0E0,2.7552009E-2,0E0,0E0,0E0,0E0,0E0,0E0,0E0,0E0,0E0,0E0,0E0,0E0],"parents":[2147483647,0,0,1,1,2,2,3,3,4,4,5,5,6,6,7,7,8,8,9,9,10,10,12,12,14,14],"right_children":[2,4,6,8,10,12,14,16,18,20,22,-1,24,-1,26,-1,-1,-1,-1,-1,-1,-1,-1,-1,-1,-1,-1],"split_conditions":[5.2601404E2,3.6932858E2,2.3E1,2.2631742E1,1.2546178E1,2.1660163E0,5.190178E2,3.687687E2,3.4800534E2,4.4893658E2,3.76017E2,5.504761E-2,6.105212E0,-1.7014161E-1,1.1863063E1,-1.4872389E0,-5.368764E-2,-1.2409913E-1,5.5093385E-2,-1.3750377E-1,2.3055235E-2,1.2327271E-1,1.7792376E-2,-1.8554993E-1,3.5879517E-1,2.3466797E-1,1.8181153E-1],"split_indices":[0,0,6,5,5,5,1,1,1,1,0,0,5,0,5,0,0,0,0,0,0,0,0,0,0,0,0],"split_type":[0,0,0,0,0,0,0,0,0,0,0,0,0,0,0,0,0,0,0,0,0,0,0,0,0,0,0],"sum_hessian":[6.822E3,6.79E3,3.2E1,5.477E3,1.313E3,2.6E1,6E0,5.348E3,1.29E2,9.89E2,3.24E2,1E0,2.5E1,1E0,5E0,5.258E3,9E1,1.24E2,5E0,8.36E2,1.53E2,2.9E1,2.95E2,6E0,1.9E1,2E0,3E0],"tree_param":{"num_deleted":"0","num_feature":"8","num_nodes":"27","size_leaf_vector":"1"}},{"base_weights":[-1.875831E-2,-1.9772263E-2,1.9838712E-1,-2.2297166E-2,2.167971E-2,5.2083354E-2,2.7125E-1,-2.4622936E-2,-3.4236566E-3,-1.6290959E-2,8.7943286E-2,2.1875E-2,-6.818171E-4,-0E0,3.2352942E-1,-1.2488486E-3,-7.265998E-4,-1.2391857E-3,4.768146E-3,-1.0032883E-3,1.4705894E-3,-1.0185174E-3,5.6739147E-3,2.8E-2,1.0000001E-2],"categories":[],"categories_nodes":[],"categories_segments":[],"categories_sizes":[],"default_left":[0,0,0,0,0,0,0,0,0,0,0,0,0,0,0,0,0,0,0,0,0,0,0,0,0],"id":57,"left_children":[1,3,5,7,9,11,13,15,17,19,21,-1,-1,-1,23,-1,-1,-1,-1,-1,-1,-1,-1,-1,-1],"loss_changes":[1.472024E0,7.037704E-1,2.8400266E-1,2.7523232E-1,9.747697E-1,3.5230586E-1,3.0788052E-1,1.5821218E-2,1.4744765E0,4.1750208E-2,4.0159845E-1,0E0,0E0,0E0,3.0858827E-1,0E0,0E0,0E0,0E0,0E0,0E0,0E0,0E0,0E0,0E0],"parents":[2147483647,0,0,1,1,2,2,3,3,4,4,5,5,6,6,7,7,8,8,9,9,10,10,14,14],"right_children":[2,4,6,8,10,12,14,16,18,20,22,-1,-1,-1,24,-1,-1,-1,-1,-1,-1,-1,-1,-1,-1],"split_conditions":[5.1058826E2,4.2426425E2,6.9319577E0,1.5532343E1,1.0495216E1,2.1660163E0,4.8403055E2,4.038281E2,3.6246094E2,4.924883E2,4.1749042E2,5.229492E-2,-1.7627259E-1,-4.3804932E-2,9.310114E0,-4.624245E-1,-6.3952886E-2,-1.1020192E0,1.12705365E-1,-4.9018E-2,3.2073975E-2,-1.6616821E-2,5.430592E-2,3.4085694E-1,2.921051E-1],"split_indices":[2,4,5,5,5,5,3,3,4,1,1,0,0,0,5,0,0,0,0,0,0,0,0,0,0],"split_type":[0,0,0,0,0,0,0,0,0,0,0,0,0,0,0,0,0,0,0,0,0,0,0,0,0],"sum_hessian":[6.748E3,6.718E3,3E1,6.335E3,3.83E2,1.1E1,1.9E1,5.635E3,7E2,2.43E2,1.4E2,1E0,1E1,3E0,1.6E1,5.433E3,2.02E2,5.77E2,1.23E2,2.27E2,1.6E1,2.6E1,1.14E2,4E0,1.2E1],"tree_param":{"num_deleted":"0","num_feature":"8","num_nodes":"25","size_leaf_vector":"1"}},{"base_weights":[-1.8716414E-2,-1.9736227E-2,1.9140628E-1,-1.2488223E-3,6.424614E-4,9.687502E-2,4.1111115E-1,6.84524E-2,-1.4382805E-3,2.1875E-2,5.8695674E-2,-0E0,4.6562502E-1,1.1015627E-2,-1.0185174E-3,-3.7028402E-4,1.2872353E-3,1.03125E-2,1.0625011E-3,-0E0,2.6785716E-2],"categories":[],"categories_nodes":[],"categories_segments":[],"categories_sizes":[],"default_left":[0,0,0,0,0,0,0,0,0,0,0,0,0,0,0,0,0,0,0,0,0],"id":58,"left_children":[1,3,5,-1,7,9,11,13,15,-1,17,-1,19,-1,-1,-1,-1,-1,-1,-1,-1],"loss_changes":[1.4231825E0,7.150507E-1,5.7398224E-1,0E0,1.9897126E-1,2.3681723E-1,2.1334207E-1,5.910047E-1,2.1263844E-1,0E0,9.994836E-2,0E0,2.7447546E-1,0E0,0E0,0E0,0E0,0E0,0E0,0E0,0E0],"parents":[2147483647,0,0,1,1,2,2,4,4,5,5,6,6,7,7,8,8,10,10,12,12],"right_children":[2,4,6,-1,8,10,12,14,16,-1,18,-1,20,-1,-1,-1,-1,-1,-1,-1,-1],"split_conditions":[5.2601404E2,3.669885E2,2.2E1,-1.3632007E0,3.6484894E2,4.6533456E2,5.190178E2,3.5356015E2,4.4298752E2,7.930908E-2,1.7E1,-1.7623901E-1,4.5821204E2,4.6704102E-2,-4.6737674E-3,-9.743369E-3,3.0977845E-2,2.774994E-1,4.9679566E-2,-4.025116E-1,3.2381287E-1],"split_indices":[0,4,6,0,0,3,1,3,4,0,6,0,3,0,0,0,0,0,0,0,0],"split_type":[0,0,0,0,0,0,0,0,0,0,0,0,0,0,0,0,0,0,0,0,0],"sum_hessian":[6.703E3,6.672E3,3.1E1,5.311E3,1.361E3,2.3E1,8E0,4.1E1,1.32E3,1E0,2.2E1,1E0,7E0,1.5E1,2.6E1,1.086E3,2.34E2,3E0,1.9E1,1E0,6E0],"tree_param":{"num_deleted":"0","num_feature":"8","num_nodes":"21","size_leaf_vector":"1"}},{"base_weights":[-1.924037E-2,-2.4451248E-2,7.688832E-3,-2.4625462E-2,1.7045477E-2,3.675E-1,4.2890147E-3,-1.2488391E-3,-1.7569907E-2,-8.823518E-4,1.2916669E-1,6.2916666E-1,-0E0,-1.3301258E-2,4.871385E-2,-1.2274357E-3,8.375001E-3,2.1875E-2,-0E0,-0E0,3.8E-2,-8.4967207E-4,7.890626E-3,-1.1079534E-3,3.0270533E-3],"categories":[],"categories_nodes":[],"categories_segments":[],"categories_sizes":[],"default_left":[0,0,0,0,0,0,0,0,0,0,0,0,0,0,0,0,0,0,0,0,0,0,0,0,0],"id":59,"left_children":[1,3,5,7,9,11,13,-1,15,-1,17,19,-1,21,23,-1,-1,-1,-1,-1,-1,-1,-1,-1,-1],"loss_changes":[9.5509076E-1,4.234767E-2,1.3056431E0,9.371042E-3,9.9006236E-2,1.0245415E0,8.5596424E-1,0E0,3.59205E-1,0E0,2.8270835E-1,5.128958E-1,0E0,4.8139077E-1,2.6586902E-1,0E0,0E0,0E0,0E0,0E0,0E0,0E0,0E0,0E0,0E0],"parents":[2147483647,0,0,1,1,2,2,3,3,4,4,5,5,6,6,8,8,10,10,11,11,13,13,14,14],"right_children":[2,4,6,8,10,12,14,-1,16,-1,18,20,-1,22,24,-1,-1,-1,-1,-1,-1,-1,-1,-1,-1],"split_conditions":[3.8323807E2,4.5106155E1,3.7493994E2,1.8706238E1,3.178252E2,3.8551273E2,1.1805234E1,-8.6318606E-1,3.645324E2,-3.5034943E-1,3.3435944E2,3.6643158E2,-2.616318E-1,5.2601404E2,9E0,-2.6354957E-1,1.8873597E-2,4.2027435E-1,-3.0792237E-3,-5.276337E-2,1.11961365E-1,-6.70755E-2,3.076233E-1,-1.2995823E-3,4.7542136E-2],"split_indices":[4,5,0,5,2,2,5,0,2,0,0,0,0,0,6,0,0,0,0,0,0,0,0,0,0],"split_type":[0,0,0,0,0,0,0,0,0,0,0,0,0,0,0,0,0,0,0,0,0,0,0,0,0],"sum_hessian":[6.792E3,5.694E3,1.098E3,5.673E3,2.1E1,9E0,1.089E3,5.388E3,2.85E2,1.6E1,5E0,5E0,4E0,7.79E2,3.1E2,2.76E2,9E0,1E0,4E0,1E0,4E0,7.64E2,1.5E1,4.3E1,2.67E2],"tree_param":{"num_deleted":"0","num_feature":"8","num_nodes":"25","size_leaf_vector":"1"}},{"base_weights":[-2.016562E-2,-1.248833E-3,-2.7982336E-3,-1.6455673E-2,4.943184E-2,-1.8894577E-2,1.2894739E-1,2.0432694E-1,1.7509751E-2,-1.0987404E-3,2.0370488E-4,-3.5714183E-4,1.0000001E-2,1.6818184E-2,-9.374988E-4,-6.4653985E-5,2.8720251E-3],"categories":[],"categories_nodes":[],"categories_segments":[],"categories_sizes":[],"default_left":[0,0,0,0,0,0,0,0,0,0,0,0,0,0,0,0,0],"id":60,"left_children":[1,-1,3,5,7,9,11,13,15,-1,-1,-1,-1,-1,-1,-1,-1],"loss_changes":[5.696726E-1,0E0,1.0618027E0,4.1166094E-1,1.4971678E0,8.444345E-2,2.044361E-1,1.569694E0,1.9864745E-1,0E0,0E0,0E0,0E0,0E0,0E0,0E0,0E0],"parents":[2147483647,0,0,2,2,3,3,4,4,5,5,6,6,7,7,8,8],"right_children":[2,-1,4,6,8,10,12,14,16,-1,-1,-1,-1,-1,-1,-1,-1],"split_conditions":[3.6246094E2,-1.4580241E0,1.3336888E1,5.1058826E2,3.7493994E2,4.5866315E2,6.9319577E0,3.827982E2,4.1970578E2,-1.01753704E-1,1.4416165E-2,-2.0259094E-1,2.6124573E-1,3.9925995E-1,-4.3727112E-1,1.908736E-3,1.3275847E-1],"split_indices":[4,0,5,2,0,4,5,1,1,0,0,0,0,0,0,0,0],"split_type":[0,0,0,0,0,0,0,0,0,0,0,0,0,0,0,0,0],"sum_hessian":[6.851E3,5.36E3,1.491E3,1.184E3,3.07E2,1.166E3,1.8E1,5.1E1,2.56E2,1.032E3,1.34E2,6E0,1.2E1,3.2E1,1.9E1,1.73E2,8.3E1],"tree_param":{"num_deleted":"0","num_feature":"8","num_nodes":"17","size_leaf_vector":"1"}},{"base_weights":[-2.0132232E-2,-2.0851133E-2,1.5740743E-1,-2.4599334E-2,-7.3001115E-3,7.631581E-2,3E-1,-1.2486877E-3,-2.1050163E-2,-1.1141281E-2,4.6391778E-2,2.1875E-2,2.6388912E-2,-0E0,3.4062502E-1,3.4482873E-4,-1.1397047E-3,-8.663822E-4,4.4642977E-4,7.2413804E-3,1.4492871E-4,8.000001E-3,-8.035704E-4,-0E0,1.9642858E-2],"categories":[],"categories_nodes":[],"categories_segments":[],"categories_sizes":[],"default_left":[0,0,0,0,0,0,0,0,0,0,0,0,0,0,0,0,0,0,0,0,0,0,0,0,0],"id":61,"left_children":[1,3,5,7,9,11,13,-1,15,17,19,-1,21,-1,23,-1,-1,-1,-1,-1,-1,-1,-1,-1,-1],"loss_changes":[8.5817385E-1,3.4094906E-1,2.5167638E-1,1.9202232E-3,3.014015E-1,2.846893E-1,1.182031E-1,0E0,2.7967572E-2,1.723348E-1,4.000926E-1,0E0,1.19081356E-1,0E0,1.5215409E-1,0E0,0E0,0E0,0E0,0E0,0E0,0E0,0E0,0E0,0E0],"parents":[2147483647,0,0,1,1,2,2,3,3,4,4,5,5,6,6,8,8,9,9,10,10,12,12,14,14],"right_children":[2,4,6,8,10,12,14,-1,16,18,20,-1,22,-1,24,-1,-1,-1,-1,-1,-1,-1,-1,-1,-1],"split_conditions":[5.2601404E2,3.638139E2,2.2E1,3.3267493E2,2.3E1,4.743996E2,5.190178E2,-2.7092512E0,3.3435944E2,4.26004E2,3.9383383E2,5.9243776E-2,1.7E1,-1.7644349E-1,4.5821204E2,3.7929687E-1,-2.6634753E-1,-2.9868586E-2,7.758882E-3,6.224518E-2,1.2768941E-2,2.481842E-1,-7.254028E-2,-3.9140016E-1,2.791809E-1],"split_indices":[0,0,6,0,6,2,1,0,0,1,0,0,6,0,3,0,0,0,0,0,0,0,0,0,0],"split_type":[0,0,0,0,0,0,0,0,0,0,0,0,0,0,0,0,0,0,0,0,0,0,0,0,0],"sum_hessian":[6.804E3,6.778E3,2.6E1,5.303E3,1.475E3,1.8E1,8E0,4.766E3,5.37E2,1.379E3,9.6E1,1E0,1.7E1,1E0,7E0,2.8E1,5.09E2,1.058E3,3.21E2,2.8E1,6.8E1,4E0,1.3E1,1E0,6E0],"tree_param":{"num_deleted":"0","num_feature":"8","num_nodes":"25","size_leaf_vector":"1"}},{"base_weights":[-1.9260649E-2,-2.0263871E-2,1.7285717E-1,-1.2488236E-3,-3.0866065E-3,1.1034485E-1,3.9285716E-1,-1.7940897E-2,5.071205E-2,2.1875E-2,7.946431E-2,-0E0,4.625E-1,-1.0951426E-3,4.7202918E-4,7.456142E-3,1.4278858E-3,-5.555545E-4,6.0625016E-3,3.0833334E-2,1.03125E-2],"categories":[],"categories_nodes":[],"categories_segments":[],"categories_sizes":[],"default_left":[0,0,0,0,0,0,0,0,0,0,0,0,0,0,0,0,0,0,0,0,0],"id":62,"left_children":[1,3,5,-1,7,9,11,13,15,-1,17,-1,19,-1,-1,-1,-1,-1,-1,-1,-1],"loss_changes":[1.3021319E0,5.4619765E-1,3.8767505E-1,0E0,1.1691732E0,2.0651707E-1,2.030803E-1,1.2631825E-1,6.6692454E-1,0E0,1.1833434E-1,0E0,2.7552009E-2,0E0,0E0,0E0,0E0,0E0,0E0,0E0,0E0],"parents":[2147483647,0,0,1,1,2,2,4,4,5,5,6,6,7,7,8,8,10,10,12,12],"right_children":[2,4,6,-1,8,10,12,14,16,-1,18,-1,20,-1,-1,-1,-1,-1,-1,-1,-1],"split_conditions":[5.2601404E2,3.6246094E2,2.3E1,-1.4132074E0,1.3163234E1,2.1660163E0,5.190178E2,2.2E1,3.7493994E2,4.556885E-2,6.3215675E0,-1.6762085E-1,1.1863063E1,-7.3449686E-2,9.086622E-3,2.4454594E-1,2.8408065E-2,-1.7156982E-1,2.6522216E-1,1.627411E-1,1.1895142E-1],"split_indices":[0,4,6,0,5,5,1,6,0,0,5,0,5,0,0,0,0,0,0,0,0],"split_type":[0,0,0,0,0,0,0,0,0,0,0,0,0,0,0,0,0,0,0,0,0],"sum_hessian":[6.816E3,6.782E3,3.4E1,5.317E3,1.465E3,2.8E1,6E0,1.15E3,3.15E2,1E0,2.7E1,1E0,5E0,1.008E3,1.42E2,5.6E1,2.59E2,8E0,1.9E1,2E0,3E0],"tree_param":{"num_deleted":"0","num_feature":"8","num_nodes":"21","size_leaf_vector":"1"}},{"base_weights":[-1.8631842E-2,-1.9495083E-2,1.7931037E-1,-2.4221234E-2,-2.123595E-3,7.125002E-2,3.675E-1,-2.4784418E-2,1.20253395E-2,-1.6605312E-2,4.1091185E-2,2.1875E-2,2.3684233E-2,-0E0,4.6562502E-1,-1.2487846E-3,-4.794509E-4,-1.1607131E-3,1.3375001E-2,-1.136605E-3,1.0430476E-3,5.825894E-3,1.3436495E-3,-8.593739E-4,1.03125E-2,3.53125E-2,8.000001E-3],"categories":[],"categories_nodes":[],"categories_segments":[],"categories_sizes":[],"default_left":[0,0,0,0,0,0,0,0,0,0,0,0,0,0,0,0,0,0,0,0,0,0,0,0,0,0,0],"id":63,"left_children":[1,3,5,7,9,11,13,15,17,19,21,-1,23,-1,25,-1,-1,-1,-1,-1,-1,-1,-1,-1,-1,-1,-1],"loss_changes":[1.1446571E0,5.5099845E-1,5.1967996E-1,1.09704256E-1,9.0442723E-1,2.9193914E-1,3.8389063E-1,1.1472702E-2,7.4186164E-1,2.5017983E-1,3.707499E-1,0E0,1.6422491E-1,0E0,3.8870323E-1,0E0,0E0,0E0,0E0,0E0,0E0,0E0,0E0,0E0,0E0,0E0,0E0],"parents":[2147483647,0,0,1,1,2,2,3,3,4,4,5,5,6,6,7,7,8,8,9,9,10,10,12,12,14,14],"right_children":[2,4,6,8,10,12,14,16,18,20,22,-1,24,-1,26,-1,-1,-1,-1,-1,-1,-1,-1,-1,-1,-1,-1],"split_conditions":[5.2601404E2,3.638139E2,2.2E1,2.8784704E1,1.2546178E1,4.743996E2,6.74747E0,2.1761213E1,3.1815497E2,4.4893658E2,3.76017E2,4.3020632E-2,1.1970429E1,-2.6941225E-1,1.1863063E1,-1.1682701E0,7.3300996E-3,-3.9893505E-1,3.4810486E-1,-1.0283406E-1,2.4693232E-2,7.849488E-2,2.652792E-2,-8.217468E-2,2.2251587E-1,2.5196227E-1,1.13003545E-1],"split_indices":[0,0,6,5,5,2,5,5,1,1,0,0,5,0,5,0,0,0,0,0,0,0,0,0,0,0,0],"split_type":[0,0,0,0,0,0,0,0,0,0,0,0,0,0,0,0,0,0,0,0,0,0,0,0,0,0,0],"sum_hessian":[6.771E3,6.743E3,2.8E1,5.296E3,1.447E3,1.9E1,9E0,5.218E3,7.8E1,1.086E3,3.61E2,1E0,1.8E1,2E0,7E0,5.146E3,7.2E1,6.9E1,9E0,9.36E2,1.5E2,5.5E1,3.06E2,1.5E1,3E0,3E0,4E0],"tree_param":{"num_deleted":"0","num_feature":"8","num_nodes":"27","size_leaf_vector":"1"}},{"base_weights":[-1.96592E-2,-2.221537E-2,4.5019556E-2,-1.2488038E-3,-1.083982E-2,3.4939785E-2,3.4062502E-1,4.5625E-1,-1.2372725E-2,1.950675E-2,1.5740743E-1,5.6E-1,-0E0,3.0833334E-2,-0E0,-1.1897095E-3,9.130446E-4,-3.6458214E-4,2.5600975E-3,2.1875E-2,6.2980778E-3,-0E0,3.53125E-2],"categories":[],"categories_nodes":[],"categories_segments":[],"categories_sizes":[],"default_left":[0,0,0,0,0,0,0,0,0,0,0,0,0,0,0,0,0,0,0,0,0,0,0],"id":64,"left_children":[1,3,5,-1,7,9,11,13,15,17,19,21,-1,-1,-1,-1,-1,-1,-1,-1,-1,-1,-1],"loss_changes":[1.1170104E0,2.0055962E-1,7.133289E-1,0E0,8.7774277E-1,4.4985986E-1,6.3979685E-1,3.0817705E-1,4.4778556E-1,1.9417621E-1,1.2635505E-1,4.2715633E-1,0E0,0E0,0E0,0E0,0E0,0E0,0E0,0E0,0E0,0E0,0E0],"parents":[2147483647,0,0,1,1,2,2,4,4,5,5,6,6,7,7,8,8,9,9,10,10,11,11],"right_children":[2,4,6,-1,8,10,12,14,16,18,20,22,-1,-1,-1,-1,-1,-1,-1,-1,-1,-1,-1],"split_conditions":[4.4298752E2,3.5972195E2,4.000334E1,-1.4025004E0,3.311755E2,5.2601404E2,4.7417062E2,3.4531317E2,1.2034568E1,9.310114E0,4.743996E2,3.9885873E2,-5.810196E-1,3.3069918E-1,-1.1802415E0,-1.7521465E-1,2.5700599E-2,-1.17396216E-4,2.3107316E-2,4.0869143E-2,2.3936462E-1,-8.33725E-1,5.6943053E-1],"split_indices":[4,4,5,0,1,0,0,0,5,5,2,1,0,0,0,0,0,0,0,0,0,0,0],"split_type":[0,0,0,0,0,0,0,0,0,0,0,0,0,0,0,0,0,0,0,0,0,0,0],"sum_hessian":[6.763E3,6.508E3,2.55E2,5.229E3,1.279E3,2.48E2,7E0,3E0,1.276E3,2.22E2,2.6E1,4E0,3E0,2E0,1E0,9.32E2,3.44E2,1.19E2,1.03E2,1E0,2.5E1,1E0,3E0],"tree_param":{"num_deleted":"0","num_feature":"8","num_nodes":"23","size_leaf_vector":"1"}},{"base_weights":[-2.0295773E-2,-2.2185534E-2,1.0705152E-2,-2.336533E-2,7.085044E-3,5.893806E-3,3.6E-1,-2.4793554E-2,-1.2751654E-2,-1.2127965E-3,7.4062526E-2,-9.134592E-3,3.7401598E-2,3.0833334E-2,-0E0,-1.2488129E-3,-9.392253E-4,-1.2383384E-3,8.7500125E-4,1.0689656E-2,-1.6826806E-4,-8.1983686E-4,5.625001E-3,4.0333346E-3,-1.1320743E-3],"categories":[],"categories_nodes":[],"categories_segments":[],"categories_sizes":[],"default_left":[0,0,0,0,0,0,0,0,0,0,0,0,0,0,0,0,0,0,0,0,0,0,0,0,0],"id":65,"left_children":[1,3,5,7,9,11,13,15,17,-1,19,21,23,-1,-1,-1,-1,-1,-1,-1,-1,-1,-1,-1,-1],"loss_changes":[4.014585E-1,2.2418785E-1,6.167144E-1,8.982229E-2,5.252645E-1,1.8594384E-1,4.9283332E-1,1.1382103E-3,2.719507E-1,0E0,8.872858E-1,2.2189966E-1,3.3754563E-1,0E0,0E0,0E0,0E0,0E0,0E0,0E0,0E0,0E0,0E0,0E0,0E0],"parents":[2147483647,0,0,1,1,2,2,3,3,4,4,5,5,6,6,7,7,8,8,10,10,11,11,12,12],"right_children":[2,4,6,8,10,12,14,16,18,-1,20,22,24,-1,-1,-1,-1,-1,-1,-1,-1,-1,-1,-1,-1],"split_conditions":[4.26004E2,2.0529995E1,4.000334E1,3.770746E2,3.1815497E2,1.0495216E1,4.4818707E2,3.6740552E2,1.1365063E1,-1.3403579E0,3.7493994E2,5.2601404E2,1.4493829E1,3.3410646E-2,-2.5757447E-1,-9.0967524E-1,-4.528174E-2,-1.785498E-1,1.6466556E-2,3.1416473E-1,4.532942E-3,-1.7253017E-2,2.2739564E-1,4.540251E-2,-3.105534E-3],"split_indices":[1,5,5,1,1,5,0,1,5,0,0,0,5,0,0,0,0,0,0,0,0,0,0,0,0],"split_type":[0,0,0,0,0,0,0,0,0,0,0,0,0,0,0,0,0,0,0,0,0,0,0,0,0],"sum_hessian":[6.828E3,6.439E3,3.89E2,6.193E3,2.46E2,3.85E2,4E0,